#ifndef _CONV3_WEIGHTS_BIAS_H_
#define _CONV3_WEIGHTS_BIAS_H_

#include "process_element.h"

data_t L3_Kernel[L3_Kernel_number][L3_Kernel_channel][L3_Kernel_size][L3_Kernel_size] = {
	{
		{
			{-0.08800175040960311890, -0.00085677206516265869, -0.04797975718975067139, 	},
			{-0.08180168271064758301, -0.02233243919909000397, 0.02460577338933944702, 	},
			{-0.08051504194736480713, -0.02498354017734527588, 0.09417306631803512573, 	},
		},
		{
			{0.01579814590513706207, -0.03437867760658264160, -0.06455388665199279785, 	},
			{-0.10463286191225051880, 0.00124129594769328833, -0.11025200039148330688, 	},
			{-0.09148273617029190063, 0.02264519780874252319, 0.01174266077578067780, 	},
		},
		{
			{-0.05110953748226165771, -0.07017180323600769043, 0.00951678212732076645, 	},
			{-0.03127516806125640869, -0.05015369877219200134, 0.09794928878545761108, 	},
			{0.08001880347728729248, 0.07812756299972534180, 0.02433870360255241394, 	},
		},
		{
			{0.03390581160783767700, 0.06596086919307708740, 0.10453888028860092163, 	},
			{0.08164298534393310547, -0.00625216588377952576, -0.09029493480920791626, 	},
			{0.06389975547790527344, -0.10636519640684127808, -0.01373975630849599838, 	},
		},
		{
			{-0.09333042055368423462, -0.03445331007242202759, 0.07801822572946548462, 	},
			{-0.10331012308597564697, 0.08776194602251052856, 0.03084242343902587891, 	},
			{-0.09294731914997100830, -0.03854069113731384277, 0.01106109097599983215, 	},
		},
		{
			{-0.08981811255216598511, 0.03681959584355354309, 0.03045557253062725067, 	},
			{0.04205671325325965881, 0.02944334037601947784, 0.00122511957306414843, 	},
			{-0.10410020500421524048, -0.11147177964448928833, 0.05298886075615882874, 	},
		},
		{
			{0.01466559618711471558, 0.10149180889129638672, 0.06880989670753479004, 	},
			{0.02145534567534923553, -0.07951941341161727905, -0.13071338832378387451, 	},
			{-0.02123393304646015167, -0.03314243257045745850, 0.02631346881389617920, 	},
		},
		{
			{0.02106882818043231964, -0.11569698154926300049, -0.05362793430685997009, 	},
			{-0.07484111189842224121, 0.05635996907949447632, -0.05324805900454521179, 	},
			{-0.04036479443311691284, 0.07940659672021865845, 0.01099460758268833160, 	},
		},
		{
			{0.10191927850246429443, -0.07532960176467895508, -0.08596111834049224854, 	},
			{0.02211450412869453430, -0.06882601231336593628, -0.11591060459613800049, 	},
			{-0.02587696351110935211, -0.05578821897506713867, 0.07507713884115219116, 	},
		},
		{
			{-0.10736306756734848022, 0.03743866458535194397, 0.08146993815898895264, 	},
			{-0.10391927510499954224, -0.01697451248764991760, -0.10766025632619857788, 	},
			{0.05299161747097969055, 0.06602275371551513672, -0.01093857176601886749, 	},
		},
		{
			{0.11773356795310974121, 0.00893067847937345505, 0.04777563735842704773, 	},
			{-0.10885036736726760864, 0.09104615449905395508, 0.05224667116999626160, 	},
			{-0.09688984602689743042, -0.02339315786957740784, -0.03400731086730957031, 	},
		},
		{
			{0.00116083922330290079, -0.00528610730543732643, 0.02398107200860977173, 	},
			{-0.00694450316950678825, -0.03928454220294952393, 0.05769432336091995239, 	},
			{-0.04255814850330352783, 0.08845748007297515869, 0.07979618012905120850, 	},
		},
		{
			{0.02248364873230457306, -0.05045870319008827209, -0.09019963443279266357, 	},
			{-0.08971031755208969116, 0.03076942265033721924, 0.03066663071513175964, 	},
			{0.10844917595386505127, 0.02977829985320568085, -0.01428322959691286087, 	},
		},
		{
			{0.04360372573137283325, 0.06214381009340286255, 0.05347531288862228394, 	},
			{-0.02741583809256553650, 0.08455281704664230347, -0.08580880612134933472, 	},
			{0.03371613845229148865, -0.03888703137636184692, -0.01587623730301856995, 	},
		},
		{
			{0.09235279262065887451, -0.03622415289282798767, -0.10637522488832473755, 	},
			{0.01788856647908687592, -0.09516445547342300415, 0.09985269606113433838, 	},
			{0.06795029342174530029, -0.02550640888512134552, 0.04481648281216621399, 	},
		},
		{
			{0.08604519814252853394, 0.01647063158452510834, 0.05798463150858879089, 	},
			{-0.10270184278488159180, 0.00213213544338941574, 0.04489884153008460999, 	},
			{-0.04402589797973632812, -0.05823512747883796692, 0.11664145439863204956, 	},
		},
			},

	{
		{
			{-0.08671791106462478638, -0.07013112306594848633, 0.06597544997930526733, 	},
			{0.01492885407060384750, 0.00101777329109609127, 0.07254999130964279175, 	},
			{-0.08953009545803070068, -0.10841377824544906616, 0.01496034674346446991, 	},
		},
		{
			{0.06488229334354400635, 0.10805652290582656860, -0.00511507270857691765, 	},
			{-0.09893467277288436890, 0.00810236297547817230, -0.01401118375360965729, 	},
			{0.04555910080671310425, 0.02159125171601772308, 0.01034835632890462875, 	},
		},
		{
			{0.05431954935193061829, -0.10827214270830154419, 0.05162819474935531616, 	},
			{0.04550749808549880981, 0.05358848348259925842, 0.00549815921112895012, 	},
			{-0.03188209608197212219, 0.03699310868978500366, -0.08792624622583389282, 	},
		},
		{
			{-0.09168952703475952148, -0.06324078142642974854, -0.08783106505870819092, 	},
			{-0.05355123057961463928, -0.02799113653600215912, 0.04066907614469528198, 	},
			{0.00574857974424958229, 0.10834223031997680664, 0.07624933868646621704, 	},
		},
		{
			{-0.06941292434930801392, 0.03310926631093025208, -0.12703374028205871582, 	},
			{-0.12580411136150360107, -0.03376504778861999512, -0.06873808801174163818, 	},
			{0.10588370263576507568, -0.05759819597005844116, -0.02097406610846519470, 	},
		},
		{
			{0.00187577353790402412, -0.05209369212388992310, -0.02319704927504062653, 	},
			{0.04796934872865676880, 0.01732132025063037872, -0.06067388132214546204, 	},
			{-0.08277277648448944092, 0.07776544988155364990, -0.00744380522519350052, 	},
		},
		{
			{-0.06145783141255378723, 0.02049812860786914825, 0.09828694164752960205, 	},
			{0.08041320741176605225, 0.02212350629270076752, -0.03105218522250652313, 	},
			{-0.01927725039422512054, 0.02023296058177947998, -0.10671609640121459961, 	},
		},
		{
			{0.05653480067849159241, -0.08850052952766418457, -0.05878223106265068054, 	},
			{0.06247403100132942200, -0.09368666261434555054, 0.05396757274866104126, 	},
			{-0.04474484547972679138, -0.09474082291126251221, 0.01999581977725028992, 	},
		},
		{
			{-0.00205122772604227066, 0.08779621124267578125, -0.10851114243268966675, 	},
			{-0.09081687033176422119, -0.06458103656768798828, 0.07372885942459106445, 	},
			{-0.04297724366188049316, -0.09156443178653717041, -0.09990239143371582031, 	},
		},
		{
			{-0.10222882032394409180, 0.04551665484905242920, 0.09884684532880783081, 	},
			{-0.05671286582946777344, -0.05408436805009841919, 0.10729290544986724854, 	},
			{-0.00681756529957056046, -0.12003662437200546265, 0.01934350840747356415, 	},
		},
		{
			{0.08573668450117111206, -0.09482826292514801025, 0.08397833257913589478, 	},
			{-0.06698947399854660034, -0.04750294983386993408, -0.05595231428742408752, 	},
			{-0.08669615536928176880, 0.08593769371509552002, -0.03265643492341041565, 	},
		},
		{
			{0.02804175950586795807, -0.06815875321626663208, 0.01005487982183694839, 	},
			{-0.04454856738448143005, -0.04852132871747016907, 0.00641698623076081276, 	},
			{0.02164739556610584259, -0.05309939384460449219, 0.09367090463638305664, 	},
		},
		{
			{0.02351376414299011230, 0.10203181207180023193, -0.10812158882617950439, 	},
			{0.09784284979104995728, -0.05997674539685249329, -0.05863618105649948120, 	},
			{-0.09569589793682098389, 0.04278214648365974426, 0.00606488203629851341, 	},
		},
		{
			{-0.00183237018063664436, -0.07516440749168395996, -0.07764489948749542236, 	},
			{0.10841916501522064209, -0.04004279896616935730, 0.00273941247723996639, 	},
			{0.11102930456399917603, 0.09894330054521560669, -0.08671379834413528442, 	},
		},
		{
			{0.09235906600952148438, 0.04579630121588706970, 0.00833141058683395386, 	},
			{0.05672436952590942383, -0.05269746854901313782, 0.06416758149862289429, 	},
			{0.00190816679969429970, 0.05778519809246063232, -0.03748467564582824707, 	},
		},
		{
			{0.00416241632774472237, 0.10797476023435592651, -0.05120849981904029846, 	},
			{-0.05034614354372024536, -0.10660479217767715454, -0.05052389949560165405, 	},
			{-0.02438495121896266937, 0.00740573089569807053, -0.10150383412837982178, 	},
		},
			},

	{
		{
			{0.02312217652797698975, -0.03582587465643882751, 0.02441461570560932159, 	},
			{0.01949469931423664093, 0.08928153663873672485, -0.05390416085720062256, 	},
			{-0.10720285028219223022, -0.08120319247245788574, 0.05723384767770767212, 	},
		},
		{
			{0.10167098790407180786, -0.10301537811756134033, -0.06153546646237373352, 	},
			{0.00852354522794485092, 0.06853401660919189453, 0.04629515483975410461, 	},
			{0.02274121902883052826, 0.03292728960514068604, -0.00837220065295696259, 	},
		},
		{
			{-0.01017349772155284882, -0.04004113376140594482, 0.09066230058670043945, 	},
			{-0.10065884143114089966, -0.01748150773346424103, 0.07019799947738647461, 	},
			{-0.04131422191858291626, 0.05949323251843452454, -0.03967425227165222168, 	},
		},
		{
			{0.07481709122657775879, 0.06707280129194259644, -0.08961518108844757080, 	},
			{-0.09400247782468795776, -0.05566814914345741272, -0.06639496237039566040, 	},
			{0.06067582592368125916, -0.03129909560084342957, 0.02074710093438625336, 	},
		},
		{
			{-0.10724075138568878174, -0.00002336516627110541, -0.04225955158472061157, 	},
			{-0.11730545014142990112, -0.06847000867128372192, -0.06970565766096115112, 	},
			{-0.02256787754595279694, -0.07938285917043685913, 0.09227041900157928467, 	},
		},
		{
			{0.01144326943904161453, 0.05380088835954666138, 0.07391059398651123047, 	},
			{-0.00458161579445004463, -0.00526019977405667305, 0.06497988104820251465, 	},
			{-0.02715026214718818665, 0.10586339980363845825, 0.03853737935423851013, 	},
		},
		{
			{-0.10142588615417480469, -0.02574552409350872040, 0.01831860095262527466, 	},
			{0.04314535483717918396, 0.00876651052385568619, 0.09375526010990142822, 	},
			{0.00066895899362862110, 0.11517877131700515747, -0.00624714745208621025, 	},
		},
		{
			{-0.06338790059089660645, 0.09899517893791198730, 0.11022078990936279297, 	},
			{-0.06835793703794479370, 0.02388907596468925476, -0.04799769446253776550, 	},
			{-0.02631821483373641968, -0.11204946786165237427, 0.04981229081749916077, 	},
		},
		{
			{-0.07995629310607910156, 0.07558935135602951050, 0.03939370065927505493, 	},
			{-0.09824539721012115479, 0.00756213674321770668, 0.05248467624187469482, 	},
			{0.03860496729612350464, -0.06418095529079437256, 0.11639162153005599976, 	},
		},
		{
			{0.01923596113920211792, 0.06724815070629119873, 0.11279493570327758789, 	},
			{0.05294417589902877808, -0.09461976587772369385, 0.09856139123439788818, 	},
			{-0.04492982476949691772, 0.03306202217936515808, 0.03665655851364135742, 	},
		},
		{
			{0.04518500342965126038, -0.05273194611072540283, -0.03805162385106086731, 	},
			{0.10425018519163131714, 0.10747886449098587036, -0.10175381600856781006, 	},
			{0.03647272661328315735, 0.05536425858736038208, -0.03149087354540824890, 	},
		},
		{
			{0.04129397124052047729, -0.10837171971797943115, 0.08563740551471710205, 	},
			{0.08939248323440551758, 0.02371191419661045074, -0.07899082452058792114, 	},
			{0.09939714521169662476, -0.02686191722750663757, -0.08097888529300689697, 	},
		},
		{
			{0.06513832509517669678, 0.02416969463229179382, -0.05738228186964988708, 	},
			{-0.03818038851022720337, -0.10117198526859283447, -0.02433246374130249023, 	},
			{-0.09830044955015182495, 0.05262304842472076416, -0.04552518576383590698, 	},
		},
		{
			{-0.08156754076480865479, -0.02314726263284683228, -0.04173352941870689392, 	},
			{-0.09066144376993179321, -0.02136334218084812164, -0.09287337213754653931, 	},
			{-0.09660390764474868774, -0.04908199608325958252, -0.03283570334315299988, 	},
		},
		{
			{0.00106236059218645096, -0.01763984002172946930, -0.01286423299461603165, 	},
			{0.11681753396987915039, -0.07257350534200668335, 0.03097688406705856323, 	},
			{0.08290576189756393433, -0.03865189477801322937, -0.00124497886281460524, 	},
		},
		{
			{0.07837271690368652344, -0.08227643370628356934, -0.04017510265111923218, 	},
			{-0.00726012885570526123, 0.03094482235610485077, 0.07855439931154251099, 	},
			{-0.00233952933922410011, -0.04565069824457168579, -0.04810720309615135193, 	},
		},
			},

	{
		{
			{0.09257365018129348755, -0.07553458958864212036, 0.08769601583480834961, 	},
			{0.02446514740586280823, -0.04941695183515548706, 0.05805801600217819214, 	},
			{0.08163601160049438477, -0.10151125490665435791, -0.03121769055724143982, 	},
		},
		{
			{-0.03986911103129386902, -0.06930272281169891357, 0.10876753926277160645, 	},
			{0.11634911596775054932, 0.07624391466379165649, 0.05880067124962806702, 	},
			{-0.06835629791021347046, 0.01091921608895063400, -0.02017138153314590454, 	},
		},
		{
			{-0.03254461660981178284, 0.10365960747003555298, 0.01539467368274927139, 	},
			{-0.06068331748247146606, 0.04954207316040992737, -0.10008880496025085449, 	},
			{0.05956765264272689819, -0.05552529171109199524, -0.01472287159413099289, 	},
		},
		{
			{-0.08130162209272384644, -0.06624162942171096802, 0.04672278836369514465, 	},
			{0.02120167389512062073, 0.09384769201278686523, -0.03967790305614471436, 	},
			{0.01847627572715282440, -0.08904425799846649170, 0.07687315344810485840, 	},
		},
		{
			{-0.11505039781332015991, -0.00938224699348211288, -0.08451458066701889038, 	},
			{-0.05338681861758232117, 0.11126607656478881836, -0.11040183156728744507, 	},
			{0.06225335225462913513, 0.10723010450601577759, -0.00618753070011734962, 	},
		},
		{
			{-0.10573364049196243286, -0.02316014468669891357, -0.04830105602741241455, 	},
			{-0.07745011895895004272, -0.07008959352970123291, 0.01011956576257944107, 	},
			{-0.09373917430639266968, 0.00007820560131222010, 0.02798112109303474426, 	},
		},
		{
			{-0.03387971967458724976, 0.05829226225614547729, 0.03431777656078338623, 	},
			{-0.01209838781505823135, -0.04964046180248260498, 0.11289793998003005981, 	},
			{-0.03857171908020973206, 0.07325413078069686890, -0.01318030618131160736, 	},
		},
		{
			{-0.07934083789587020874, 0.07974465936422348022, 0.10756445676088333130, 	},
			{0.02410032600164413452, 0.04789657518267631531, 0.09663839638233184814, 	},
			{0.04009847715497016907, -0.07004093378782272339, -0.06017083302140235901, 	},
		},
		{
			{0.03054540790617465973, -0.00414818013086915016, -0.02820319496095180511, 	},
			{0.07438371330499649048, -0.08872139453887939453, -0.04687927663326263428, 	},
			{-0.04862435162067413330, 0.01949767395853996277, -0.08688557147979736328, 	},
		},
		{
			{0.11177447438240051270, 0.04827478900551795959, -0.10962989181280136108, 	},
			{-0.01273508276790380478, -0.10927765071392059326, -0.03571383282542228699, 	},
			{-0.01444492395967245102, -0.06524413824081420898, -0.09408332407474517822, 	},
		},
		{
			{-0.05511707440018653870, -0.03715838119387626648, -0.04083196818828582764, 	},
			{0.04379417002201080322, -0.09822552651166915894, -0.04734501615166664124, 	},
			{-0.05621380358934402466, 0.05971888825297355652, 0.07046435028314590454, 	},
		},
		{
			{-0.09475624561309814453, -0.03584735840559005737, 0.01622187532484531403, 	},
			{0.02754436247050762177, 0.10447311401367187500, 0.03889975324273109436, 	},
			{-0.05405001342296600342, 0.04696008563041687012, 0.09636536985635757446, 	},
		},
		{
			{0.01643829606473445892, 0.03770897909998893738, 0.11297897994518280029, 	},
			{0.11547387391328811646, -0.03408203274011611938, 0.10545559972524642944, 	},
			{0.04988856986165046692, 0.03815363347530364990, -0.10037232935428619385, 	},
		},
		{
			{-0.09290465712547302246, 0.01647233776748180389, 0.05597498640418052673, 	},
			{0.03330810368061065674, 0.00929401535540819168, -0.08143416792154312134, 	},
			{-0.05653265118598937988, 0.02251297235488891602, -0.03118266724050045013, 	},
		},
		{
			{-0.10006010532379150391, -0.09125547111034393311, 0.09448276460170745850, 	},
			{-0.00531402323395013809, 0.04302272573113441467, 0.04264770820736885071, 	},
			{-0.04463668167591094971, -0.06887082010507583618, 0.04525367170572280884, 	},
		},
		{
			{0.06652512401342391968, -0.06608143448829650879, 0.03023942932486534119, 	},
			{-0.05541021004319190979, 0.07581580430269241333, 0.04355591535568237305, 	},
			{0.08178938180208206177, 0.09151866286993026733, -0.10046069324016571045, 	},
		},
			},

	{
		{
			{0.08039589971303939819, 0.09185298532247543335, -0.04890279471874237061, 	},
			{0.05378905311226844788, 0.10299614071846008301, 0.04692884907126426697, 	},
			{0.01673530228435993195, 0.08396315574645996094, 0.10870686918497085571, 	},
		},
		{
			{0.10754330456256866455, 0.02404472790658473969, 0.04545933008193969727, 	},
			{0.05650027841329574585, 0.09441875666379928589, -0.05050120502710342407, 	},
			{-0.03409862518310546875, -0.02021754533052444458, 0.11513133347034454346, 	},
		},
		{
			{0.08822077512741088867, 0.03465002030134201050, 0.10765434801578521729, 	},
			{-0.05460945889353752136, 0.02532136440277099609, 0.03249288350343704224, 	},
			{0.03477874398231506348, 0.10231872648000717163, -0.11574975401163101196, 	},
		},
		{
			{-0.08745502680540084839, -0.08508401364088058472, -0.06156356260180473328, 	},
			{0.08616677671670913696, -0.07546754926443099976, 0.04746579751372337341, 	},
			{-0.04438425227999687195, 0.09317660331726074219, 0.03984156250953674316, 	},
		},
		{
			{-0.09036649018526077271, -0.11350446194410324097, -0.03732750192284584045, 	},
			{0.01873991265892982483, 0.03435241058468818665, 0.07489971816539764404, 	},
			{-0.09164922684431076050, -0.01663992367684841156, -0.00483453506603837013, 	},
		},
		{
			{-0.05975991860032081604, 0.01967779174447059631, 0.09449990838766098022, 	},
			{-0.11093746125698089600, -0.10813339054584503174, 0.11090410500764846802, 	},
			{-0.09143398702144622803, -0.02281123027205467224, -0.05455998703837394714, 	},
		},
		{
			{-0.09649071842432022095, -0.11564644426107406616, -0.02623599022626876831, 	},
			{0.07156729698181152344, 0.06188467890024185181, 0.00411184737458825111, 	},
			{-0.04846866801381111145, -0.10104925930500030518, 0.02795453928411006927, 	},
		},
		{
			{-0.05671041458845138550, 0.02021226100623607635, -0.00303160678595304489, 	},
			{-0.05768569931387901306, 0.08430728316307067871, -0.07289684563875198364, 	},
			{-0.08252062648534774780, 0.03899956122040748596, -0.06212606653571128845, 	},
		},
		{
			{-0.04116566479206085205, 0.04383666813373565674, 0.08888137340545654297, 	},
			{0.06801145523786544800, 0.09374210983514785767, -0.00185303727630525827, 	},
			{0.01471798680722713470, 0.03833150863647460938, -0.08957581967115402222, 	},
		},
		{
			{-0.08646732568740844727, -0.04584397375583648682, 0.01022060588002204895, 	},
			{-0.01655908860266208649, -0.09499733150005340576, 0.02892405539751052856, 	},
			{-0.08780138194561004639, -0.00099804322235286236, 0.06377732008695602417, 	},
		},
		{
			{-0.02800622954964637756, -0.04312990605831146240, 0.08477196097373962402, 	},
			{-0.05765135958790779114, 0.00215913867577910423, 0.00257193925790488720, 	},
			{-0.02943789586424827576, 0.02341480739414691925, -0.05346665903925895691, 	},
		},
		{
			{-0.08961040526628494263, -0.00336020812392234802, -0.06100863218307495117, 	},
			{-0.10742697119712829590, -0.05037905275821685791, -0.08894506096839904785, 	},
			{-0.04194292426109313965, -0.08109925687313079834, -0.10775762796401977539, 	},
		},
		{
			{0.05892439931631088257, -0.10188513994216918945, 0.06037809327244758606, 	},
			{0.05581653490662574768, 0.09889785945415496826, 0.03993695974349975586, 	},
			{-0.01682697795331478119, 0.10641707479953765869, 0.09548589587211608887, 	},
		},
		{
			{-0.06383848935365676880, 0.05349715426564216614, -0.07057996094226837158, 	},
			{-0.11093511432409286499, -0.04420155286788940430, -0.01288074068725109100, 	},
			{0.00873496383428573608, -0.00874717067927122116, 0.10587264597415924072, 	},
		},
		{
			{0.07487493753433227539, 0.01602951064705848694, -0.11723391711711883545, 	},
			{-0.01150634139776229858, 0.08512835949659347534, -0.08855487406253814697, 	},
			{0.02894743904471397400, 0.06079540029168128967, 0.07554090023040771484, 	},
		},
		{
			{0.03528051823377609253, -0.05890012159943580627, -0.11989642679691314697, 	},
			{0.02784696966409683228, 0.01953611522912979126, 0.01183368172496557236, 	},
			{-0.08528233319520950317, 0.00495267473161220551, 0.05414006114006042480, 	},
		},
			},

	{
		{
			{0.08042041212320327759, 0.02245538681745529175, 0.03013867326080799103, 	},
			{0.02316962368786334991, -0.05305078253149986267, 0.03342440351843833923, 	},
			{-0.08014706522226333618, 0.03932496905326843262, -0.07690931856632232666, 	},
		},
		{
			{0.00756492791697382927, -0.02539688907563686371, -0.10126160085201263428, 	},
			{0.09073463827371597290, -0.01370552740991115570, 0.07974568009376525879, 	},
			{-0.08923552185297012329, 0.06877986341714859009, 0.01153825316578149796, 	},
		},
		{
			{-0.05660990625619888306, -0.05562576279044151306, -0.08829793334007263184, 	},
			{-0.00565603841096162796, -0.01171241048723459244, -0.04284919798374176025, 	},
			{-0.01137811038643121719, -0.01467199251055717468, -0.01409389730542898178, 	},
		},
		{
			{0.00181006547063589096, -0.07529381662607192993, 0.00074597797356545925, 	},
			{0.09351757913827896118, 0.04572612419724464417, 0.03774636611342430115, 	},
			{0.01177072897553443909, 0.07142271101474761963, -0.04638753458857536316, 	},
		},
		{
			{-0.01593151688575744629, -0.06331011652946472168, -0.09975048154592514038, 	},
			{-0.02888692542910575867, 0.01282119285315275192, 0.01233581360429525375, 	},
			{0.00860396493226289749, -0.01875706017017364502, 0.05594178289175033569, 	},
		},
		{
			{-0.06133854761719703674, -0.02343429997563362122, -0.05831704661250114441, 	},
			{0.09085587412118911743, -0.04083375260233879089, -0.03090568818151950836, 	},
			{-0.00745709892362356186, 0.02840478532016277313, 0.04201864823698997498, 	},
		},
		{
			{0.10192587971687316895, -0.10526841878890991211, -0.08050729334354400635, 	},
			{0.04131497815251350403, 0.10183953493833541870, 0.03637425974011421204, 	},
			{-0.01049016229808330536, -0.04946558177471160889, -0.01395705994218587875, 	},
		},
		{
			{0.01232830714434385300, -0.08976534754037857056, -0.01652594842016696930, 	},
			{0.02200811542570590973, 0.05626862868666648865, 0.02516065165400505066, 	},
			{-0.04174304381012916565, 0.01532208640128374100, 0.07144282758235931396, 	},
		},
		{
			{0.05046771466732025146, -0.07825821638107299805, -0.08299968391656875610, 	},
			{-0.01268937345594167709, -0.02130892872810363770, 0.10423841327428817749, 	},
			{0.01464553829282522202, 0.11010802537202835083, -0.07343105971813201904, 	},
		},
		{
			{0.03284940123558044434, 0.05949629843235015869, -0.03612591698765754700, 	},
			{-0.11587119847536087036, -0.06487754732370376587, 0.04512768611311912537, 	},
			{-0.04565837234258651733, 0.00871442444622516632, 0.01322815101593732834, 	},
		},
		{
			{0.05083302408456802368, 0.05925467982888221741, 0.09616558253765106201, 	},
			{0.09351380169391632080, -0.10254432260990142822, -0.10449943691492080688, 	},
			{0.04686779901385307312, -0.05578821152448654175, 0.06700107455253601074, 	},
		},
		{
			{-0.00210466911084949970, 0.06310014426708221436, -0.00850784219801425934, 	},
			{0.05103988572955131531, 0.08483549952507019043, 0.10426242649555206299, 	},
			{-0.04934139177203178406, -0.02276084572076797485, -0.07781676203012466431, 	},
		},
		{
			{0.00876381155103445053, -0.07258312404155731201, -0.09829849749803543091, 	},
			{0.04583883285522460938, -0.01669539511203765869, -0.09777311980724334717, 	},
			{-0.02498632669448852539, 0.10013446211814880371, 0.05326680839061737061, 	},
		},
		{
			{-0.01570420339703559875, 0.02556245028972625732, 0.04257211089134216309, 	},
			{0.06062170118093490601, -0.06770177930593490601, -0.10065974295139312744, 	},
			{-0.11832842230796813965, -0.06579176336526870728, -0.04869600757956504822, 	},
		},
		{
			{-0.04789630323648452759, -0.08450548350811004639, 0.07899191230535507202, 	},
			{-0.07175953686237335205, 0.00658838637173175812, -0.04298623651266098022, 	},
			{0.10389467328786849976, 0.05276847258210182190, -0.11034610122442245483, 	},
		},
		{
			{0.00599988549947738647, -0.07490529119968414307, 0.08117375522851943970, 	},
			{0.04253582283854484558, 0.02177298627793788910, 0.03162723407149314880, 	},
			{-0.00083616841584444046, -0.04976170882582664490, -0.10383550822734832764, 	},
		},
			},

	{
		{
			{-0.10801354050636291504, -0.01531498972326517105, 0.04688203334808349609, 	},
			{-0.10354530811309814453, -0.00663776276633143425, 0.06927277147769927979, 	},
			{-0.09418044984340667725, -0.01101217605173587799, 0.00811818800866603851, 	},
		},
		{
			{-0.10346946865320205688, -0.02315138466656208038, -0.05254976451396942139, 	},
			{-0.04801061376929283142, -0.03678819164633750916, 0.02677313238382339478, 	},
			{0.01860729418694972992, 0.09959526360034942627, 0.06184412911534309387, 	},
		},
		{
			{0.08261737227439880371, -0.11355555802583694458, 0.03163425996899604797, 	},
			{-0.11092559248208999634, -0.05029904842376708984, -0.08097956329584121704, 	},
			{-0.05251865088939666748, 0.08096341043710708618, 0.07646382600069046021, 	},
		},
		{
			{-0.09041678905487060547, -0.10548420995473861694, 0.04836696386337280273, 	},
			{0.07387541234493255615, -0.04866879805922508240, 0.09137307107448577881, 	},
			{-0.00699750846251845360, 0.09454943984746932983, 0.02210655808448791504, 	},
		},
		{
			{-0.03617811203002929688, -0.07115796953439712524, -0.08502748608589172363, 	},
			{-0.06859803944826126099, -0.01335249561816453934, 0.09560871869325637817, 	},
			{-0.08288302272558212280, -0.05514023825526237488, 0.06102051213383674622, 	},
		},
		{
			{-0.04709758982062339783, 0.02780515514314174652, -0.00521282339468598366, 	},
			{0.00869631767272949219, -0.06129866838455200195, 0.03763129562139511108, 	},
			{0.09350705891847610474, 0.08875869214534759521, 0.07541023194789886475, 	},
		},
		{
			{0.08469509333372116089, 0.01732723228633403778, -0.07721331715583801270, 	},
			{0.07736072689294815063, 0.06582222133874893188, -0.05228475853800773621, 	},
			{-0.07903811335563659668, 0.02659799158573150635, 0.00550994416698813438, 	},
		},
		{
			{-0.11242964118719100952, 0.07619412243366241455, -0.03636366128921508789, 	},
			{-0.00830622948706150055, 0.10095608234405517578, -0.10429089516401290894, 	},
			{0.03513721004128456116, -0.07761542499065399170, -0.07625018805265426636, 	},
		},
		{
			{0.02314640395343303680, 0.02036831714212894440, -0.03481984883546829224, 	},
			{0.02438737265765666962, -0.09727264940738677979, -0.03186533227562904358, 	},
			{-0.06819282472133636475, -0.00920175481587648392, 0.07454433292150497437, 	},
		},
		{
			{0.12788471579551696777, -0.08009369671344757080, 0.03665012121200561523, 	},
			{0.01764276996254920959, -0.08070807904005050659, 0.03191280364990234375, 	},
			{0.02686972916126251221, 0.11326255649328231812, -0.03185892477631568909, 	},
		},
		{
			{-0.09346314519643783569, 0.08635444939136505127, -0.04156377911567687988, 	},
			{-0.05795699730515480042, 0.07429766654968261719, -0.05223574489355087280, 	},
			{0.10596174001693725586, 0.11101067811250686646, 0.03535287827253341675, 	},
		},
		{
			{-0.10684672743082046509, 0.00535659305751323700, 0.01414399780333042145, 	},
			{0.00009154394501820207, -0.08271027356386184692, -0.09080658107995986938, 	},
			{-0.07595792412757873535, -0.02591616846621036530, 0.07843076437711715698, 	},
		},
		{
			{0.08064325153827667236, 0.06707371771335601807, -0.10992239415645599365, 	},
			{0.05509218201041221619, -0.09379419684410095215, 0.03239599987864494324, 	},
			{0.06561090797185897827, 0.09101427346467971802, -0.03291651979088783264, 	},
		},
		{
			{-0.01207909453660249710, -0.05578916519880294800, 0.01823396980762481689, 	},
			{0.07433411478996276855, -0.07484829425811767578, 0.02926542982459068298, 	},
			{0.07750090956687927246, 0.07299172133207321167, -0.08134565502405166626, 	},
		},
		{
			{0.10102088749408721924, 0.10642342269420623779, 0.09162085503339767456, 	},
			{0.08248431235551834106, 0.03539305180311203003, 0.06731912493705749512, 	},
			{-0.02495081722736358643, -0.05492216348648071289, -0.02158522419631481171, 	},
		},
		{
			{0.02825203537940979004, 0.06210110709071159363, -0.09018807113170623779, 	},
			{-0.07002285867929458618, 0.02937336638569831848, 0.04221172258257865906, 	},
			{0.02328209765255451202, -0.11257239431142807007, 0.10558527708053588867, 	},
		},
			},

	{
		{
			{-0.04886474460363388062, 0.04911495372653007507, 0.08894319087266921997, 	},
			{-0.02784853428602218628, 0.12059117853641510010, 0.00449923472478985786, 	},
			{-0.01525690685957670212, 0.11297730356454849243, 0.08094634860754013062, 	},
		},
		{
			{0.02898357249796390533, -0.05902544409036636353, -0.06469464302062988281, 	},
			{0.05776161700487136841, -0.08910677582025527954, 0.00740505149587988853, 	},
			{0.06206221878528594971, 0.01497581694275140762, -0.05351035669445991516, 	},
		},
		{
			{-0.06458111852407455444, -0.01589705608785152435, -0.05517016351222991943, 	},
			{0.09150546044111251831, -0.03449759632349014282, 0.02689445205032825470, 	},
			{-0.05336804315447807312, -0.03411234170198440552, -0.01216682046651840210, 	},
		},
		{
			{0.03102821670472621918, -0.07579696923494338989, 0.08939725905656814575, 	},
			{0.00787517800927162170, 0.08565559238195419312, 0.02518980205059051514, 	},
			{-0.05017891898751258850, 0.08434633910655975342, 0.02201694995164871216, 	},
		},
		{
			{-0.03173969313502311707, -0.08228331059217453003, 0.03496825695037841797, 	},
			{-0.09013696759939193726, 0.12053885310888290405, 0.07190191745758056641, 	},
			{0.05951164662837982178, -0.02000949718058109283, -0.02662520669400691986, 	},
		},
		{
			{0.06456018239259719849, -0.03743939474225044250, -0.11523804068565368652, 	},
			{-0.05492310971021652222, 0.04620214924216270447, -0.05956320092082023621, 	},
			{-0.01007245946675539017, 0.05439932271838188171, 0.09734968096017837524, 	},
		},
		{
			{-0.03747337684035301208, 0.03544361889362335205, 0.07458885759115219116, 	},
			{-0.03826615586876869202, 0.05976388230919837952, -0.04514538496732711792, 	},
			{-0.03193676471710205078, -0.08140616863965988159, 0.03152325749397277832, 	},
		},
		{
			{-0.11146504431962966919, 0.07632647454738616943, -0.10453824698925018311, 	},
			{0.05526591464877128601, -0.04654917865991592407, 0.02620283700525760651, 	},
			{0.05944300070405006409, 0.10625375807285308838, -0.10814854502677917480, 	},
		},
		{
			{-0.06598686426877975464, -0.06202548742294311523, -0.05222968384623527527, 	},
			{-0.09760250896215438843, -0.10752716660499572754, 0.00335021479986608028, 	},
			{-0.05529261007905006409, -0.08689347654581069946, 0.01567574590444564819, 	},
		},
		{
			{-0.00846438109874725342, 0.03733087331056594849, -0.02881562896072864532, 	},
			{0.10215468704700469971, 0.05934257060289382935, 0.09169918298721313477, 	},
			{0.06542727351188659668, 0.11114155501127243042, -0.08329346030950546265, 	},
		},
		{
			{0.10149512439966201782, 0.05496624112129211426, -0.00869886763393878937, 	},
			{-0.04713149741291999817, 0.08987621963024139404, -0.00463878363370895386, 	},
			{-0.07702746987342834473, -0.04594809561967849731, -0.05793268978595733643, 	},
		},
		{
			{0.02201038971543312073, -0.04693853482604026794, 0.11139170825481414795, 	},
			{-0.08511106669902801514, 0.07575578242540359497, 0.10431097447872161865, 	},
			{-0.07879253476858139038, 0.09570731967687606812, -0.06539355218410491943, 	},
		},
		{
			{0.06123350188136100769, 0.01176232378929853439, 0.05122828111052513123, 	},
			{0.02109145745635032654, 0.07185417413711547852, 0.09527842700481414795, 	},
			{0.04746590182185173035, 0.05243024975061416626, 0.10170350968837738037, 	},
		},
		{
			{-0.05331315472722053528, 0.02205487526953220367, -0.03498921170830726624, 	},
			{0.10713489353656768799, 0.08548419177532196045, -0.07328969240188598633, 	},
			{0.01149601209908723831, -0.00950971525162458420, 0.01750577241182327271, 	},
		},
		{
			{0.02809472382068634033, 0.11197869479656219482, 0.07057778537273406982, 	},
			{0.02439712733030319214, -0.05693006142973899841, -0.01585528440773487091, 	},
			{-0.07187154889106750488, -0.04698622226715087891, 0.05248846858739852905, 	},
		},
		{
			{0.03776846826076507568, -0.03274689614772796631, -0.03448605909943580627, 	},
			{0.09513668715953826904, -0.06827098876237869263, -0.10548043996095657349, 	},
			{-0.05586182326078414917, -0.03288846835494041443, -0.08411794900894165039, 	},
		},
			},

	{
		{
			{-0.04828664287924766541, -0.10734850913286209106, -0.06289771199226379395, 	},
			{0.05542806908488273621, 0.00740321353077888489, 0.01900541409850120544, 	},
			{0.02829028293490409851, -0.04623472690582275391, -0.01413786504417657852, 	},
		},
		{
			{0.03116093017160892487, 0.04339071735739707947, -0.07940110564231872559, 	},
			{-0.00269147893413901329, 0.05731722712516784668, -0.03605975583195686340, 	},
			{-0.03469714894890785217, -0.05654951184988021851, 0.02300135791301727295, 	},
		},
		{
			{0.08996301889419555664, 0.01350030023604631424, 0.06538960337638854980, 	},
			{0.06813400983810424805, 0.00419960264116525650, -0.02295391634106636047, 	},
			{0.05605745315551757812, 0.10458385199308395386, 0.03216402605175971985, 	},
		},
		{
			{-0.11390434205532073975, 0.10765311866998672485, -0.05080123990774154663, 	},
			{-0.07982394844293594360, -0.01792494207620620728, -0.01223361864686012268, 	},
			{-0.09153838455677032471, 0.02135200798511505127, 0.10409148782491683960, 	},
		},
		{
			{-0.05267271026968955994, -0.05921670421957969666, -0.03918935731053352356, 	},
			{0.12109975516796112061, 0.01162476930767297745, 0.00503337476402521133, 	},
			{0.11809458583593368530, -0.10008149594068527222, 0.12401277571916580200, 	},
		},
		{
			{0.07623947411775588989, 0.04484668374061584473, 0.02649462968111038208, 	},
			{0.04390101134777069092, 0.04625702649354934692, -0.07422129809856414795, 	},
			{0.11483457684516906738, 0.05947368964552879333, -0.02520814351737499237, 	},
		},
		{
			{-0.01411959715187549591, 0.06489291042089462280, 0.08771206438541412354, 	},
			{0.02676004357635974884, -0.00363745749928057194, 0.07656624168157577515, 	},
			{-0.10683552175760269165, -0.02328558079898357391, -0.05853897705674171448, 	},
		},
		{
			{-0.09646889567375183105, 0.11703398078680038452, 0.09748525917530059814, 	},
			{0.01708553731441497803, -0.08667521923780441284, 0.06744074821472167969, 	},
			{0.04768047481775283813, 0.06923998892307281494, 0.03707867860794067383, 	},
		},
		{
			{0.06416068971157073975, -0.08214191347360610962, 0.10411004722118377686, 	},
			{0.08775274455547332764, 0.05552091076970100403, 0.00811640545725822449, 	},
			{0.07893947511911392212, 0.04056769609451293945, -0.01764837279915809631, 	},
		},
		{
			{0.00709758140146732330, 0.00130263937171548605, 0.07347515225410461426, 	},
			{0.03524791449308395386, 0.01115359924733638763, -0.11318008601665496826, 	},
			{0.02996755763888359070, -0.07122805714607238770, -0.04870828613638877869, 	},
		},
		{
			{0.07941230386495590210, 0.07474298030138015747, -0.07963576167821884155, 	},
			{0.04990328475832939148, 0.04877293109893798828, 0.06545084714889526367, 	},
			{0.07591546326875686646, 0.06329042464494705200, 0.07891035825014114380, 	},
		},
		{
			{0.03389751538634300232, -0.11809673905372619629, -0.00977564323693513870, 	},
			{-0.04551475122570991516, -0.03722371533513069153, -0.09346085041761398315, 	},
			{0.02777786552906036377, -0.11484036594629287720, -0.04862349852919578552, 	},
		},
		{
			{-0.02692784368991851807, -0.10034394264221191406, -0.06108815222978591919, 	},
			{-0.03527645766735076904, -0.09630587697029113770, 0.05858264118432998657, 	},
			{-0.09268552064895629883, 0.10507133603096008301, 0.05782752484083175659, 	},
		},
		{
			{-0.10154342651367187500, -0.10422839969396591187, -0.00679286802187561989, 	},
			{-0.10199578851461410522, 0.07206378132104873657, -0.10775995999574661255, 	},
			{-0.03711027652025222778, -0.01850782707333564758, -0.00946531817317008972, 	},
		},
		{
			{0.04007674008607864380, 0.00867209397256374359, 0.04713488370180130005, 	},
			{0.05159148946404457092, -0.09215924143791198730, 0.11219245195388793945, 	},
			{0.09114822000265121460, 0.00866051856428384781, 0.02180456370115280151, 	},
		},
		{
			{-0.10779453068971633911, -0.09304946660995483398, 0.00941596645861864090, 	},
			{0.03508059307932853699, 0.04884093254804611206, -0.09754404425621032715, 	},
			{-0.04481372609734535217, 0.07120187580585479736, 0.06904938071966171265, 	},
		},
			},

	{
		{
			{-0.04711121693253517151, -0.09372628480195999146, -0.07388696819543838501, 	},
			{0.05595351383090019226, -0.05339801311492919922, -0.11315996944904327393, 	},
			{-0.09541612863540649414, 0.04996062815189361572, 0.10902239382266998291, 	},
		},
		{
			{-0.07570747286081314087, 0.04477803036570549011, -0.11740925163030624390, 	},
			{-0.09827089309692382812, -0.03560511767864227295, 0.05696622654795646667, 	},
			{-0.01687891781330108643, -0.10589060187339782715, -0.06554967164993286133, 	},
		},
		{
			{0.09512753039598464966, 0.06214270740747451782, 0.00571581115946173668, 	},
			{-0.07660655677318572998, -0.00731387594714760780, 0.09276778250932693481, 	},
			{-0.04059417545795440674, -0.00552603090181946754, -0.08874482661485671997, 	},
		},
		{
			{-0.04428311809897422791, 0.10304499417543411255, -0.10191342979669570923, 	},
			{-0.01346885040402412415, -0.05723944678902626038, 0.08666085451841354370, 	},
			{0.03523281961679458618, 0.05515077337622642517, -0.05319099500775337219, 	},
		},
		{
			{-0.07389413565397262573, -0.07871569693088531494, 0.09805531054735183716, 	},
			{0.09837849438190460205, -0.11221645772457122803, -0.04693021625280380249, 	},
			{-0.04085290804505348206, -0.05085727572441101074, 0.10040028393268585205, 	},
		},
		{
			{-0.00373031035996973515, -0.03245110064744949341, -0.01050682645291090012, 	},
			{0.00829691160470247269, 0.06487087905406951904, 0.10932353883981704712, 	},
			{-0.07316170632839202881, -0.10996677726507186890, 0.06524161249399185181, 	},
		},
		{
			{-0.10815104097127914429, -0.07220429927110671997, -0.01034610252827405930, 	},
			{-0.03300577029585838318, 0.06470885127782821655, -0.09016624838113784790, 	},
			{0.03904198855161666870, -0.06287553161382675171, -0.09988906979560852051, 	},
		},
		{
			{-0.08574037998914718628, 0.10248485952615737915, 0.01903572492301464081, 	},
			{-0.01916800811886787415, 0.04374673962593078613, -0.04673884809017181396, 	},
			{0.02637578919529914856, -0.07902243733406066895, -0.00786218140274286270, 	},
		},
		{
			{0.06476243585348129272, -0.02560588717460632324, -0.02441181056201457977, 	},
			{0.04143770784139633179, 0.07123181223869323730, -0.06312195956707000732, 	},
			{0.01841829717159271240, -0.01027198042720556259, -0.09936137497425079346, 	},
		},
		{
			{-0.09112912416458129883, -0.06966431438922882080, 0.05987071990966796875, 	},
			{0.02165465056896209717, -0.08280724287033081055, -0.06190427392721176147, 	},
			{-0.03757145628333091736, -0.06634995341300964355, 0.11163940280675888062, 	},
		},
		{
			{0.08371157199144363403, 0.01339983753859996796, 0.01505825296044349670, 	},
			{0.07820053398609161377, -0.01732381246984004974, -0.02931728214025497437, 	},
			{-0.10669033229351043701, 0.05059381201863288879, -0.00541734742000699043, 	},
		},
		{
			{-0.00461746845394372940, 0.07446642965078353882, -0.03971726074814796448, 	},
			{-0.11183260381221771240, 0.07127229869365692139, 0.00389200984500348568, 	},
			{-0.04423510655760765076, -0.05343734100461006165, -0.09035728126764297485, 	},
		},
		{
			{-0.04885931685566902161, -0.11125963181257247925, -0.10239640623331069946, 	},
			{0.08909261971712112427, 0.04476531594991683960, 0.10513829439878463745, 	},
			{-0.09424912929534912109, 0.00314648589119315147, 0.02183093130588531494, 	},
		},
		{
			{-0.05900774151086807251, 0.05316540226340293884, 0.06248357519507408142, 	},
			{0.10293933004140853882, -0.10853165388107299805, 0.09288973361253738403, 	},
			{-0.05158808454871177673, -0.11206737905740737915, -0.06788940727710723877, 	},
		},
		{
			{0.07696580141782760620, 0.09013345092535018921, 0.09590988606214523315, 	},
			{0.07476822286844253540, -0.04782275855541229248, -0.05888583138585090637, 	},
			{0.11141079664230346680, 0.10194788873195648193, 0.03932636976242065430, 	},
		},
		{
			{-0.05973870679736137390, -0.08240952342748641968, 0.07824843376874923706, 	},
			{-0.05199867486953735352, -0.09779972583055496216, 0.02410463988780975342, 	},
			{-0.03590066358447074890, 0.02663008309900760651, -0.08733215183019638062, 	},
		},
			},

	{
		{
			{0.11816893517971038818, 0.03674107789993286133, -0.00357461278326809406, 	},
			{-0.10825190693140029907, -0.02245868556201457977, -0.05785953626036643982, 	},
			{-0.05710287019610404968, -0.10890398919582366943, 0.11477108299732208252, 	},
		},
		{
			{0.00709017924964427948, -0.03351894393563270569, -0.08525228500366210938, 	},
			{-0.08244067430496215820, 0.06734181940555572510, 0.10623618215322494507, 	},
			{-0.09575177729129791260, -0.06542965024709701538, -0.08237732201814651489, 	},
		},
		{
			{-0.07896481454372406006, -0.09605415165424346924, 0.05020742118358612061, 	},
			{0.10944208502769470215, -0.01209577918052673340, -0.00754188653081655502, 	},
			{-0.11022152006626129150, -0.06739372014999389648, -0.01781899482011795044, 	},
		},
		{
			{-0.01600608415901660919, -0.09805002063512802124, 0.10864226520061492920, 	},
			{-0.07266369462013244629, 0.10915863513946533203, -0.11967175453901290894, 	},
			{0.06327394396066665649, -0.01858063228428363800, -0.05309217423200607300, 	},
		},
		{
			{-0.11529667675495147705, 0.00053145678248256445, 0.04927485808730125427, 	},
			{0.06647905707359313965, 0.00988907832652330399, 0.07794634997844696045, 	},
			{0.08464778214693069458, 0.05658496171236038208, 0.03812730684876441956, 	},
		},
		{
			{0.03237739577889442444, -0.04968318715691566467, -0.05105268582701683044, 	},
			{0.02101643383502960205, 0.05172295123338699341, -0.01954744569957256317, 	},
			{-0.04660123586654663086, 0.10114467144012451172, 0.02238440327346324921, 	},
		},
		{
			{-0.11107984930276870728, 0.06497621536254882812, -0.08558069169521331787, 	},
			{0.08781437575817108154, -0.07216662168502807617, 0.10059539973735809326, 	},
			{0.05583806708455085754, 0.04313744232058525085, -0.06215874478220939636, 	},
		},
		{
			{0.05133143067359924316, -0.09038761258125305176, -0.02584674954414367676, 	},
			{-0.10166423022747039795, -0.09198919683694839478, -0.09241738915443420410, 	},
			{0.08319780230522155762, 0.04304029047489166260, -0.07983690500259399414, 	},
		},
		{
			{-0.00045319859054870903, 0.03568267449736595154, 0.02953096106648445129, 	},
			{0.01927627064287662506, -0.06047189235687255859, 0.09991495311260223389, 	},
			{-0.10650752484798431396, 0.11508172005414962769, -0.09424447268247604370, 	},
		},
		{
			{-0.01676024869084358215, 0.03960202634334564209, -0.03137071430683135986, 	},
			{-0.02357988059520721436, 0.02517625503242015839, 0.10629370063543319702, 	},
			{0.05062019824981689453, 0.06328225880861282349, -0.10653707385063171387, 	},
		},
		{
			{0.01572968065738677979, -0.07622230052947998047, -0.03176163509488105774, 	},
			{-0.05302661657333374023, -0.06392168253660202026, 0.00969732739031314850, 	},
			{0.02336253970861434937, -0.08778360486030578613, -0.03378883749246597290, 	},
		},
		{
			{0.10389699786901473999, 0.09841941297054290771, 0.07884432375431060791, 	},
			{-0.00192047317977994680, -0.03971616178750991821, -0.04739709943532943726, 	},
			{-0.01765532605350017548, 0.02419922873377799988, -0.03298598900437355042, 	},
		},
		{
			{0.08308122307062149048, -0.05377326160669326782, -0.06602976471185684204, 	},
			{0.05168958753347396851, -0.01700831204652786255, -0.03421453759074211121, 	},
			{0.09882184118032455444, -0.04973892122507095337, 0.11431574821472167969, 	},
		},
		{
			{-0.05485722422599792480, 0.08262574672698974609, -0.10323783755302429199, 	},
			{0.06766062974929809570, -0.08139820396900177002, 0.07253284752368927002, 	},
			{-0.07898902148008346558, -0.10848670452833175659, 0.01509963814169168472, 	},
		},
		{
			{0.09875737130641937256, 0.04463094100356101990, -0.08366543054580688477, 	},
			{0.10118670761585235596, 0.00336991366930305958, -0.01293293572962284088, 	},
			{0.07188681513071060181, -0.00090649526100605726, -0.08460915088653564453, 	},
		},
		{
			{-0.05987281352281570435, -0.04016423597931861877, -0.07551229745149612427, 	},
			{-0.06147078797221183777, -0.00129223742987960577, -0.01564641296863555908, 	},
			{-0.09207940101623535156, -0.00988832674920558929, -0.02340177260339260101, 	},
		},
			},

	{
		{
			{0.10013831406831741333, 0.01668904721736907959, 0.00412983726710081100, 	},
			{0.05181664600968360901, 0.06442034244537353516, -0.02338953502476215363, 	},
			{-0.09582879394292831421, 0.00345318741165101528, 0.09893026202917098999, 	},
		},
		{
			{0.06810278445482254028, -0.04237749800086021423, -0.02769190259277820587, 	},
			{0.04034509509801864624, 0.09996316581964492798, 0.03993074223399162292, 	},
			{0.06986433267593383789, 0.11252051591873168945, 0.05133030563592910767, 	},
		},
		{
			{-0.03965744748711585999, -0.03783247992396354675, -0.09436693787574768066, 	},
			{0.06138583645224571228, 0.00504696881398558617, 0.10100571066141128540, 	},
			{0.06520327180624008179, -0.07154959440231323242, 0.11131843924522399902, 	},
		},
		{
			{0.06791237741708755493, -0.07386346161365509033, -0.01396385487169027328, 	},
			{0.02246182970702648163, -0.03697012737393379211, -0.07249445468187332153, 	},
			{-0.02720157243311405182, 0.01429142709821462631, -0.07655103504657745361, 	},
		},
		{
			{0.03037131950259208679, 0.06689815968275070190, -0.11381299048662185669, 	},
			{-0.06027956679463386536, -0.00606214953586459160, 0.07866299152374267578, 	},
			{0.02663254924118518829, 0.04294307529926300049, -0.02651900798082351685, 	},
		},
		{
			{-0.08852344751358032227, 0.06739038228988647461, -0.03905952349305152893, 	},
			{-0.07011152058839797974, 0.04192917793989181519, -0.11789547652006149292, 	},
			{0.11056064814329147339, -0.09270735830068588257, -0.04676241055130958557, 	},
		},
		{
			{-0.02739163115620613098, 0.06648713350296020508, -0.05847239866852760315, 	},
			{-0.10695262253284454346, -0.05410056561231613159, 0.06226356700062751770, 	},
			{-0.01897945813834667206, 0.02892859838902950287, -0.09741879999637603760, 	},
		},
		{
			{0.03055866621434688568, 0.00601004902273416519, 0.07992234081029891968, 	},
			{0.06032662466168403625, -0.03983869031071662903, -0.04522036761045455933, 	},
			{-0.00366650032810866833, 0.04709663614630699158, 0.05243476107716560364, 	},
		},
		{
			{0.01643582247197628021, 0.08056457340717315674, 0.09304357320070266724, 	},
			{-0.03360824659466743469, -0.04445748776197433472, 0.06941920518875122070, 	},
			{-0.02193731628358364105, -0.00637694308534264565, 0.04353072121739387512, 	},
		},
		{
			{0.02973286248743534088, -0.04930694773793220520, -0.04924866184592247009, 	},
			{-0.11717732250690460205, 0.05579125508666038513, 0.10754822939634323120, 	},
			{-0.04370533674955368042, 0.03110114671289920807, 0.03100973740220069885, 	},
		},
		{
			{0.10211513936519622803, 0.05112043768167495728, -0.09261212497949600220, 	},
			{-0.01720465719699859619, 0.01894171722233295441, -0.06944239139556884766, 	},
			{0.05067754909396171570, 0.08188914507627487183, -0.07088830322027206421, 	},
		},
		{
			{-0.05653557926416397095, 0.07829643785953521729, 0.05877466127276420593, 	},
			{-0.01286953501403331757, -0.04692377522587776184, 0.03818140178918838501, 	},
			{-0.07659266889095306396, -0.02810483239591121674, 0.07868783175945281982, 	},
		},
		{
			{0.07122316211462020874, 0.05576801672577857971, -0.10031452029943466187, 	},
			{0.00423777662217617035, 0.09041942656040191650, -0.03270610794425010681, 	},
			{-0.07233371585607528687, -0.09970546513795852661, -0.02061221003532409668, 	},
		},
		{
			{-0.01360868290066719055, 0.05007610097527503967, -0.02621100284159183502, 	},
			{0.00167327618692070246, 0.00371187063865363598, -0.10530339926481246948, 	},
			{0.07727426290512084961, 0.08481077849864959717, 0.06494858115911483765, 	},
		},
		{
			{0.09251599758863449097, -0.06859637796878814697, -0.12207746505737304688, 	},
			{0.09044213593006134033, 0.04220711812376976013, 0.05869347602128982544, 	},
			{0.04010489210486412048, -0.04690859094262123108, -0.10081124305725097656, 	},
		},
		{
			{0.07286653667688369751, -0.10481868684291839600, 0.02172345295548439026, 	},
			{0.06287544965744018555, -0.07117240130901336670, -0.09337885677814483643, 	},
			{-0.05427587032318115234, 0.07650411874055862427, -0.06147950515151023865, 	},
		},
			},

	{
		{
			{0.00015890842769294977, 0.01107914093881845474, 0.01571905799210071564, 	},
			{0.08218614012002944946, -0.06178903579711914062, 0.04834257811307907104, 	},
			{0.10491406917572021484, 0.06631711125373840332, 0.10532017052173614502, 	},
		},
		{
			{0.11486560851335525513, -0.00467844773083925247, 0.07935321331024169922, 	},
			{0.03247308731079101562, 0.05675140395760536194, -0.05995095148682594299, 	},
			{-0.09334997087717056274, -0.04302039369940757751, -0.07541674375534057617, 	},
		},
		{
			{0.07971677929162979126, 0.02980778366327285767, 0.08520241081714630127, 	},
			{-0.06373023986816406250, 0.07157938182353973389, -0.08397384732961654663, 	},
			{-0.02196064777672290802, 0.04202121496200561523, 0.04646521434187889099, 	},
		},
		{
			{-0.11613326519727706909, -0.05768360197544097900, -0.04871482029557228088, 	},
			{-0.01579039916396141052, -0.06027762219309806824, 0.03081980533897876740, 	},
			{-0.08085034042596817017, 0.05665152519941329956, 0.03517560660839080811, 	},
		},
		{
			{-0.11031389981508255005, -0.10291632264852523804, -0.06355146318674087524, 	},
			{-0.04726178199052810669, 0.02441081404685974121, -0.00768591277301311493, 	},
			{-0.08795875310897827148, -0.08435986936092376709, 0.10343129187822341919, 	},
		},
		{
			{-0.07484210282564163208, -0.09071113914251327515, -0.00819973740726709366, 	},
			{0.05302156507968902588, 0.01724851317703723907, 0.08347406983375549316, 	},
			{0.07652663439512252808, -0.06096812337636947632, 0.00302201905287802219, 	},
		},
		{
			{0.11537155508995056152, 0.02404097840189933777, 0.09203432500362396240, 	},
			{-0.00666105747222900391, -0.00936941802501678467, 0.03322478011250495911, 	},
			{0.01361853443086147308, -0.06037431582808494568, 0.04575606808066368103, 	},
		},
		{
			{-0.09509605914354324341, 0.00933709740638732910, -0.02720803022384643555, 	},
			{0.00615700474008917809, -0.11066816747188568115, 0.10658448189496994019, 	},
			{-0.02311258763074874878, -0.08793450891971588135, -0.05583620816469192505, 	},
		},
		{
			{-0.03606994450092315674, -0.05820690467953681946, -0.01433796249330043793, 	},
			{-0.10573069006204605103, -0.01511943247169256210, 0.10918267071247100830, 	},
			{-0.09542470425367355347, 0.10378874093294143677, 0.01230424921959638596, 	},
		},
		{
			{0.10204131901264190674, 0.10060865432024002075, 0.01375848613679409027, 	},
			{-0.05476750060915946960, 0.07966515421867370605, 0.10492897778749465942, 	},
			{-0.05328885093331336975, 0.10080084204673767090, -0.05005830153822898865, 	},
		},
		{
			{0.10536772012710571289, 0.00463298335671424866, 0.07286322861909866333, 	},
			{0.00320259062573313713, 0.09443765133619308472, 0.05941493809223175049, 	},
			{0.08581580966711044312, 0.07063470780849456787, -0.07265602052211761475, 	},
		},
		{
			{-0.03679931908845901489, 0.06349515169858932495, 0.10148729383945465088, 	},
			{-0.07569656521081924438, 0.01046746689826250076, 0.00411315867677330971, 	},
			{-0.03324551880359649658, -0.01286840159446001053, 0.00821743533015251160, 	},
		},
		{
			{0.10578501224517822266, -0.10208117961883544922, 0.06726133823394775391, 	},
			{-0.03802079334855079651, 0.04403789713978767395, -0.07337217032909393311, 	},
			{0.04058888182044029236, -0.08442598581314086914, -0.09665983170270919800, 	},
		},
		{
			{-0.07742388546466827393, 0.08483065664768218994, 0.06870640069246292114, 	},
			{-0.08986324071884155273, -0.09417849779129028320, 0.07521303743124008179, 	},
			{0.02892572991549968719, -0.01044356264173984528, -0.08438440412282943726, 	},
		},
		{
			{-0.04650860652327537537, -0.00921316817402839661, -0.11656179279088973999, 	},
			{0.01419932208955287933, 0.01825041882693767548, -0.06323649734258651733, 	},
			{0.08574605733156204224, -0.04981823638081550598, 0.08217035979032516479, 	},
		},
		{
			{-0.08406331390142440796, -0.02019811049103736877, 0.04001292586326599121, 	},
			{0.06850309669971466064, -0.03972600772976875305, -0.09866194427013397217, 	},
			{-0.01397749409079551697, 0.01646415144205093384, 0.01615899801254272461, 	},
		},
			},

	{
		{
			{-0.06806921958923339844, -0.06420397013425827026, 0.11855784058570861816, 	},
			{-0.03794156014919281006, -0.00357565376907587051, 0.08599168807268142700, 	},
			{-0.04287549853324890137, -0.00287529197521507740, 0.04954374954104423523, 	},
		},
		{
			{-0.11616925150156021118, -0.09826885163784027100, -0.05715570226311683655, 	},
			{-0.04409987479448318481, 0.03824650868773460388, -0.01376766618341207504, 	},
			{0.06367585062980651855, 0.01967027224600315094, 0.10892753303050994873, 	},
		},
		{
			{0.05205149203538894653, -0.04092898219823837280, -0.02806287072598934174, 	},
			{-0.06319473683834075928, -0.00730114011093974113, -0.02128106728196144104, 	},
			{0.07022479921579360962, -0.07919004559516906738, 0.03372342139482498169, 	},
		},
		{
			{-0.10779492557048797607, 0.05335585400462150574, 0.04082609340548515320, 	},
			{-0.09086699783802032471, -0.10276863723993301392, 0.07776946574449539185, 	},
			{0.08118251711130142212, -0.03047387115657329559, -0.08839990943670272827, 	},
		},
		{
			{-0.08322446048259735107, -0.10390093922615051270, 0.07245856523513793945, 	},
			{-0.05267488956451416016, -0.07126641273498535156, -0.00839932076632976532, 	},
			{-0.00336381862871348858, 0.08949946612119674683, -0.02913481369614601135, 	},
		},
		{
			{-0.09941735863685607910, 0.00131275586318224669, 0.01237678900361061096, 	},
			{0.05918513983488082886, 0.05176897719502449036, -0.03332075104117393494, 	},
			{0.04774982109665870667, -0.03806747868657112122, -0.01818174310028553009, 	},
		},
		{
			{0.11167565733194351196, -0.08277698606252670288, -0.05557641386985778809, 	},
			{-0.00264928606338799000, -0.11075039207935333252, -0.09537946432828903198, 	},
			{-0.01682448759675025940, -0.09871813654899597168, 0.03510886058211326599, 	},
		},
		{
			{-0.06528571248054504395, -0.02146154083311557770, 0.00830229744315147400, 	},
			{-0.00544079393148422241, 0.02789742685854434967, -0.05072617903351783752, 	},
			{0.04079182818531990051, 0.10639454424381256104, -0.01991515047848224640, 	},
		},
		{
			{-0.04733029752969741821, -0.04482766240835189819, 0.05506893247365951538, 	},
			{-0.11441572010517120361, 0.00229959888383746147, 0.06273791193962097168, 	},
			{-0.01004820968955755234, -0.07899309694766998291, 0.11840240657329559326, 	},
		},
		{
			{-0.06453193724155426025, -0.03153188526630401611, 0.00701009389013051987, 	},
			{0.10684259980916976929, -0.00854072347283363342, -0.04018359258770942688, 	},
			{0.07560738176107406616, 0.03702139854431152344, -0.06717088073492050171, 	},
		},
		{
			{-0.10220998525619506836, -0.03575256839394569397, -0.00767681049183011055, 	},
			{-0.10996012389659881592, -0.00895712524652481079, -0.06506684422492980957, 	},
			{0.00398654956370592117, -0.11077832430601119995, 0.08158377557992935181, 	},
		},
		{
			{0.01953835785388946533, 0.03345533460378646851, 0.00176891020964831114, 	},
			{0.01499336585402488708, 0.00082308007404208183, -0.05336989089846611023, 	},
			{0.03499454632401466370, 0.06469893455505371094, -0.08028228580951690674, 	},
		},
		{
			{-0.06268340349197387695, -0.07537537813186645508, 0.10741261392831802368, 	},
			{0.02222988754510879517, -0.08835584670305252075, 0.09517139196395874023, 	},
			{0.10118944197893142700, -0.04155130311846733093, 0.08422569930553436279, 	},
		},
		{
			{0.03516926616430282593, 0.05562612786889076233, 0.09635272622108459473, 	},
			{0.08349864929914474487, 0.00886495411396026611, -0.05502104759216308594, 	},
			{-0.02851979248225688934, -0.10290698707103729248, -0.02790756151080131531, 	},
		},
		{
			{-0.00449004024267196655, -0.09905949234962463379, -0.03926178440451622009, 	},
			{-0.11358174681663513184, 0.07079898566007614136, 0.03482643514871597290, 	},
			{0.06786487996578216553, 0.08769009262323379517, 0.00769707374274730682, 	},
		},
		{
			{0.00364070804789662361, -0.05781682580709457397, 0.09025222063064575195, 	},
			{0.03321616351604461670, -0.07165639102458953857, 0.09253311902284622192, 	},
			{-0.02124440297484397888, -0.09734506160020828247, -0.00554748298600316048, 	},
		},
			},

	{
		{
			{-0.00018316617934033275, 0.03255990520119667053, 0.05416656658053398132, 	},
			{-0.06594612449407577515, 0.06332080066204071045, 0.05487037077546119690, 	},
			{0.10137032717466354370, -0.03870558738708496094, -0.02620709314942359924, 	},
		},
		{
			{-0.00425655301660299301, 0.04204225912690162659, 0.10016170144081115723, 	},
			{0.03862958773970603943, 0.01359943673014640808, 0.00309255998581647873, 	},
			{-0.10100620239973068237, -0.00380262313410639763, 0.06603194028139114380, 	},
		},
		{
			{0.01337824016809463501, 0.09778235852718353271, -0.03298239782452583313, 	},
			{-0.00574455037713050842, -0.10122632980346679688, 0.08851961791515350342, 	},
			{-0.11506542563438415527, 0.11028986424207687378, 0.00570214819163084030, 	},
		},
		{
			{-0.11261323094367980957, -0.07286012172698974609, -0.05332464724779129028, 	},
			{-0.04130369052290916443, 0.01571973413228988647, -0.08956433832645416260, 	},
			{0.03575472161173820496, 0.03023463673889636993, 0.02482060343027114868, 	},
		},
		{
			{0.06478260457515716553, -0.11256677657365798950, 0.02826307900249958038, 	},
			{0.01597729139029979706, 0.03824624791741371155, -0.03728790953755378723, 	},
			{0.01107757445424795151, -0.02020120993256568909, -0.07462558895349502563, 	},
		},
		{
			{-0.08176098763942718506, 0.00138647074345499277, 0.01458705775439739227, 	},
			{-0.02184850908815860748, -0.11003126949071884155, 0.03017031773924827576, 	},
			{-0.03715099394321441650, 0.08065561950206756592, -0.03979937732219696045, 	},
		},
		{
			{0.08475428074598312378, -0.02699356898665428162, -0.01582813076674938202, 	},
			{-0.04345574602484703064, 0.00974264740943908691, -0.08739221096038818359, 	},
			{0.09478443861007690430, -0.01602910831570625305, 0.02839983813464641571, 	},
		},
		{
			{0.09446716308593750000, -0.06791873276233673096, 0.06978383660316467285, 	},
			{0.02446513809263706207, -0.06302797049283981323, -0.06672152876853942871, 	},
			{0.04778420180082321167, -0.02314921654760837555, -0.09401151537895202637, 	},
		},
		{
			{0.08125754445791244507, 0.04670410603284835815, 0.02700099162757396698, 	},
			{-0.06294071674346923828, -0.00762592349201440811, -0.01962220855057239532, 	},
			{0.07238686829805374146, 0.07947083562612533569, -0.08872077614068984985, 	},
		},
		{
			{0.10826238244771957397, 0.02786394394934177399, 0.10605154931545257568, 	},
			{0.09749557822942733765, 0.03935016319155693054, 0.00874527823179960251, 	},
			{-0.00209271186031401157, -0.03636394441127777100, -0.06878902763128280640, 	},
		},
		{
			{0.08025521039962768555, -0.02695792727172374725, -0.00572739308699965477, 	},
			{0.10211771726608276367, -0.06279603391885757446, 0.03513059765100479126, 	},
			{-0.08035415410995483398, -0.11049489676952362061, 0.06938093900680541992, 	},
		},
		{
			{-0.06433977186679840088, 0.08846198022365570068, -0.00833284202963113785, 	},
			{-0.03183493018150329590, -0.02122257091104984283, 0.05447045341134071350, 	},
			{0.00871147960424423218, -0.00217530806548893452, 0.11660268902778625488, 	},
		},
		{
			{-0.10257833451032638550, -0.11642380803823471069, 0.02088147401809692383, 	},
			{0.03665626421570777893, 0.09696120768785476685, 0.02190414257347583771, 	},
			{0.05398964509367942810, -0.05512579903006553650, 0.01634869351983070374, 	},
		},
		{
			{0.08560454845428466797, -0.11660494655370712280, -0.07065309584140777588, 	},
			{0.00182420026976615191, 0.00292386673390865326, -0.01072845049202442169, 	},
			{-0.07132338732481002808, -0.08982462435960769653, 0.02716564387083053589, 	},
		},
		{
			{0.10171461850404739380, 0.02263084985315799713, -0.06605190783739089966, 	},
			{-0.10950119048357009888, -0.05094424262642860413, -0.05909039825201034546, 	},
			{-0.07128062099218368530, -0.00621521146968007088, -0.02555960044264793396, 	},
		},
		{
			{0.06263197958469390869, -0.03464886546134948730, 0.10004960000514984131, 	},
			{-0.11061520874500274658, 0.05970168858766555786, -0.10910359025001525879, 	},
			{0.01886378228664398193, 0.05004685372114181519, 0.04454923048615455627, 	},
		},
			},

	{
		{
			{0.08950298279523849487, 0.09500376880168914795, 0.00473384512588381767, 	},
			{-0.06625740230083465576, 0.11661574244499206543, -0.08255502581596374512, 	},
			{0.09268449246883392334, -0.01458337530493736267, -0.10560185462236404419, 	},
		},
		{
			{-0.09723991900682449341, 0.08872319012880325317, -0.03457630798220634460, 	},
			{-0.04618284106254577637, 0.02986820973455905914, 0.03473264724016189575, 	},
			{-0.01285202708095312119, -0.00904310867190361023, -0.02434633299708366394, 	},
		},
		{
			{0.09638761729001998901, -0.06913948804140090942, 0.00913119129836559296, 	},
			{-0.02013240940868854523, -0.09253149479627609253, -0.04600581899285316467, 	},
			{0.02416775561869144440, 0.03894536942243576050, 0.06194840744137763977, 	},
		},
		{
			{0.10137709230184555054, -0.03553255274891853333, -0.05307662487030029297, 	},
			{-0.05552705004811286926, 0.07753291726112365723, -0.09959895908832550049, 	},
			{0.05655819922685623169, -0.03480466455221176147, 0.03015352040529251099, 	},
		},
		{
			{-0.05726702511310577393, -0.03106584213674068451, -0.03696088492870330811, 	},
			{0.03141840174794197083, -0.04101101309061050415, 0.10912209749221801758, 	},
			{0.11558587849140167236, -0.02611036598682403564, -0.05702479556202888489, 	},
		},
		{
			{-0.06425978988409042358, 0.07150828093290328979, 0.04228506982326507568, 	},
			{0.05729066208004951477, -0.09105905145406723022, -0.02961116842925548553, 	},
			{0.09622971713542938232, -0.09361100196838378906, 0.01845403015613555908, 	},
		},
		{
			{-0.06568669527769088745, -0.04778148606419563293, -0.07045163214206695557, 	},
			{-0.06659034639596939087, -0.06109414622187614441, 0.03377725183963775635, 	},
			{0.03261368721723556519, -0.03401371836662292480, -0.07447747886180877686, 	},
		},
		{
			{0.09671965241432189941, -0.00703160837292671204, 0.02891892567276954651, 	},
			{0.08704487979412078857, 0.04652401804924011230, 0.06427764892578125000, 	},
			{0.05973706021904945374, -0.07371601462364196777, -0.10396528989076614380, 	},
		},
		{
			{-0.11612019687891006470, -0.09151057153940200806, 0.02042974531650543213, 	},
			{-0.02930219471454620361, 0.05837348848581314087, -0.07457314431667327881, 	},
			{-0.09047093987464904785, -0.05469530075788497925, 0.05931775271892547607, 	},
		},
		{
			{0.02449530735611915588, 0.08970946073532104492, -0.11284073442220687866, 	},
			{-0.04542168602347373962, 0.01519017573446035385, -0.01283026020973920822, 	},
			{-0.08549808710813522339, 0.01643268391489982605, -0.10904620587825775146, 	},
		},
		{
			{0.05962277203798294067, 0.10556311905384063721, -0.02546330168843269348, 	},
			{-0.10386467725038528442, 0.00952139869332313538, 0.06027395650744438171, 	},
			{0.11421006917953491211, -0.10649615526199340820, -0.07508512586355209351, 	},
		},
		{
			{0.00006008472701068968, -0.07306371629238128662, 0.01714880950748920441, 	},
			{-0.02781471610069274902, 0.09177875518798828125, 0.07957560569047927856, 	},
			{-0.02499778196215629578, 0.01890324801206588745, 0.08729951083660125732, 	},
		},
		{
			{-0.06438025832176208496, -0.09771218150854110718, -0.00218668254092335701, 	},
			{0.07289650291204452515, -0.03080609440803527832, -0.01734362356364727020, 	},
			{0.04157369211316108704, 0.09772948175668716431, 0.07643344253301620483, 	},
		},
		{
			{-0.02489672601222991943, -0.00272491341456770897, -0.03966640681028366089, 	},
			{0.12563727796077728271, 0.09967591613531112671, 0.06105185672640800476, 	},
			{0.01333320885896682739, -0.09512754529714584351, 0.04978035762906074524, 	},
		},
		{
			{0.07419236749410629272, -0.10687775909900665283, -0.04328439384698867798, 	},
			{0.04522512853145599365, 0.00111316121183335781, 0.09534691274166107178, 	},
			{0.03137376159429550171, 0.11345900595188140869, 0.06325066834688186646, 	},
		},
		{
			{0.05273794755339622498, 0.03027592226862907410, 0.11108041554689407349, 	},
			{-0.02276755310595035553, -0.07714258134365081787, -0.06731989234685897827, 	},
			{-0.05037756636738777161, 0.04617565870285034180, 0.05934489890933036804, 	},
		},
			},

	{
		{
			{-0.05400976911187171936, -0.11950295418500900269, -0.06292806565761566162, 	},
			{0.10213868319988250732, 0.01705282367765903473, 0.08133004605770111084, 	},
			{-0.11816327273845672607, -0.11425423622131347656, 0.06720297038555145264, 	},
		},
		{
			{0.10520890355110168457, 0.01644177362322807312, 0.04114864766597747803, 	},
			{-0.10101459175348281860, 0.07657529413700103760, -0.00774410041049122810, 	},
			{0.06035997346043586731, -0.00602439790964126587, 0.09707826375961303711, 	},
		},
		{
			{-0.06304222345352172852, -0.06185466051101684570, -0.01644055731594562531, 	},
			{-0.08010823279619216919, 0.00624807272106409073, -0.00739792268723249435, 	},
			{0.01594083942472934723, 0.10822445154190063477, 0.02383875474333763123, 	},
		},
		{
			{-0.02546653151512145996, -0.07399585843086242676, 0.01967529952526092529, 	},
			{0.01816805079579353333, 0.02765173465013504028, -0.04938806593418121338, 	},
			{0.02074538730084896088, 0.09386736154556274414, 0.10439756512641906738, 	},
		},
		{
			{0.01094650477170944214, 0.10610826313495635986, 0.04457297548651695251, 	},
			{-0.09299363940954208374, -0.07877577841281890869, -0.05524039641022682190, 	},
			{-0.01512308791279792786, -0.05520655214786529541, -0.03710281848907470703, 	},
		},
		{
			{-0.05329158157110214233, -0.09208476543426513672, -0.12297327816486358643, 	},
			{-0.08883586525917053223, -0.04745919629931449890, 0.02789320237934589386, 	},
			{0.00121896632481366396, 0.07253274321556091309, -0.01239770650863647461, 	},
		},
		{
			{0.07346684485673904419, 0.09791937470436096191, -0.06048474833369255066, 	},
			{-0.07646936178207397461, 0.01374771911650896072, 0.09283833950757980347, 	},
			{-0.05975091829895973206, 0.08896826952695846558, 0.03872337564826011658, 	},
		},
		{
			{0.01800498366355895996, -0.06110909953713417053, 0.02641335688531398773, 	},
			{0.08919994533061981201, 0.10966124385595321655, 0.05540731549263000488, 	},
			{-0.10150807350873947144, 0.03607329726219177246, -0.04978850111365318298, 	},
		},
		{
			{0.11281150579452514648, -0.07797269523143768311, -0.07333087176084518433, 	},
			{0.01813420653343200684, -0.00076241325587034225, -0.06659226119518280029, 	},
			{0.03274478018283843994, -0.01900134421885013580, 0.03889636322855949402, 	},
		},
		{
			{0.06338690221309661865, 0.09370170533657073975, -0.04663884267210960388, 	},
			{-0.03326331451535224915, -0.08616814017295837402, 0.00353625114075839520, 	},
			{-0.04277831688523292542, -0.07793025672435760498, -0.05660589784383773804, 	},
		},
		{
			{0.00765626318752765656, -0.02724828384816646576, 0.07567023485898971558, 	},
			{-0.03402698412537574768, 0.11082750558853149414, -0.09407319128513336182, 	},
			{-0.07783538848161697388, -0.06514499336481094360, -0.01840694993734359741, 	},
		},
		{
			{0.09802481532096862793, 0.11083365976810455322, 0.07026770710945129395, 	},
			{0.03955715894699096680, 0.02443208917975425720, -0.01595051586627960205, 	},
			{0.10632970184087753296, -0.01333688665181398392, -0.03179933875799179077, 	},
		},
		{
			{-0.08679885417222976685, -0.08733182400465011597, 0.05622325092554092407, 	},
			{-0.00746602052822709084, 0.07642828673124313354, -0.03241372480988502502, 	},
			{-0.10222970694303512573, 0.03762182965874671936, -0.01274860464036464691, 	},
		},
		{
			{0.01806991361081600189, -0.00112737424205988646, 0.03938644379377365112, 	},
			{-0.07551221549510955811, 0.05860057845711708069, -0.09379893541336059570, 	},
			{0.07008663564920425415, -0.06032597646117210388, 0.01145521365106105804, 	},
		},
		{
			{0.06758498400449752808, 0.00356092792935669422, -0.04668261855840682983, 	},
			{-0.10919530689716339111, -0.01772060990333557129, -0.00092632538871839643, 	},
			{0.02533444017171859741, -0.09430162608623504639, -0.05299435555934906006, 	},
		},
		{
			{0.09146476536989212036, -0.02247647941112518311, 0.10617747157812118530, 	},
			{-0.08167964965105056763, 0.09473147988319396973, 0.08761809766292572021, 	},
			{-0.11761990934610366821, -0.01413941569626331329, -0.08616561442613601685, 	},
		},
			},

	{
		{
			{0.04499786347150802612, -0.07731415331363677979, -0.08667798340320587158, 	},
			{0.08501689881086349487, 0.02658158726990222931, 0.09856411814689636230, 	},
			{0.10297819972038269043, -0.04672848060727119446, -0.08590442687273025513, 	},
		},
		{
			{-0.05195600911974906921, 0.00094523496227338910, 0.00510531570762395859, 	},
			{0.11489494889974594116, 0.05455008149147033691, 0.04135978221893310547, 	},
			{-0.04054424166679382324, -0.07007661461830139160, 0.00654301093891263008, 	},
		},
		{
			{0.04206200689077377319, 0.10518463701009750366, -0.01761674508452415466, 	},
			{0.10597326606512069702, -0.07967147976160049438, -0.09715965390205383301, 	},
			{0.08827753365039825439, 0.06848578155040740967, -0.06087197363376617432, 	},
		},
		{
			{-0.03656476363539695740, -0.10193071514368057251, -0.05572995543479919434, 	},
			{0.01738712750375270844, 0.03097004443407058716, -0.00035692227538675070, 	},
			{-0.06728251278400421143, 0.01678000390529632568, -0.09999241679906845093, 	},
		},
		{
			{0.03655527904629707336, 0.04569317772984504700, -0.04309174418449401855, 	},
			{0.02669578790664672852, -0.07288079708814620972, -0.06302592158317565918, 	},
			{-0.09950370341539382935, -0.07098214328289031982, 0.01522523723542690277, 	},
		},
		{
			{0.01684916391968727112, -0.01066565141081809998, 0.01359548792243003845, 	},
			{-0.02407640963792800903, 0.02987426333129405975, -0.01251372322440147400, 	},
			{-0.03569738566875457764, 0.01716790907084941864, -0.00450962409377098083, 	},
		},
		{
			{-0.02662527188658714294, 0.09307876974344253540, -0.07404320687055587769, 	},
			{-0.01668226905167102814, 0.11598691344261169434, 0.05080591887235641479, 	},
			{-0.04038578644394874573, 0.04717442765831947327, 0.00830070022493600845, 	},
		},
		{
			{0.04959391430020332336, -0.05343748256564140320, 0.08679381012916564941, 	},
			{-0.05857864767313003540, 0.02069914527237415314, -0.01308919303119182587, 	},
			{-0.05553742870688438416, 0.03291629999876022339, 0.08845524489879608154, 	},
		},
		{
			{0.02594660595059394836, 0.10257429629564285278, 0.04024994373321533203, 	},
			{-0.11148364096879959106, 0.05984224379062652588, 0.05359229072928428650, 	},
			{0.06102941557765007019, -0.11398924887180328369, -0.09154288470745086670, 	},
		},
		{
			{-0.00808332208544015884, -0.11654546856880187988, 0.11675852537155151367, 	},
			{-0.01963383331894874573, -0.01013658195734024048, -0.04087381064891815186, 	},
			{-0.00468222005292773247, 0.03966128826141357422, 0.12173133343458175659, 	},
		},
		{
			{-0.09529104083776473999, -0.05574170872569084167, 0.02154181711375713348, 	},
			{-0.09419025480747222900, -0.10971941053867340088, -0.02328584901988506317, 	},
			{-0.02582243457436561584, -0.10514345765113830566, 0.08456792682409286499, 	},
		},
		{
			{0.05842154100537300110, 0.00785699579864740372, 0.08240178227424621582, 	},
			{0.10114492475986480713, -0.08941726386547088623, 0.02179246395826339722, 	},
			{0.02094107307493686676, 0.04845226183533668518, 0.08485192060470581055, 	},
		},
		{
			{0.10980995744466781616, -0.00343163753859698772, 0.07719273865222930908, 	},
			{0.07123807072639465332, 0.10023271292448043823, -0.04387544095516204834, 	},
			{-0.10875218361616134644, 0.03605424985289573669, -0.03109919093549251556, 	},
		},
		{
			{0.05195364728569984436, 0.00164893921464681625, 0.05188554525375366211, 	},
			{0.07424898445606231689, -0.01403919328004121780, -0.05518689006567001343, 	},
			{-0.08575296401977539062, -0.04795189574360847473, 0.08884818106889724731, 	},
		},
		{
			{0.12225179374217987061, 0.07361824065446853638, -0.03770208358764648438, 	},
			{0.00457435427233576775, -0.08438611775636672974, -0.03038704767823219299, 	},
			{-0.02296152710914611816, 0.09713141620159149170, -0.09022491425275802612, 	},
		},
		{
			{0.11570826917886734009, -0.00812869612127542496, -0.09382034838199615479, 	},
			{0.04280529543757438660, 0.05718857049942016602, -0.00337247969582676888, 	},
			{-0.10096972435712814331, 0.10560920834541320801, -0.09304308146238327026, 	},
		},
			},

	{
		{
			{-0.00557277351617813110, -0.08778163045644760132, 0.04220827668905258179, 	},
			{-0.00084490166045725346, -0.10681684315204620361, 0.06982923299074172974, 	},
			{0.00214046076871454716, 0.07779435068368911743, -0.11592265218496322632, 	},
		},
		{
			{-0.07063527405261993408, 0.02708871476352214813, -0.06952317059040069580, 	},
			{-0.10639511048793792725, -0.04800676554441452026, -0.05233268439769744873, 	},
			{0.11456315219402313232, -0.03510852530598640442, -0.09621243923902511597, 	},
		},
		{
			{-0.09460874646902084351, 0.03033599071204662323, 0.09992197155952453613, 	},
			{-0.10118892788887023926, -0.11089891195297241211, -0.06046337634325027466, 	},
			{0.02553473412990570068, 0.02526865340769290924, -0.07625062763690948486, 	},
		},
		{
			{-0.05179167166352272034, 0.07494681328535079956, -0.11198001354932785034, 	},
			{0.01217875815927982330, -0.05160126835107803345, -0.11404544115066528320, 	},
			{-0.03208358585834503174, -0.08378360420465469360, -0.04646062105894088745, 	},
		},
		{
			{-0.07929479330778121948, 0.09563953429460525513, -0.09069894999265670776, 	},
			{-0.10889010131359100342, 0.02614214643836021423, 0.05774047225713729858, 	},
			{0.10359596461057662964, 0.03400857374072074890, -0.07387851923704147339, 	},
		},
		{
			{-0.07689663022756576538, -0.02686452306807041168, 0.07629822939634323120, 	},
			{0.01428135856986045837, -0.11017754673957824707, -0.06280452758073806763, 	},
			{0.07639005780220031738, 0.02159486524760723114, 0.05300388485193252563, 	},
		},
		{
			{0.11020948737859725952, -0.02347483672201633453, -0.11275269091129302979, 	},
			{-0.01827062480151653290, 0.00704566948115825653, -0.05395345389842987061, 	},
			{0.03985442966222763062, -0.04505533725023269653, -0.08207467943429946899, 	},
		},
		{
			{-0.07283928990364074707, 0.04697255790233612061, 0.11303104460239410400, 	},
			{-0.07154703885316848755, -0.09662819653749465942, 0.00524483714252710342, 	},
			{-0.03603408485651016235, 0.10889160633087158203, -0.01385352294892072678, 	},
		},
		{
			{-0.08354344964027404785, 0.00905622448772192001, -0.07514660805463790894, 	},
			{0.02364879474043846130, -0.01825273223221302032, -0.00927141029387712479, 	},
			{-0.07300614565610885620, 0.01527430210262537003, -0.09832540899515151978, 	},
		},
		{
			{0.03308001905679702759, 0.03626934438943862915, -0.09047258645296096802, 	},
			{-0.08965112268924713135, -0.07395671308040618896, -0.07746707648038864136, 	},
			{0.11404802650213241577, 0.07543567568063735962, 0.00940126460045576096, 	},
		},
		{
			{-0.08174541592597961426, 0.00658125476911664009, -0.00598547048866748810, 	},
			{0.05256246775388717651, 0.10114049166440963745, -0.08183393627405166626, 	},
			{0.02496972680091857910, -0.11048740893602371216, -0.03917923942208290100, 	},
		},
		{
			{0.09801109135150909424, 0.09545973688364028931, -0.01231887191534042358, 	},
			{0.08685503154993057251, 0.04768011346459388733, -0.01926321722567081451, 	},
			{-0.08010984212160110474, -0.04391759634017944336, -0.06860695034265518188, 	},
		},
		{
			{-0.06618349254131317139, -0.01132651790976524353, -0.08331780880689620972, 	},
			{-0.02051474153995513916, -0.00699339946731925011, -0.04282939061522483826, 	},
			{-0.06797263771295547485, 0.11517994105815887451, -0.00434928387403488159, 	},
		},
		{
			{-0.07219402492046356201, 0.02805905416607856750, -0.07322417944669723511, 	},
			{-0.03801765665411949158, 0.08066646754741668701, 0.08669818937778472900, 	},
			{-0.11529398709535598755, -0.07570710033178329468, -0.01587672717869281769, 	},
		},
		{
			{-0.09530474245548248291, -0.02139700390398502350, -0.05861835926771163940, 	},
			{0.11165646463632583618, -0.03507976979017257690, 0.03853961452841758728, 	},
			{0.08066277951002120972, -0.01470172964036464691, -0.01476156152784824371, 	},
		},
		{
			{-0.11220906674861907959, 0.07734790444374084473, -0.11380831897258758545, 	},
			{0.08942344039678573608, -0.08118116855621337891, -0.02657119743525981903, 	},
			{0.09420645982027053833, 0.03216562792658805847, 0.08347943425178527832, 	},
		},
			},

	{
		{
			{0.10531452298164367676, 0.00695961387827992439, -0.08556292206048965454, 	},
			{-0.07010299712419509888, -0.11803203076124191284, 0.01419408805668354034, 	},
			{-0.01426122151315212250, -0.04323596507310867310, 0.08962583541870117188, 	},
		},
		{
			{-0.04623821750283241272, 0.03192780911922454834, -0.00882142968475818634, 	},
			{0.09274268150329589844, 0.03705970570445060730, 0.01788555085659027100, 	},
			{-0.10565015673637390137, 0.11256339401006698608, -0.09800274670124053955, 	},
		},
		{
			{-0.10319584608078002930, 0.04514798149466514587, 0.07701528072357177734, 	},
			{-0.06429707258939743042, -0.04363556951284408569, 0.02682560309767723083, 	},
			{-0.03137903660535812378, 0.06125861778855323792, 0.03186291456222534180, 	},
		},
		{
			{-0.01335818879306316376, 0.09878501296043395996, 0.00529299629852175713, 	},
			{0.08810378611087799072, -0.08874201029539108276, -0.03429292514920234680, 	},
			{0.08193144947290420532, 0.10414159297943115234, 0.06122389808297157288, 	},
		},
		{
			{0.07041902095079421997, -0.02742220647633075714, -0.00330153689719736576, 	},
			{-0.07298785448074340820, 0.04047083482146263123, -0.09454728662967681885, 	},
			{0.02973712794482707977, -0.08443190157413482666, 0.00553321326151490211, 	},
		},
		{
			{0.10560728609561920166, -0.06466023623943328857, 0.05727989599108695984, 	},
			{0.02170622907578945160, 0.10515153408050537109, 0.05514872446656227112, 	},
			{0.03515289723873138428, -0.04354032129049301147, -0.02437490783631801605, 	},
		},
		{
			{-0.10842046886682510376, 0.03169402852654457092, -0.00390982395038008690, 	},
			{-0.09213801473379135132, -0.07568933814764022827, 0.01213485840708017349, 	},
			{-0.00588822038844227791, 0.07943458110094070435, 0.02510519698262214661, 	},
		},
		{
			{0.07816316932439804077, -0.00121486361604183912, 0.05591455847024917603, 	},
			{0.10571704804897308350, 0.11007203906774520874, -0.02817163243889808655, 	},
			{-0.05921768024563789368, 0.04922904074192047119, 0.11209398508071899414, 	},
		},
		{
			{-0.00429644808173179626, -0.03474253788590431213, -0.02222745679318904877, 	},
			{0.04801833629608154297, 0.09878115355968475342, -0.10799346119165420532, 	},
			{0.00744142942130565643, 0.06515187025070190430, 0.10271267592906951904, 	},
		},
		{
			{-0.02527931705117225647, -0.09850077331066131592, -0.11748074740171432495, 	},
			{-0.08598812669515609741, -0.03990693762898445129, -0.00019764635362662375, 	},
			{0.02955042012035846710, 0.01531401462852954865, -0.11561419069766998291, 	},
		},
		{
			{-0.10014460980892181396, -0.01315369457006454468, -0.05460705980658531189, 	},
			{-0.02568354830145835876, 0.02500097826123237610, 0.01135281287133693695, 	},
			{-0.10518357902765274048, 0.08024793118238449097, 0.11007851362228393555, 	},
		},
		{
			{0.11797555536031723022, -0.11133612692356109619, 0.05281702801585197449, 	},
			{-0.07998108118772506714, 0.01145550888031721115, -0.07955052703619003296, 	},
			{-0.01873497292399406433, 0.08639544993638992310, -0.00099268322810530663, 	},
		},
		{
			{-0.08307576924562454224, -0.09603555500507354736, -0.04141601175069808960, 	},
			{-0.04753302037715911865, -0.04731507226824760437, 0.11222396790981292725, 	},
			{-0.04453869536519050598, 0.11401287466287612915, 0.09551120549440383911, 	},
		},
		{
			{-0.09539423137903213501, 0.00745066348463296890, -0.03452503308653831482, 	},
			{0.00147440040018409491, 0.06862022727727890015, 0.03314838185906410217, 	},
			{-0.09421701729297637939, 0.00393633125349879265, 0.07850651443004608154, 	},
		},
		{
			{0.06570818275213241577, 0.05591179057955741882, 0.08752815425395965576, 	},
			{-0.03032355383038520813, 0.06773560494184494019, 0.05419239029288291931, 	},
			{0.07945379614830017090, -0.06923768669366836548, 0.03506943210959434509, 	},
		},
		{
			{0.06794645637273788452, 0.08327420800924301147, 0.08308804780244827271, 	},
			{0.09702399373054504395, -0.07185817509889602661, 0.03907906264066696167, 	},
			{0.01292983721941709518, -0.03436670824885368347, 0.02654503844678401947, 	},
		},
			},

	{
		{
			{-0.03652676194906234741, -0.11305899918079376221, -0.11664491146802902222, 	},
			{-0.01293589174747467041, -0.01315294299274682999, -0.09041129797697067261, 	},
			{-0.06852584332227706909, 0.09016980975866317749, -0.05134018883109092712, 	},
		},
		{
			{0.00776616064831614494, 0.08468616753816604614, 0.06407309323549270630, 	},
			{0.06356471776962280273, -0.08650351315736770630, 0.00474607991054654121, 	},
			{-0.07756019383668899536, 0.05484028905630111694, -0.06631750613451004028, 	},
		},
		{
			{0.07999632507562637329, 0.09107788652181625366, 0.01507127843797206879, 	},
			{-0.00020621654402930290, -0.11481192708015441895, -0.01450790278613567352, 	},
			{0.03884511813521385193, -0.09718398749828338623, -0.08778994530439376831, 	},
		},
		{
			{-0.02017460949718952179, 0.01507363375276327133, 0.04335156455636024475, 	},
			{-0.03691355139017105103, -0.06027327105402946472, -0.02034389786422252655, 	},
			{-0.08704043924808502197, 0.00572416698560118675, -0.07235392183065414429, 	},
		},
		{
			{0.10326085984706878662, -0.07032195478677749634, 0.07942869514226913452, 	},
			{0.07724978774785995483, 0.00456131435930728912, 0.00580497225746512413, 	},
			{-0.03130671381950378418, -0.00785019621253013611, 0.05821610987186431885, 	},
		},
		{
			{0.03508447855710983276, 0.02101445570588111877, -0.10236863791942596436, 	},
			{0.09282977133989334106, 0.05124459415674209595, -0.00102686544414609671, 	},
			{0.05635769665241241455, -0.08813211321830749512, -0.10170162469148635864, 	},
		},
		{
			{0.03873280063271522522, 0.05634169653058052063, 0.11303343623876571655, 	},
			{-0.03618620336055755615, -0.04725398123264312744, -0.00716379377990961075, 	},
			{-0.04241236299276351929, 0.05721000209450721741, -0.07287583500146865845, 	},
		},
		{
			{-0.07183480262756347656, -0.01023557130247354507, 0.01160045713186264038, 	},
			{-0.10762326419353485107, 0.09486738592386245728, -0.00012657418847084045, 	},
			{-0.08058279752731323242, 0.09196741878986358643, -0.00837025139480829239, 	},
		},
		{
			{-0.01556107867509126663, 0.00404630787670612335, -0.08103761076927185059, 	},
			{0.08543183654546737671, -0.06795397400856018066, 0.07668986916542053223, 	},
			{0.05580670759081840515, 0.01951013132929801941, 0.08062760531902313232, 	},
		},
		{
			{-0.00863509718328714371, 0.00123095721937716007, -0.03905882313847541809, 	},
			{-0.10712537914514541626, -0.01406120043247938156, 0.07858294993638992310, 	},
			{0.01843482255935668945, -0.04299774020910263062, 0.10634437948465347290, 	},
		},
		{
			{-0.09468954801559448242, 0.02994220703840255737, -0.10675503313541412354, 	},
			{0.08872780948877334595, -0.02831039205193519592, -0.01240522135049104691, 	},
			{0.04095033556222915649, 0.04915989935398101807, -0.02888353914022445679, 	},
		},
		{
			{0.00350606301799416542, 0.04700321704149246216, 0.10912278294563293457, 	},
			{-0.10177922993898391724, -0.05312208086252212524, 0.07003182917833328247, 	},
			{0.06282379478216171265, 0.03325483202934265137, 0.09742633253335952759, 	},
		},
		{
			{0.09515322744846343994, 0.06653013825416564941, -0.00980678573250770569, 	},
			{-0.03232663869857788086, 0.07313952594995498657, 0.00883675366640090942, 	},
			{0.10876126587390899658, -0.03674881160259246826, 0.11635100096464157104, 	},
		},
		{
			{-0.02028939500451087952, 0.01190633513033390045, -0.09935442358255386353, 	},
			{-0.02441256307065486908, -0.06543215364217758179, -0.03300607576966285706, 	},
			{-0.01167886145412921906, -0.07742442190647125244, -0.01817072927951812744, 	},
		},
		{
			{-0.01953488588333129883, 0.04382005706429481506, 0.07763837277889251709, 	},
			{-0.01117871608585119247, 0.09960172325372695923, -0.06251205503940582275, 	},
			{0.01311093289405107498, -0.08461851626634597778, -0.07960394769906997681, 	},
		},
		{
			{0.02905103377997875214, 0.00113554205745458603, -0.04349604621529579163, 	},
			{0.09366430342197418213, 0.04726709797978401184, -0.07968834787607192993, 	},
			{-0.07535473257303237915, -0.01382355485111474991, -0.04005586728453636169, 	},
		},
			},

	{
		{
			{-0.05204125866293907166, 0.04910476133227348328, -0.04470095038414001465, 	},
			{-0.10389345139265060425, 0.04648983478546142578, -0.06536169350147247314, 	},
			{-0.05549176782369613647, -0.02350255846977233887, -0.09541200101375579834, 	},
		},
		{
			{-0.03790683671832084656, -0.05754441395401954651, 0.11164607107639312744, 	},
			{-0.11321623623371124268, 0.08284918963909149170, -0.11558537185192108154, 	},
			{0.11134370416402816772, 0.02104658819735050201, 0.00140144128818064928, 	},
		},
		{
			{0.03263409435749053955, -0.05947441980242729187, -0.02445763908326625824, 	},
			{0.06965278834104537964, 0.09745565801858901978, -0.02435831166803836823, 	},
			{-0.01141211763024330139, 0.02589957043528556824, -0.05760880559682846069, 	},
		},
		{
			{0.03656016662716865540, 0.06278344988822937012, 0.01659579016268253326, 	},
			{-0.10652337968349456787, -0.07364729046821594238, -0.04612560197710990906, 	},
			{0.11842780560255050659, -0.01413979660719633102, -0.06100503355264663696, 	},
		},
		{
			{0.02101000212132930756, -0.10335224121809005737, -0.07442298531532287598, 	},
			{-0.08925707638263702393, 0.00506021082401275635, -0.05586734414100646973, 	},
			{0.01060961466282606125, 0.06897836178541183472, -0.11364788562059402466, 	},
		},
		{
			{-0.10424958914518356323, 0.10231914371252059937, -0.02775497920811176300, 	},
			{-0.07885263860225677490, 0.05263208225369453430, 0.01825924962759017944, 	},
			{0.03667694702744483948, -0.01871243305504322052, -0.06202885136008262634, 	},
		},
		{
			{0.08280933648347854614, 0.04810720309615135193, -0.07546477019786834717, 	},
			{0.10552468150854110718, 0.06157084554433822632, 0.03426988422870635986, 	},
			{-0.01932374015450477600, -0.04744514450430870056, -0.02154003083705902100, 	},
		},
		{
			{-0.04153782129287719727, -0.11773723363876342773, -0.09136072546243667603, 	},
			{-0.03699386119842529297, 0.08575619757175445557, 0.07031608372926712036, 	},
			{0.07406496256589889526, -0.02457256801426410675, -0.05922503769397735596, 	},
		},
		{
			{0.05477552488446235657, -0.04747429490089416504, -0.08781890571117401123, 	},
			{-0.03123360872268676758, 0.08731706440448760986, 0.06328990310430526733, 	},
			{-0.04091252759099006653, 0.11595531553030014038, 0.08926306664943695068, 	},
		},
		{
			{-0.04435778781771659851, -0.07714457064867019653, -0.02133760973811149597, 	},
			{-0.07088190317153930664, -0.11360432207584381104, -0.05517646297812461853, 	},
			{-0.08727194368839263916, -0.06947918236255645752, 0.01954147964715957642, 	},
		},
		{
			{0.05216845124959945679, 0.07211267948150634766, -0.07335545867681503296, 	},
			{0.05565898492932319641, -0.10903839766979217529, -0.01316921971738338470, 	},
			{0.03105332143604755402, -0.05775512009859085083, -0.00689124548807740211, 	},
		},
		{
			{-0.08375839143991470337, -0.10475572198629379272, -0.02662734128534793854, 	},
			{-0.11133159697055816650, -0.01957066729664802551, -0.01165081281214952469, 	},
			{0.06894212216138839722, 0.01037434395402669907, 0.05622174963355064392, 	},
		},
		{
			{-0.00205113971605896950, -0.07482819259166717529, -0.03225895017385482788, 	},
			{0.09973404556512832642, 0.08179280161857604980, 0.07605565339326858521, 	},
			{-0.04051106050610542297, 0.09489557892084121704, 0.01078859437257051468, 	},
		},
		{
			{-0.03879222273826599121, 0.03499532490968704224, 0.05807267129421234131, 	},
			{0.04951009526848793030, 0.05130609124898910522, 0.08109845966100692749, 	},
			{-0.02866352722048759460, 0.02956745214760303497, 0.11178985238075256348, 	},
		},
		{
			{-0.09804781526327133179, -0.00076116208219900727, 0.07713124901056289673, 	},
			{0.01058823335915803909, -0.03299884125590324402, 0.03150998800992965698, 	},
			{0.01367739960551261902, 0.06488323956727981567, 0.08811284601688385010, 	},
		},
		{
			{0.01113181747496128082, -0.05155844241380691528, 0.09941139817237854004, 	},
			{-0.06853120774030685425, -0.02884883247315883636, 0.07236832380294799805, 	},
			{-0.02916481159627437592, 0.00959843955934047699, 0.06925467401742935181, 	},
		},
			},

	{
		{
			{-0.05432236939668655396, -0.02174488268792629242, -0.02389901876449584961, 	},
			{-0.03170947730541229248, 0.03838110715150833130, 0.02995800226926803589, 	},
			{0.08873755484819412231, -0.11535555124282836914, -0.00349878682754933834, 	},
		},
		{
			{0.00708257639780640602, 0.10839779675006866455, -0.08922984451055526733, 	},
			{-0.03079424239695072174, -0.04130332544445991516, 0.08058937638998031616, 	},
			{-0.11377866566181182861, -0.02353704161942005157, 0.01342840958386659622, 	},
		},
		{
			{-0.01376832369714975357, -0.05891719833016395569, -0.09998448938131332397, 	},
			{0.03300919756293296814, 0.11180645972490310669, -0.02205024845898151398, 	},
			{0.09946587681770324707, 0.05854978039860725403, -0.01416180003434419632, 	},
		},
		{
			{-0.02079880796372890472, 0.10461352020502090454, 0.06584555655717849731, 	},
			{0.08270958811044692993, 0.01744264177978038788, -0.03991772979497909546, 	},
			{-0.08656439930200576782, 0.10164555162191390991, -0.02251623198390007019, 	},
		},
		{
			{-0.07112254947423934937, 0.04083807766437530518, 0.10298307240009307861, 	},
			{0.00826776400208473206, -0.04660350084304809570, 0.06483987718820571899, 	},
			{-0.07205394655466079712, -0.01797316968441009521, 0.02291430160403251648, 	},
		},
		{
			{-0.09845206141471862793, 0.09437994658946990967, 0.08151051402091979980, 	},
			{-0.03846659511327743530, -0.03425249829888343811, 0.02953314967453479767, 	},
			{0.05584721639752388000, -0.09247260540723800659, -0.09160412847995758057, 	},
		},
		{
			{-0.10408112406730651855, -0.06847599148750305176, 0.06248991936445236206, 	},
			{0.06591736525297164917, -0.07442303001880645752, -0.12378014624118804932, 	},
			{0.06888112425804138184, -0.07795277982950210571, 0.12223143130540847778, 	},
		},
		{
			{-0.08875360339879989624, -0.09360294789075851440, -0.01584758237004280090, 	},
			{-0.06503363698720932007, 0.06951734423637390137, -0.09402830153703689575, 	},
			{0.07203799486160278320, 0.10938655585050582886, 0.07128426432609558105, 	},
		},
		{
			{-0.10222963988780975342, -0.09551785141229629517, 0.09457489103078842163, 	},
			{0.08074489235877990723, 0.00593103561550378799, -0.02607751823961734772, 	},
			{0.01890925876796245575, -0.09836561977863311768, -0.04738778993487358093, 	},
		},
		{
			{-0.00933971628546714783, -0.00984210986644029617, -0.12042669951915740967, 	},
			{-0.05319222435355186462, -0.10215278714895248413, -0.03497271984815597534, 	},
			{-0.05512381717562675476, 0.02934576198458671570, -0.10754794627428054810, 	},
		},
		{
			{-0.04075240343809127808, 0.05433433130383491516, -0.03253417834639549255, 	},
			{0.04839527234435081482, 0.07499230653047561646, 0.01519044209271669388, 	},
			{-0.10044750571250915527, -0.04253261908888816833, -0.11420696973800659180, 	},
		},
		{
			{-0.11324626952409744263, 0.06836629658937454224, 0.05607279017567634583, 	},
			{0.06335544586181640625, -0.07717715948820114136, 0.00957706291228532791, 	},
			{0.07007674127817153931, -0.07460723817348480225, -0.00585578894242644310, 	},
		},
		{
			{0.05893384292721748352, -0.05743673443794250488, -0.11501638591289520264, 	},
			{-0.04197290167212486267, 0.07854654639959335327, -0.02403486147522926331, 	},
			{-0.10446604341268539429, -0.06476844102144241333, 0.00939170364290475845, 	},
		},
		{
			{-0.04137796163558959961, 0.10259840637445449829, -0.08305898308753967285, 	},
			{0.08923808485269546509, 0.09683024883270263672, 0.08243910223245620728, 	},
			{0.07810684293508529663, 0.10512612015008926392, 0.02382608503103256226, 	},
		},
		{
			{0.09283844381570816040, 0.09687871485948562622, -0.04581676796078681946, 	},
			{-0.02695689350366592407, 0.05533785372972488403, 0.05222802609205245972, 	},
			{0.01748107373714447021, 0.10506729781627655029, -0.09431836754083633423, 	},
		},
		{
			{-0.11566003412008285522, 0.09388415515422821045, 0.10283121466636657715, 	},
			{0.02702375128865242004, -0.05499571561813354492, 0.03639031574130058289, 	},
			{-0.07867037504911422729, 0.07125099748373031616, -0.06864694505929946899, 	},
		},
			},

	{
		{
			{0.03928892314434051514, -0.06358502805233001709, 0.07748931646347045898, 	},
			{-0.05781332775950431824, -0.09845793992280960083, -0.06538835167884826660, 	},
			{-0.09246988594532012939, -0.10120458155870437622, 0.06428591907024383545, 	},
		},
		{
			{0.11625869572162628174, 0.08063069730997085571, -0.01634244248270988464, 	},
			{0.06590253859758377075, 0.03137312456965446472, -0.08975929021835327148, 	},
			{-0.11187654733657836914, -0.09444117546081542969, -0.01797750405967235565, 	},
		},
		{
			{-0.11151769757270812988, 0.07638826221227645874, -0.11465544998645782471, 	},
			{0.01365687325596809387, 0.00573718221858143806, -0.10773837566375732422, 	},
			{-0.07018456608057022095, -0.04820244759321212769, -0.08919389545917510986, 	},
		},
		{
			{0.07192352414131164551, -0.05019510909914970398, 0.03647163882851600647, 	},
			{0.08020053803920745850, -0.08499941229820251465, 0.09960354119539260864, 	},
			{0.02014581300318241119, 0.01868973672389984131, 0.12085004895925521851, 	},
		},
		{
			{-0.10495008528232574463, 0.06547204405069351196, -0.08374603837728500366, 	},
			{0.03540898859500885010, -0.04416526108980178833, 0.09716946631669998169, 	},
			{0.06819742918014526367, 0.04705118015408515930, -0.03563913330435752869, 	},
		},
		{
			{-0.11496255546808242798, 0.04481898248195648193, -0.01233824342489242554, 	},
			{0.00410358328372240067, -0.07786316424608230591, 0.03886380046606063843, 	},
			{0.10595925897359848022, 0.07896948605775833130, 0.04952972009778022766, 	},
		},
		{
			{0.03469738736748695374, 0.06541139632463455200, -0.02799804694950580597, 	},
			{0.02967515587806701660, 0.10228225588798522949, 0.07613004744052886963, 	},
			{0.01467956323176622391, 0.01716422475874423981, 0.01271104626357555389, 	},
		},
		{
			{0.04580330103635787964, 0.05107457190752029419, -0.10948696732521057129, 	},
			{-0.03503604978322982788, -0.02859167195856571198, -0.10635761171579360962, 	},
			{-0.00311049888841807842, 0.08293627202510833740, -0.00638365186750888824, 	},
		},
		{
			{0.01453258097171783447, -0.07848218828439712524, -0.05851520597934722900, 	},
			{0.09859487414360046387, 0.07446694374084472656, 0.10635892301797866821, 	},
			{-0.00510683935135602951, -0.04315682128071784973, 0.11841392517089843750, 	},
		},
		{
			{-0.12941901385784149170, 0.10458568483591079712, -0.02578776702284812927, 	},
			{-0.03739607334136962891, -0.12070618569850921631, 0.02388951368629932404, 	},
			{0.05174235254526138306, 0.03711387142539024353, 0.03955614939332008362, 	},
		},
		{
			{-0.03425686061382293701, 0.10887631028890609741, 0.10687376558780670166, 	},
			{-0.00022690593323204666, 0.07083771377801895142, 0.07467564195394515991, 	},
			{0.05674214661121368408, -0.06944634020328521729, 0.09776510298252105713, 	},
		},
		{
			{0.06209087371826171875, -0.05641630664467811584, -0.09349635988473892212, 	},
			{0.05961055681109428406, -0.10998679697513580322, -0.01280544977635145187, 	},
			{0.05831906944513320923, -0.03309979662299156189, 0.05927813053131103516, 	},
		},
		{
			{0.05664801225066184998, 0.02535735070705413818, 0.03863661363720893860, 	},
			{0.05572351440787315369, -0.10179879516363143921, -0.06788439303636550903, 	},
			{0.05173315107822418213, 0.07580333203077316284, 0.01455241255462169647, 	},
		},
		{
			{0.10252171754837036133, -0.03395003080368041992, 0.05550400167703628540, 	},
			{0.01420296262949705124, 0.01259919162839651108, -0.08535096049308776855, 	},
			{-0.00563396839424967766, 0.03562231734395027161, -0.06512045115232467651, 	},
		},
		{
			{0.09958881139755249023, -0.06611692160367965698, -0.09088777750730514526, 	},
			{-0.05832530185580253601, 0.07440654933452606201, -0.01243922952562570572, 	},
			{0.06502406299114227295, 0.11286755651235580444, 0.09817596524953842163, 	},
		},
		{
			{-0.06827616691589355469, 0.03342027962207794189, -0.00561778293922543526, 	},
			{0.05909043177962303162, 0.09078475087881088257, -0.05203768983483314514, 	},
			{-0.09835381805896759033, -0.02421933412551879883, 0.01126392185688018799, 	},
		},
			},

	{
		{
			{0.07081793993711471558, -0.09536807239055633545, 0.01762307062745094299, 	},
			{0.02845913730561733246, 0.11253278702497482300, 0.01829298213124275208, 	},
			{0.09867359697818756104, -0.05514218285679817200, -0.09524995088577270508, 	},
		},
		{
			{-0.06423793733119964600, 0.09287096560001373291, -0.03094534762203693390, 	},
			{0.00789942219853401184, -0.00924742966890335083, -0.05528367683291435242, 	},
			{-0.06141039356589317322, 0.03686984255909919739, 0.05052784457802772522, 	},
		},
		{
			{-0.09070606529712677002, 0.11049783229827880859, 0.10542248934507369995, 	},
			{-0.08505194634199142456, 0.09528509527444839478, -0.01854118146002292633, 	},
			{0.11293427646160125732, -0.10010208189487457275, 0.07004927098751068115, 	},
		},
		{
			{0.02263838239014148712, 0.08842951804399490356, 0.08952017128467559814, 	},
			{-0.02691940963268280029, -0.09283986687660217285, 0.02051862329244613647, 	},
			{0.01157261803746223450, -0.09756515175104141235, -0.04026216268539428711, 	},
		},
		{
			{-0.06777232140302658081, -0.06298837065696716309, -0.10492307692766189575, 	},
			{-0.05778025090694427490, -0.00262885820120573044, 0.00768002076074481010, 	},
			{0.00514057651162147522, 0.08590733259916305542, -0.11846899986267089844, 	},
		},
		{
			{-0.08606258034706115723, 0.06896589696407318115, -0.00078437820775434375, 	},
			{0.05025094375014305115, -0.03512879088521003723, -0.07000967860221862793, 	},
			{0.00535549782216548920, -0.06974158436059951782, -0.09322874248027801514, 	},
		},
		{
			{0.03187486529350280762, -0.10851374268531799316, -0.00909646693617105484, 	},
			{-0.03321051225066184998, 0.09462687373161315918, 0.06483585387468338013, 	},
			{0.02075275033712387085, 0.08313773572444915771, 0.05573181435465812683, 	},
		},
		{
			{0.04312962293624877930, -0.04191104322671890259, -0.00350566906854510307, 	},
			{0.02696431241929531097, 0.07540453970432281494, 0.05261892452836036682, 	},
			{-0.04169869050383567810, 0.10702907294034957886, 0.02995818667113780975, 	},
		},
		{
			{-0.08287283778190612793, 0.03702563792467117310, -0.00216245814226567745, 	},
			{0.11128201335668563843, -0.07533679902553558350, -0.09992502629756927490, 	},
