#ifndef _CONV3_WEIGHTS_BIAS_H_
#define _CONV3_WEIGHTS_BIAS_H_

#include "process_element.h"

data_t L3_Kernel[L3_Kernel_number][L3_Kernel_channel][L3_Kernel_size][L3_Kernel_size] = {
	{
		{
			{-0.11192929744720458984, 0.06626776605844497681, -0.14431788027286529541, 	},
			{-0.05223583057522773743, -0.10727980732917785645, 0.04666341841220855713, 	},
			{-0.11742003262042999268, -0.14169415831565856934, -0.07061669975519180298, 	},
		},
		{
			{-0.00692884391173720360, 0.00983092933893203735, 0.01276065222918987274, 	},
			{0.10158155858516693115, 0.04565130546689033508, 0.03348734974861145020, 	},
			{0.02853632718324661255, 0.09485533088445663452, 0.10675127059221267700, 	},
		},
		{
			{-0.05580496415495872498, -0.03572556003928184509, 0.08366860449314117432, 	},
			{-0.07902897894382476807, -0.08084340393543243408, -0.00758046749979257584, 	},
			{-0.09778296947479248047, 0.07545568048954010010, -0.06472934037446975708, 	},
		},
		{
			{-0.11212386935949325562, -0.02830575592815876007, -0.12226355075836181641, 	},
			{-0.03592851385474205017, 0.09189974516630172729, 0.07292938977479934692, 	},
			{-0.03376028686761856079, -0.09639602899551391602, 0.00754855107516050339, 	},
		},
		{
			{-0.08628442883491516113, -0.02007692866027355194, 0.03395127877593040466, 	},
			{-0.05195191502571105957, 0.05091099068522453308, -0.12422427535057067871, 	},
			{-0.12082166224718093872, -0.05116562545299530029, 0.04976493120193481445, 	},
		},
		{
			{0.02401897311210632324, 0.15622863173484802246, 0.19677554070949554443, 	},
			{0.18003597855567932129, 0.06398638337850570679, 0.18514727056026458740, 	},
			{0.20370791852474212646, 0.10305357724428176880, -0.03399829566478729248, 	},
		},
		{
			{-0.00599503004923462868, 0.01646195724606513977, -0.10070743411779403687, 	},
			{-0.02448740229010581970, -0.09518325328826904297, 0.11128857731819152832, 	},
			{0.10602653026580810547, 0.09628141671419143677, -0.02764738351106643677, 	},
		},
		{
			{0.07495873421430587769, 0.05655479058623313904, -0.07875144481658935547, 	},
			{-0.05581561475992202759, -0.00336289382539689541, 0.10688490420579910278, 	},
			{0.06024786084890365601, 0.09961537271738052368, -0.16224269568920135498, 	},
		},
		{
			{0.09512814879417419434, -0.06127654388546943665, -0.00520271854475140572, 	},
			{-0.08360626548528671265, 0.01517858821898698807, -0.09905717521905899048, 	},
			{0.09116510301828384399, 0.04784725606441497803, -0.04480640217661857605, 	},
		},
		{
			{0.07573609799146652222, 0.01902499981224536896, 0.02100112102925777435, 	},
			{-0.06734462082386016846, -0.00516420183703303337, -0.11870090663433074951, 	},
			{0.07087942212820053101, 0.06199248507618904114, 0.09248299896717071533, 	},
		},
		{
			{-0.03795730322599411011, -0.04666377231478691101, -0.00413832999765872955, 	},
			{-0.11042456328868865967, 0.05310232937335968018, -0.05606658011674880981, 	},
			{-0.09841429442167282104, -0.10874707251787185669, -0.11261318624019622803, 	},
		},
		{
			{-0.08444047719240188599, 0.03336103260517120361, 0.05459427088499069214, 	},
			{-0.07956679165363311768, -0.06328047811985015869, -0.03613491356372833252, 	},
			{0.06062049418687820435, 0.06077285483479499817, 0.04852547496557235718, 	},
		},
		{
			{0.05858910083770751953, 0.05248077213764190674, -0.01051451079547405243, 	},
			{-0.11489563435316085815, -0.02727072127163410187, 0.14572840929031372070, 	},
			{0.06420955061912536621, 0.02889311686158180237, 0.12552535533905029297, 	},
		},
		{
			{-0.00802683178335428238, -0.01867001317441463470, -0.02893175370991230011, 	},
			{0.03490969911217689514, 0.08920013904571533203, -0.05262835696339607239, 	},
			{-0.06531000882387161255, -0.08515792340040206909, 0.13238267600536346436, 	},
		},
		{
			{0.11695581674575805664, 0.02361682057380676270, 0.02867973782122135162, 	},
			{0.07906369864940643311, -0.06498080492019653320, -0.11705008149147033691, 	},
			{0.06668070703744888306, -0.01257682219147682190, 0.00816514249891042709, 	},
		},
		{
			{-0.09328515082597732544, 0.07450179010629653931, -0.01261709257960319519, 	},
			{0.10006748139858245850, 0.06021548807621002197, -0.05495659261941909790, 	},
			{-0.13051424920558929443, -0.12819686532020568848, -0.11546003818511962891, 	},
		},
			},

	{
		{
			{-0.12008205056190490723, 0.07465597242116928101, 0.05993612483143806458, 	},
			{-0.05076701194047927856, -0.01771548576653003693, -0.02568640559911727905, 	},
			{0.10358949005603790283, -0.05105652660131454468, -0.08266628533601760864, 	},
		},
		{
			{0.11430964618921279907, 0.06505957990884780884, -0.00187577097676694393, 	},
			{0.07013726234436035156, -0.07531394064426422119, -0.05172798410058021545, 	},
			{0.05046427622437477112, -0.05715904757380485535, -0.06239413097500801086, 	},
		},
		{
			{0.03381008282303810120, -0.00712103955447673798, -0.05999987944960594177, 	},
			{-0.01171464286744594574, 0.00910467095673084259, -0.00475109880790114403, 	},
			{0.03020216897130012512, -0.06138685345649719238, -0.08039284497499465942, 	},
		},
		{
			{0.05769498273730278015, -0.07340228557586669922, 0.00782781001180410385, 	},
			{-0.06347877532243728638, -0.09125343710184097290, 0.05885655432939529419, 	},
			{-0.07285200804471969604, 0.10100659728050231934, -0.00316597125492990017, 	},
		},
		{
			{-0.01028249599039554596, 0.03642701730132102966, 0.07856449484825134277, 	},
			{0.02528507262468338013, 0.07653871923685073853, 0.06329461187124252319, 	},
			{0.05554857105016708374, 0.07020796090364456177, -0.07190551608800888062, 	},
		},
		{
			{0.12821458280086517334, 0.08051545172929763794, -0.11786235868930816650, 	},
			{0.13579060137271881104, -0.03712315484881401062, -0.16619580984115600586, 	},
			{0.07303478568792343140, -0.11680277436971664429, -0.07916503399610519409, 	},
		},
		{
			{0.03715847805142402649, -0.01774073950946331024, -0.07944627851247787476, 	},
			{-0.10547743737697601318, 0.04327566176652908325, 0.09368673712015151978, 	},
			{-0.03002935834228992462, 0.06516946107149124146, 0.05370362102985382080, 	},
		},
		{
			{-0.01045902166515588760, 0.02493813075125217438, 0.03946029394865036011, 	},
			{0.11464186012744903564, 0.06620673835277557373, -0.09067659825086593628, 	},
			{0.00020096969092264771, 0.07501105964183807373, 0.08586115390062332153, 	},
		},
		{
			{0.03697463870048522949, 0.00046458267024718225, -0.02375826425850391388, 	},
			{-0.06492757052183151245, -0.08856872469186782837, 0.03547285869717597961, 	},
			{0.00217819190584123135, 0.00243849563412368298, 0.09881665557622909546, 	},
		},
		{
			{-0.08027038723230361938, 0.08125099539756774902, 0.06035671383142471313, 	},
			{-0.00436837598681449890, -0.01499619521200656891, -0.10579993575811386108, 	},
			{-0.02752101980149745941, 0.02801773324608802795, -0.01259819325059652328, 	},
		},
		{
			{0.11589923501014709473, -0.10452773422002792358, 0.08478052169084548950, 	},
			{-0.06564340740442276001, -0.01009196415543556213, -0.09291367977857589722, 	},
			{-0.01873809285461902618, 0.02934444881975650787, -0.06773278862237930298, 	},
		},
		{
			{0.10889337211847305298, -0.06925841420888900757, -0.08421174436807632446, 	},
			{0.01874467730522155762, 0.10592351108789443970, -0.01445808354765176773, 	},
			{-0.07825201004743576050, 0.07878780364990234375, 0.09620369225740432739, 	},
		},
		{
			{0.12522025406360626221, -0.02469315007328987122, 0.06282380968332290649, 	},
			{0.09725904464721679688, 0.08542215079069137573, -0.02309129200875759125, 	},
			{-0.04240426793694496155, 0.04091692715883255005, -0.07149003446102142334, 	},
		},
		{
			{-0.04595740139484405518, 0.00101421540603041649, -0.03536081314086914062, 	},
			{-0.06926193833351135254, -0.02440925687551498413, -0.04624744504690170288, 	},
			{0.04650529474020004272, 0.00503935245797038078, -0.01608696393668651581, 	},
		},
		{
			{-0.06979583203792572021, -0.06374254822731018066, 0.06414799392223358154, 	},
			{0.11595989018678665161, 0.07782073318958282471, 0.01504103746265172958, 	},
			{0.05324263870716094971, 0.04403700307011604309, -0.06279963254928588867, 	},
		},
		{
			{0.01242647506296634674, 0.09781655669212341309, -0.10057637095451354980, 	},
			{-0.06222355738282203674, 0.00582047970965504646, -0.06620436161756515503, 	},
			{-0.11750841885805130005, 0.11158207058906555176, 0.00765527458861470222, 	},
		},
			},

	{
		{
			{0.05800626426935195923, 0.05194194987416267395, -0.00168696464970707893, 	},
			{0.05924220010638237000, 0.02118366956710815430, 0.10984361171722412109, 	},
			{0.10949140042066574097, 0.07961831986904144287, 0.10821256786584854126, 	},
		},
		{
			{-0.09813832491636276245, -0.10936560481786727905, 0.08343759924173355103, 	},
			{0.10547222197055816650, 0.01442914269864559174, -0.04197398945689201355, 	},
			{-0.07505558431148529053, -0.07964689284563064575, -0.09853318333625793457, 	},
		},
		{
			{0.05397036671638488770, 0.08508250862360000610, -0.01791210658848285675, 	},
			{0.10386212170124053955, 0.04105080664157867432, -0.08939679712057113647, 	},
			{0.06215489655733108521, -0.08013573288917541504, -0.04352954030036926270, 	},
		},
		{
			{-0.03890998288989067078, 0.09218081086874008179, -0.06729363650083541870, 	},
			{0.07957809418439865112, 0.01747308671474456787, 0.01202450972050428391, 	},
			{-0.05385619029402732849, 0.05668924003839492798, -0.08251950889825820923, 	},
		},
		{
			{0.06482400000095367432, -0.03144685924053192139, -0.09746114164590835571, 	},
			{-0.01726716011762619019, 0.06593430042266845703, -0.01326360926032066345, 	},
			{0.01185771171003580093, -0.06528221070766448975, -0.08978182077407836914, 	},
		},
		{
			{-0.05917330458760261536, 0.13421502709388732910, 0.17494420707225799561, 	},
			{0.05815916880965232849, -0.10994287580251693726, -0.08413650095462799072, 	},
			{-0.01684363745152950287, -0.06677031517028808594, -0.00650311401113867760, 	},
		},
		{
			{-0.03406826406717300415, -0.01778320968151092529, -0.02210038527846336365, 	},
			{-0.02487336099147796631, 0.01413476001471281052, 0.10278686136007308960, 	},
			{0.04399611800909042358, 0.00371615518815815449, -0.06807194650173187256, 	},
		},
		{
			{-0.06110030785202980042, 0.02224393188953399658, -0.06002800539135932922, 	},
			{0.04134139046072959900, -0.12143539637327194214, -0.01172748953104019165, 	},
			{-0.09513304382562637329, 0.03488064184784889221, -0.02977767959237098694, 	},
		},
		{
			{0.04565853625535964966, 0.10977122932672500610, 0.04489010944962501526, 	},
			{-0.05340490862727165222, -0.04884598776698112488, 0.08567307144403457642, 	},
			{0.11348612606525421143, 0.08052536845207214355, 0.00346563849598169327, 	},
		},
		{
			{-0.00384749402292072773, -0.07686074823141098022, -0.07896908372640609741, 	},
			{0.08850484341382980347, -0.05755617469549179077, 0.06531146168708801270, 	},
			{-0.09846224635839462280, -0.05631837993860244751, 0.10764145106077194214, 	},
		},
		{
			{0.04777069017291069031, -0.06448207795619964600, -0.10439572483301162720, 	},
			{0.04130657017230987549, -0.00615575816482305527, 0.00133995956275612116, 	},
			{0.08713552355766296387, 0.04527395591139793396, -0.09576988220214843750, 	},
		},
		{
			{0.00438487576320767403, 0.04389744624495506287, 0.05089652910828590393, 	},
			{0.05167429149150848389, 0.03506498038768768311, 0.10902767628431320190, 	},
			{-0.07562981545925140381, 0.05310270190238952637, 0.09525406360626220703, 	},
		},
		{
			{-0.04573248326778411865, -0.00289904652163386345, -0.00016868503007572144, 	},
			{-0.01800916716456413269, 0.05020004138350486755, -0.05693943798542022705, 	},
			{0.00629173172637820244, 0.09325293451547622681, 0.07675932347774505615, 	},
		},
		{
			{0.07870691269636154175, -0.09039860963821411133, -0.08717738091945648193, 	},
			{-0.02954961732029914856, 0.01657352596521377563, -0.10850123316049575806, 	},
			{-0.08614316582679748535, -0.00473944330587983131, -0.08735270798206329346, 	},
		},
		{
			{-0.08560290932655334473, -0.10851899534463882446, 0.02753349579870700836, 	},
			{0.09088208526372909546, 0.05763376131653785706, 0.04791387915611267090, 	},
			{0.03274259716272354126, 0.00976916588842868805, 0.04439554736018180847, 	},
		},
		{
			{0.05064040794968605042, -0.04686319082975387573, -0.01185286417603492737, 	},
			{0.09889566898345947266, 0.11972058564424514771, 0.07302149385213851929, 	},
			{-0.06634773313999176025, -0.07604560256004333496, -0.06363033503293991089, 	},
		},
			},

	{
		{
			{-0.02484033629298210144, -0.05379075184464454651, -0.02112598717212677002, 	},
			{-0.02296128682792186737, -0.04939977452158927917, 0.13613757491111755371, 	},
			{-0.07403516769409179688, 0.07003273814916610718, -0.01293903589248657227, 	},
		},
		{
			{0.05387999862432479858, 0.01301793754100799561, 0.02617820724844932556, 	},
			{0.08887133747339248657, 0.09128317981958389282, -0.01903290860354900360, 	},
			{-0.06554220616817474365, -0.09450896829366683960, -0.06245010346174240112, 	},
		},
		{
			{0.10030543059110641479, -0.03426155447959899902, -0.01071219705045223236, 	},
			{-0.06064256280660629272, 0.10680633038282394409, -0.08736155927181243896, 	},
			{0.03001945838332176208, 0.08790881931781768799, 0.05408635362982749939, 	},
		},
		{
			{0.03612810000777244568, -0.01758226193487644196, 0.08709789812564849854, 	},
			{-0.07434094697237014771, -0.02136500738561153412, 0.06565632671117782593, 	},
			{-0.08955384045839309692, -0.01778913475573062897, -0.02292927168309688568, 	},
		},
		{
			{0.02405688352882862091, 0.10796143859624862671, 0.04825836047530174255, 	},
			{0.05007274076342582703, -0.06326788663864135742, -0.07289458066225051880, 	},
			{0.09273174405097961426, 0.00704245688393712044, -0.04259794205427169800, 	},
		},
		{
			{-0.02481646463274955750, -0.04019210860133171082, -0.08778343349695205688, 	},
			{0.08006541430950164795, 0.04473229870200157166, 0.09701107442378997803, 	},
			{-0.11623077839612960815, 0.09039285033941268921, 0.00980310793966054916, 	},
		},
		{
			{-0.01858450099825859070, 0.08588099479675292969, 0.08555663377046585083, 	},
			{-0.01745031960308551788, 0.07265497744083404541, 0.02453977428376674652, 	},
			{0.07801464945077896118, -0.01060173287987709045, -0.11767948418855667114, 	},
		},
		{
			{0.04396414011716842651, 0.10671574622392654419, -0.10507476329803466797, 	},
			{-0.11367291957139968872, -0.11513695865869522095, -0.04746642336249351501, 	},
			{-0.01939594745635986328, -0.02968375757336616516, 0.02023687027394771576, 	},
		},
		{
			{0.04974750429391860962, 0.04198746755719184875, 0.05216143652796745300, 	},
			{0.10413531213998794556, 0.00583814829587936401, 0.05164792016148567200, 	},
			{0.09824381023645401001, -0.03344095498323440552, 0.07334746420383453369, 	},
		},
		{
			{0.06424341350793838501, -0.11051080375909805298, -0.09918937832117080688, 	},
			{0.01546839438378810883, 0.07581003755331039429, 0.05772306025028228760, 	},
			{0.07215206325054168701, -0.05397108942270278931, 0.11902599781751632690, 	},
		},
		{
			{-0.08624913543462753296, 0.04725348949432373047, 0.06151498854160308838, 	},
			{0.07876775413751602173, 0.03871238976716995239, 0.02548058517277240753, 	},
			{-0.02206901833415031433, 0.01545709464699029922, -0.10131819546222686768, 	},
		},
		{
			{0.02060896344482898712, 0.05509255826473236084, 0.11060945689678192139, 	},
			{0.04137000441551208496, 0.03977702558040618896, -0.11591438949108123779, 	},
			{-0.00271030236035585403, -0.10220196098089218140, 0.05269825085997581482, 	},
		},
		{
			{0.05065261572599411011, 0.02943900227546691895, -0.04415749758481979370, 	},
			{-0.11575251817703247070, -0.01229774672538042068, -0.10275389999151229858, 	},
			{-0.08264733105897903442, -0.05682294070720672607, 0.04592267423868179321, 	},
		},
		{
			{-0.01382471062242984772, 0.09162379801273345947, 0.10881214588880538940, 	},
			{-0.06458352506160736084, 0.03146450594067573547, -0.02890178933739662170, 	},
			{-0.04756209254264831543, -0.03576777875423431396, -0.09044726192951202393, 	},
		},
		{
			{0.06605080515146255493, 0.00228696083649992943, -0.00462554441764950752, 	},
			{0.00166055350564420223, -0.11029540002346038818, -0.02786869741976261139, 	},
			{-0.09618419408798217773, 0.02846650592982769012, 0.06211402639746665955, 	},
		},
		{
			{-0.06555887311697006226, -0.03929933160543441772, 0.03840907290577888489, 	},
			{0.00134905811864882708, -0.09863168001174926758, 0.05765267089009284973, 	},
			{0.11416003853082656860, 0.05312803760170936584, -0.03052198328077793121, 	},
		},
			},

	{
		{
			{-0.11906731128692626953, 0.05678581073880195618, -0.04331179708242416382, 	},
			{-0.02455376274883747101, -0.00465065427124500275, -0.13749815523624420166, 	},
			{-0.00178128713741898537, -0.00178169622085988522, -0.05363557860255241394, 	},
		},
		{
			{0.02899027988314628601, -0.04593526571989059448, 0.02265411615371704102, 	},
			{0.10841856151819229126, -0.09658104181289672852, -0.03377958387136459351, 	},
			{0.07778481394052505493, 0.03764623403549194336, 0.00298988376744091511, 	},
		},
		{
			{-0.01947196200489997864, 0.06616363674402236938, -0.11131630837917327881, 	},
			{-0.05946625769138336182, -0.02459437027573585510, 0.00865576416254043579, 	},
			{0.02647770568728446960, -0.05437667667865753174, -0.09332281351089477539, 	},
		},
		{
			{0.08144567161798477173, -0.06061943992972373962, 0.09553512185811996460, 	},
			{-0.11452413350343704224, -0.04875039681792259216, 0.01034073904156684875, 	},
			{-0.05953335016965866089, -0.09154237061738967896, -0.07517386227846145630, 	},
		},
		{
			{0.05844169110059738159, -0.13514100015163421631, -0.00319396820850670338, 	},
			{-0.07905182242393493652, -0.03431072831153869629, -0.06202988326549530029, 	},
			{-0.04533737897872924805, 0.08831095695495605469, 0.04391911998391151428, 	},
		},
		{
			{0.20040394365787506104, 0.17669948935508728027, 0.21140325069427490234, 	},
			{0.11754094064235687256, 0.10939887911081314087, -0.02820714004337787628, 	},
			{0.18794386088848114014, 0.01258762832731008530, -0.15584988892078399658, 	},
		},
		{
			{-0.06097129732370376587, -0.09341387450695037842, 0.05341895669698715210, 	},
			{0.02313042059540748596, 0.04247111082077026367, 0.04870295897126197815, 	},
			{-0.05578256770968437195, -0.09946554899215698242, 0.00798909831792116165, 	},
		},
		{
			{-0.07251858711242675781, -0.09165193140506744385, -0.05726900324225425720, 	},
			{0.01099946349859237671, 0.10763441771268844604, -0.05624916031956672668, 	},
			{-0.07248370349407196045, 0.09356013685464859009, 0.07905156165361404419, 	},
		},
		{
			{-0.02176680415868759155, -0.10354743897914886475, 0.02488138712942600250, 	},
			{0.06888405978679656982, -0.03889927268028259277, 0.04236169159412384033, 	},
			{-0.11823914945125579834, -0.11435615271329879761, 0.07168926298618316650, 	},
		},
		{
			{0.01548248343169689178, 0.02488624490797519684, -0.04418556392192840576, 	},
			{-0.05248812958598136902, 0.07634795457124710083, 0.08512751013040542603, 	},
			{0.10064476728439331055, -0.10309552401304244995, 0.04075594246387481689, 	},
		},
		{
			{0.05440401285886764526, -0.05412114039063453674, -0.07018116861581802368, 	},
			{0.10251907259225845337, 0.03488022461533546448, 0.02526967786252498627, 	},
			{-0.09016338735818862915, 0.07359131425619125366, -0.10589808970689773560, 	},
		},
		{
			{0.08591798692941665649, 0.10999707132577896118, 0.07222139090299606323, 	},
			{0.03692513331770896912, -0.08552303910255432129, 0.10939258337020874023, 	},
			{0.10632807016372680664, 0.10320286452770233154, -0.09750065207481384277, 	},
		},
		{
			{-0.02046757936477661133, -0.07831155508756637573, -0.00317440042272210121, 	},
			{-0.10147183388471603394, -0.00956224463880062103, -0.06286860257387161255, 	},
			{0.09133266657590866089, -0.05621253699064254761, -0.02938380092382431030, 	},
		},
		{
			{0.02854652144014835358, -0.00462464662268757820, -0.00328822364099323750, 	},
			{-0.04158446565270423889, -0.06380987912416458130, 0.06808697432279586792, 	},
			{-0.06855675578117370605, -0.05027619376778602600, 0.01122994255274534225, 	},
		},
		{
			{-0.01325849536806344986, 0.08368932455778121948, -0.09460374712944030762, 	},
			{-0.05440974608063697815, 0.02275242097675800323, -0.06463082879781723022, 	},
			{0.08182509988546371460, -0.03180514276027679443, 0.07239731401205062866, 	},
		},
		{
			{-0.12321244180202484131, -0.12751992046833038330, -0.07608787715435028076, 	},
			{-0.03162174671888351440, -0.11492164433002471924, 0.07904618233442306519, 	},
			{0.04297588020563125610, -0.07186108827590942383, 0.08368673920631408691, 	},
		},
			},

	{
		{
			{-0.03860387578606605530, 0.10138332843780517578, -0.12456000596284866333, 	},
			{0.04467000812292098999, -0.08123181015253067017, 0.10820751637220382690, 	},
			{0.10043775290250778198, 0.10518591850996017456, 0.17962598800659179688, 	},
		},
		{
			{-0.03911175578832626343, -0.09171561151742935181, 0.00894597079604864120, 	},
			{0.07969735562801361084, -0.07991237193346023560, -0.07246284186840057373, 	},
			{0.05933988839387893677, -0.01472068391740322113, 0.07131468504667282104, 	},
		},
		{
			{-0.02407492510974407196, -0.04659454524517059326, -0.09723097831010818481, 	},
			{0.08957263827323913574, 0.05814049020409584045, -0.11112142354249954224, 	},
			{-0.05555256456136703491, -0.03739264979958534241, 0.05236072093248367310, 	},
		},
		{
			{-0.06853545457124710083, -0.06589203327894210815, -0.08422023057937622070, 	},
			{-0.04164026305079460144, -0.07815840840339660645, 0.01955886557698249817, 	},
			{-0.02128331735730171204, 0.00789511762559413910, -0.02460731379687786102, 	},
		},
		{
			{-0.10689067095518112183, -0.09692551940679550171, 0.06416779011487960815, 	},
			{0.09489668160676956177, 0.10191629827022552490, 0.11565886437892913818, 	},
			{0.09542371332645416260, -0.00628701038658618927, 0.15986993908882141113, 	},
		},
		{
			{0.15358105301856994629, 0.00750201055780053139, -0.08039932698011398315, 	},
			{0.13348618149757385254, 0.03279557824134826660, -0.08172956109046936035, 	},
			{0.12750189006328582764, -0.13200208544731140137, -0.16049739718437194824, 	},
		},
		{
			{-0.06693845987319946289, 0.03008036874234676361, 0.10130246728658676147, 	},
			{0.11380899697542190552, -0.08259913325309753418, 0.01827169023454189301, 	},
			{0.11130443215370178223, -0.10092113167047500610, 0.01661767251789569855, 	},
		},
		{
			{0.04350867122411727905, 0.00950606819242238998, 0.02034930326044559479, 	},
			{-0.02479481883347034454, -0.04105639830231666565, -0.06025847420096397400, 	},
			{-0.01574867404997348785, -0.01771740801632404327, 0.06610034406185150146, 	},
		},
		{
			{-0.06510712951421737671, 0.09816970676183700562, 0.03397506102919578552, 	},
			{-0.09787607192993164062, 0.00707137212157249451, -0.06011825799942016602, 	},
			{0.12446821480989456177, -0.03883375972509384155, 0.07386030256748199463, 	},
		},
		{
			{0.09013440459966659546, 0.03873002901673316956, 0.07235917448997497559, 	},
			{0.01791290566325187683, -0.01977508142590522766, 0.08799264580011367798, 	},
			{0.12043061107397079468, 0.08003339916467666626, 0.13224346935749053955, 	},
		},
		{
			{0.09680254012346267700, 0.02260752767324447632, -0.05018433555960655212, 	},
			{0.06805036216974258423, 0.03262820839881896973, 0.11461610347032546997, 	},
			{0.08454705774784088135, 0.10377109795808792114, 0.05972452834248542786, 	},
		},
		{
			{-0.06964200735092163086, -0.02617967501282691956, -0.01981112919747829437, 	},
			{0.03671460971236228943, 0.10898268967866897583, 0.03570163995027542114, 	},
			{-0.01964533887803554535, -0.04764839261770248413, 0.02279885485768318176, 	},
		},
		{
			{-0.06520520150661468506, 0.09241235256195068359, 0.09067326039075851440, 	},
			{0.02335832826793193817, 0.06020556017756462097, 0.08890338242053985596, 	},
			{0.08937264233827590942, -0.00767696602270007133, 0.00375405699014663696, 	},
		},
		{
			{-0.10990726947784423828, 0.00233883876353502274, 0.12662711739540100098, 	},
			{-0.04859631881117820740, 0.09200678765773773193, -0.03536815568804740906, 	},
			{0.06159751862287521362, 0.04917724803090095520, -0.02603414282202720642, 	},
		},
		{
			{-0.07002215832471847534, 0.04820150136947631836, -0.01076121628284454346, 	},
			{-0.09355072677135467529, 0.08068218082189559937, 0.01450464408844709396, 	},
			{0.08128648251295089722, -0.01196117419749498367, 0.11162594705820083618, 	},
		},
		{
			{-0.01920518837869167328, -0.06745571643114089966, 0.02916905656456947327, 	},
			{0.09664888679981231689, -0.10389331728219985962, -0.02031444944441318512, 	},
			{0.03766525164246559143, 0.02600431069731712341, 0.01066305581480264664, 	},
		},
			},

	{
		{
			{0.03361617028713226318, 0.13114763796329498291, -0.01378205139189958572, 	},
			{0.12131357192993164062, 0.12151453644037246704, 0.02849333733320236206, 	},
			{0.14365164935588836670, 0.00649674143642187119, 0.02807091921567916870, 	},
		},
		{
			{-0.05748136714100837708, 0.02035987377166748047, -0.02032760530710220337, 	},
			{-0.03588895872235298157, 0.09186951071023941040, -0.09733068943023681641, 	},
			{0.04441892355680465698, -0.01862569898366928101, 0.07009831815958023071, 	},
		},
		{
			{-0.05986863002181053162, 0.03285202756524085999, -0.04041085392236709595, 	},
			{-0.01892295666038990021, 0.02168027311563491821, -0.00779830245301127434, 	},
			{-0.07757703959941864014, -0.06324087083339691162, 0.08000704646110534668, 	},
		},
		{
			{0.12728781998157501221, 0.03923677653074264526, 0.10424576699733734131, 	},
			{-0.05145432054996490479, -0.05634242296218872070, 0.02797944843769073486, 	},
			{-0.10982637107372283936, 0.00560959195718169212, -0.00631784833967685699, 	},
		},
		{
			{0.09149812161922454834, 0.10234338790178298950, -0.03396821767091751099, 	},
			{-0.02462408132851123810, -0.02614360488951206207, 0.11954658478498458862, 	},
			{0.01177736278623342514, 0.05874163284897804260, 0.01333787571638822556, 	},
		},
		{
			{0.11433947086334228516, -0.02672254852950572968, 0.02069352753460407257, 	},
			{0.14533793926239013672, -0.17000712454319000244, -0.18779091536998748779, 	},
			{0.20021863281726837158, 0.06122991815209388733, -0.08745335787534713745, 	},
		},
		{
			{-0.09591417014598846436, 0.05825614929199218750, 0.07433740049600601196, 	},
			{-0.07521539181470870972, -0.05956649780273437500, 0.01980496197938919067, 	},
			{0.00532069336622953415, 0.09325774013996124268, -0.03535471484065055847, 	},
		},
		{
			{-0.06268361955881118774, -0.08866848796606063843, -0.01787863299250602722, 	},
			{-0.11571619659662246704, -0.09453605860471725464, -0.08208612352609634399, 	},
			{0.10710535198450088501, 0.02039146982133388519, 0.04225718230009078979, 	},
		},
		{
			{-0.07768826931715011597, 0.06301084905862808228, 0.02523535862565040588, 	},
			{-0.03977235406637191772, 0.04300228506326675415, 0.10833673924207687378, 	},
			{0.04589429125189781189, 0.08901078999042510986, 0.01879343576729297638, 	},
		},
		{
			{0.02592917904257774353, 0.03777230158448219299, 0.10544575005769729614, 	},
			{0.01851339824497699738, -0.08205631375312805176, -0.09868988394737243652, 	},
			{0.08958932757377624512, 0.14922222495079040527, 0.13005991280078887939, 	},
		},
		{
			{-0.07474864274263381958, 0.11883242428302764893, 0.06157288700342178345, 	},
			{0.04156752675771713257, -0.06195683404803276062, -0.10858029872179031372, 	},
			{0.01143530476838350296, 0.05398622900247573853, -0.05984295904636383057, 	},
		},
		{
			{0.02998807281255722046, 0.09094611555337905884, -0.01552554592490196228, 	},
			{-0.05738440901041030884, 0.09397209435701370239, -0.03394335135817527771, 	},
			{-0.02503713592886924744, 0.00071913644205778837, -0.10298443585634231567, 	},
		},
		{
			{-0.04683182388544082642, -0.09601777046918869019, 0.06964849680662155151, 	},
			{0.12108822911977767944, -0.02457247674465179443, -0.08662909269332885742, 	},
			{-0.08269770443439483643, -0.08625011891126632690, -0.09479614347219467163, 	},
		},
		{
			{-0.05044965073466300964, 0.03893459588289260864, 0.08793380856513977051, 	},
			{-0.02284054085612297058, -0.07829741388559341431, 0.07284013926982879639, 	},
			{-0.10129495710134506226, -0.08613060414791107178, -0.01907099597156047821, 	},
		},
		{
			{0.04327749088406562805, -0.09680488705635070801, 0.11406146734952926636, 	},
			{0.01520091947168111801, 0.11828730255365371704, 0.10813931375741958618, 	},
			{-0.09030693024396896362, -0.07607159018516540527, -0.02400943823158740997, 	},
		},
		{
			{-0.10038810968399047852, -0.03456076607108116150, 0.04777631536126136780, 	},
			{0.07084845751523971558, -0.00140310428105294704, -0.10945158451795578003, 	},
			{-0.04229363799095153809, 0.12120422720909118652, -0.09488660842180252075, 	},
		},
			},

	{
		{
			{0.02929855696856975555, -0.05381720140576362610, -0.07867223769426345825, 	},
			{-0.02098806016147136688, -0.07501405477523803711, 0.02913929894566535950, 	},
			{0.06662899255752563477, 0.12912614643573760986, 0.01407609786838293076, 	},
		},
		{
			{0.06822174042463302612, 0.01171924639493227005, -0.02321034297347068787, 	},
			{0.00525575131177902222, 0.10377237200736999512, -0.01606596261262893677, 	},
			{0.02364304475486278534, 0.11142204701900482178, -0.02235009707510471344, 	},
		},
		{
			{-0.07234951853752136230, -0.05740526318550109863, -0.04258525744080543518, 	},
			{-0.02794699743390083313, -0.01051198318600654602, -0.08018863946199417114, 	},
			{-0.02996255084872245789, -0.02060609869658946991, 0.07649149000644683838, 	},
		},
		{
			{-0.06777318567037582397, 0.11483653634786605835, -0.01051434222608804703, 	},
			{0.05270710587501525879, 0.12214129418134689331, 0.03416336700320243835, 	},
			{0.12758854031562805176, -0.03735668584704399109, -0.09181275963783264160, 	},
		},
		{
			{0.01281370222568511963, 0.00981033686548471451, 0.01114001218229532242, 	},
			{0.00483618536964058876, -0.02736199274659156799, 0.09184268116950988770, 	},
			{-0.06551681458950042725, 0.13751773536205291748, -0.01094318367540836334, 	},
		},
		{
			{0.11718027293682098389, 0.13972635567188262939, 0.08195349574089050293, 	},
			{-0.08290366828441619873, 0.08694164454936981201, 0.11551924049854278564, 	},
			{-0.19566570222377777100, -0.13245016336441040039, -0.07684781402349472046, 	},
		},
		{
			{-0.07521557062864303589, -0.07320366799831390381, 0.04218408465385437012, 	},
			{-0.01985864713788032532, 0.08728142082691192627, -0.02174953743815422058, 	},
			{-0.11232271045446395874, 0.04494479671120643616, 0.00555425509810447693, 	},
		},
		{
			{0.03056941553950309753, -0.03238147869706153870, 0.01890681684017181396, 	},
			{-0.04021551087498664856, 0.09670070558786392212, 0.01936216093599796295, 	},
			{-0.11945194751024246216, -0.07285119593143463135, -0.05945244058966636658, 	},
		},
		{
			{0.03520995005965232849, 0.08223519474267959595, -0.05235869437456130981, 	},
			{-0.09073074907064437866, 0.04432271793484687805, 0.10544719547033309937, 	},
			{0.02600861899554729462, 0.11563599109649658203, 0.04072596132755279541, 	},
		},
		{
			{-0.10367744415998458862, 0.11357152462005615234, -0.08144255727529525757, 	},
			{0.02349703758955001831, -0.05410942062735557556, -0.02874289825558662415, 	},
			{0.13062322139739990234, -0.04068880900740623474, 0.07811453193426132202, 	},
		},
		{
			{-0.04475939273834228516, -0.05038477480411529541, 0.03260007873177528381, 	},
			{-0.11027413606643676758, 0.00792856235057115555, 0.06898108124732971191, 	},
			{0.06551980227231979370, 0.04911637678742408752, 0.01033987291157245636, 	},
		},
		{
			{-0.06518098711967468262, -0.02039997838437557220, 0.07084262371063232422, 	},
			{0.13434199988842010498, 0.14278914034366607666, 0.12171067297458648682, 	},
			{0.03893984481692314148, -0.11467786878347396851, -0.09952529519796371460, 	},
		},
		{
			{-0.00416380446404218674, -0.05427446216344833374, -0.08537619560956954956, 	},
			{-0.05953199788928031921, -0.04391424730420112610, -0.05329474061727523804, 	},
			{-0.04456473886966705322, -0.08600553125143051147, 0.00825107004493474960, 	},
		},
		{
			{-0.01547536440193653107, -0.07742349803447723389, 0.07217691838741302490, 	},
			{-0.02716521918773651123, -0.04411569237709045410, 0.01550992392003536224, 	},
			{-0.07562611252069473267, 0.07051568478345870972, 0.01347052771598100662, 	},
		},
		{
			{-0.01370000559836626053, 0.01425881497561931610, 0.09893108159303665161, 	},
			{0.12779934704303741455, 0.13177001476287841797, 0.12512785196304321289, 	},
			{0.04805264994502067566, -0.10087172687053680420, -0.07233244180679321289, 	},
		},
		{
			{0.09260658174753189087, -0.11373258382081985474, 0.00536273559555411339, 	},
			{0.01379797421395778656, -0.02977523952722549438, -0.08061983436346054077, 	},
			{0.11155447363853454590, -0.02578449808061122894, -0.01129894424229860306, 	},
		},
			},

	{
		{
			{0.04452695325016975403, -0.06191680580377578735, 0.09912725538015365601, 	},
			{0.03385060280561447144, 0.04256229475140571594, 0.07439286261796951294, 	},
			{0.01452673599123954773, 0.06060234084725379944, -0.10235246270895004272, 	},
		},
		{
			{0.09029281139373779297, 0.07938361912965774536, -0.04499226808547973633, 	},
			{-0.00767829874530434608, 0.07592917233705520630, 0.03418853506445884705, 	},
			{-0.10740991681814193726, -0.03425141423940658569, 0.06094658002257347107, 	},
		},
		{
			{-0.03399309143424034119, -0.07550195604562759399, -0.04463032260537147522, 	},
			{0.08647121489048004150, -0.05828336253762245178, -0.02364124730229377747, 	},
			{-0.03295215591788291931, 0.01119708456099033356, 0.05666615813970565796, 	},
		},
		{
			{0.02736264094710350037, -0.00352039723657071590, 0.10761304199695587158, 	},
			{0.05503226071596145630, -0.06982248276472091675, -0.10225036740303039551, 	},
			{-0.06305123865604400635, -0.00384181807748973370, 0.04501484706997871399, 	},
		},
		{
			{-0.00619553076103329659, -0.01122791878879070282, -0.05118811875581741333, 	},
			{-0.00606952235102653503, 0.00618154602125287056, 0.09017970412969589233, 	},
			{-0.06021909043192863464, 0.04790093377232551575, 0.09130792319774627686, 	},
		},
		{
			{-0.07546830177307128906, 0.03904753923416137695, 0.18478070199489593506, 	},
			{-0.17916804552078247070, 0.12150132656097412109, 0.11723864823579788208, 	},
			{-0.13515581190586090088, 0.15834309160709381104, 0.10844805091619491577, 	},
		},
		{
			{-0.06791783124208450317, 0.11128699034452438354, 0.06093947216868400574, 	},
			{0.01729932613670825958, -0.05088320374488830566, 0.10196571797132492065, 	},
			{-0.04283387213945388794, -0.03574935346841812134, 0.01293729338794946671, 	},
		},
		{
			{-0.07517954707145690918, -0.08240582793951034546, -0.00864282250404357910, 	},
			{0.02486169897019863129, 0.09918747097253799438, -0.04200098663568496704, 	},
			{0.11296811699867248535, 0.09438803791999816895, -0.05689227953553199768, 	},
		},
		{
			{-0.11452347040176391602, 0.00622490746900439262, -0.02663633041083812714, 	},
			{0.10050372779369354248, -0.07262046635150909424, 0.06348717957735061646, 	},
			{-0.01911302097141742706, -0.03696392476558685303, 0.00142172467894852161, 	},
		},
		{
			{0.01391754485666751862, -0.00673657748848199844, 0.03496700897812843323, 	},
			{-0.08084709197282791138, -0.09519489109516143799, -0.05572174489498138428, 	},
			{-0.06574600934982299805, -0.03201485425233840942, -0.07457202672958374023, 	},
		},
		{
			{0.08117715269327163696, -0.04084245488047599792, 0.09074816852807998657, 	},
			{0.11852846294641494751, -0.02835132926702499390, 0.05829238891601562500, 	},
			{-0.09689502418041229248, 0.00911281071603298187, -0.11821576952934265137, 	},
		},
		{
			{0.07497960329055786133, -0.02054503746330738068, -0.05751476809382438660, 	},
			{0.01780463755130767822, 0.10711357742547988892, 0.07178160548210144043, 	},
			{-0.09307393431663513184, -0.11602101475000381470, 0.06111300364136695862, 	},
		},
		{
			{0.00873563438653945923, 0.09504602849483489990, 0.03542833030223846436, 	},
			{-0.08047930896282196045, 0.05083406716585159302, 0.01019040122628211975, 	},
			{-0.03574283793568611145, 0.11862861365079879761, -0.10213862359523773193, 	},
		},
		{
			{0.10877252370119094849, -0.09651635587215423584, 0.01286197640001773834, 	},
			{-0.05771568417549133301, 0.09091822803020477295, -0.05048528313636779785, 	},
			{-0.11171192675828933716, -0.09116216003894805908, -0.08555930852890014648, 	},
		},
		{
			{-0.05029574781656265259, -0.10397923737764358521, 0.10652311146259307861, 	},
			{0.08059994876384735107, 0.03491810336709022522, 0.06504223495721817017, 	},
			{0.11213361471891403198, 0.07286809384822845459, -0.05218463391065597534, 	},
		},
		{
			{-0.00022200135572347790, -0.06589528173208236694, -0.09979451447725296021, 	},
			{0.01211894210427999496, 0.09711283445358276367, 0.08485467731952667236, 	},
			{-0.02090006880462169647, -0.08741421252489089966, 0.10627172142267227173, 	},
		},
			},

	{
		{
			{-0.09643432497978210449, 0.08050492405891418457, -0.02250140905380249023, 	},
			{0.05975589156150817871, -0.08348499238491058350, 0.10010891407728195190, 	},
			{-0.06763800978660583496, -0.02359716594219207764, -0.04189490526914596558, 	},
		},
		{
			{-0.01433916948735713959, -0.02480471506714820862, 0.00994216464459896088, 	},
			{0.05894287675619125366, -0.04103940352797508240, -0.00070409016916528344, 	},
			{0.10560335218906402588, -0.10665272176265716553, -0.01119088660925626755, 	},
		},
		{
			{-0.06791104376316070557, 0.06875266134738922119, -0.07883280515670776367, 	},
			{-0.08061982691287994385, 0.09489467740058898926, -0.03415108844637870789, 	},
			{-0.09262814372777938843, 0.09383068978786468506, -0.10006009787321090698, 	},
		},
		{
			{0.05574024468660354614, 0.05965532362461090088, 0.10767865180969238281, 	},
			{0.01511229947209358215, 0.03787285834550857544, 0.06653321534395217896, 	},
			{-0.00440175784751772881, -0.00531370146200060844, 0.01070681586861610413, 	},
		},
		{
			{-0.09384483098983764648, 0.00947711430490016937, 0.00516300695016980171, 	},
			{-0.08862534910440444946, 0.10837959498167037964, 0.04096569493412971497, 	},
			{-0.01015742868185043335, 0.10888150334358215332, 0.05635027587413787842, 	},
		},
		{
			{-0.00904069095849990845, 0.03720803558826446533, 0.07283314317464828491, 	},
			{0.03773653879761695862, 0.01037732698023319244, 0.06784856319427490234, 	},
			{0.01445206534117460251, -0.06326580792665481567, -0.04605604335665702820, 	},
		},
		{
			{0.10674339532852172852, 0.00942218489944934845, 0.02626084908843040466, 	},
			{-0.03668965026736259460, 0.01061337068676948547, 0.06404379755258560181, 	},
			{-0.02209942229092121124, 0.00973456259816884995, -0.02673716656863689423, 	},
		},
		{
			{0.08557310700416564941, 0.01183195132762193680, -0.07776749879121780396, 	},
			{-0.02733898162841796875, -0.10978494584560394287, -0.04301303997635841370, 	},
			{0.00076955836266279221, -0.03928410634398460388, 0.11991772800683975220, 	},
		},
		{
			{0.03620320186018943787, -0.00538061838597059250, -0.02379304915666580200, 	},
			{-0.09714333713054656982, -0.05387197434902191162, 0.05131683871150016785, 	},
			{0.09274140000343322754, 0.07567469775676727295, 0.04048616811633110046, 	},
		},
		{
			{-0.07661309093236923218, 0.08496834337711334229, -0.03388120979070663452, 	},
			{-0.07684745639562606812, 0.01184601150453090668, -0.03850472718477249146, 	},
			{-0.06072684004902839661, 0.12491320073604583740, 0.11144709587097167969, 	},
		},
		{
			{-0.08676892518997192383, 0.01673219539225101471, -0.07218349725008010864, 	},
			{-0.10606819391250610352, -0.02820951305329799652, -0.10766861587762832642, 	},
			{0.06541019678115844727, -0.02986598201096057892, -0.03177863731980323792, 	},
		},
		{
			{-0.10892569273710250854, -0.09744821488857269287, -0.08122666925191879272, 	},
			{-0.03974362090229988098, 0.07719185203313827515, 0.05494145303964614868, 	},
			{-0.08733151108026504517, -0.07446526736021041870, -0.06963635981082916260, 	},
		},
		{
			{0.07034190744161605835, -0.11147852987051010132, 0.11840433627367019653, 	},
			{0.10864222049713134766, 0.08387574553489685059, -0.04287904128432273865, 	},
			{0.10223514586687088013, -0.06387396901845932007, -0.02717629447579383850, 	},
		},
		{
			{0.00095153332222253084, -0.02548862434923648834, 0.11618966609239578247, 	},
			{0.10182372480630874634, 0.11373630911111831665, -0.09893248230218887329, 	},
			{0.10706600546836853027, -0.10251270234584808350, 0.01383680105209350586, 	},
		},
		{
			{-0.03256076946854591370, 0.00821403786540031433, -0.01050219032913446426, 	},
			{0.01521680038422346115, -0.06347389519214630127, -0.11436820775270462036, 	},
			{0.02205722779035568237, 0.01123634818941354752, 0.03343432769179344177, 	},
		},
		{
			{0.00162536592688411474, -0.09846533089876174927, -0.08268602192401885986, 	},
			{-0.02811668440699577332, 0.02904062345623970032, 0.12188359349966049194, 	},
			{-0.04437586292624473572, -0.03016417287290096283, 0.02389019168913364410, 	},
		},
			},

	{
		{
			{0.14416898787021636963, -0.05309743061661720276, -0.10401561111211776733, 	},
			{0.04695669561624526978, 0.07216875255107879639, -0.04694297537207603455, 	},
			{0.01899274066090583801, -0.02844726853072643280, 0.05193421989679336548, 	},
		},
		{
			{0.10538881272077560425, 0.08808359503746032715, -0.07674267888069152832, 	},
			{0.00244618626311421394, 0.02600631117820739746, -0.01262914203107357025, 	},
			{0.04079310968518257141, -0.03593184053897857666, -0.11261354386806488037, 	},
		},
		{
			{0.07375358045101165771, -0.02610585466027259827, 0.04966679587960243225, 	},
			{0.03189646080136299133, -0.06026371940970420837, 0.02558456920087337494, 	},
			{-0.00561541318893432617, 0.06140307709574699402, -0.03493524342775344849, 	},
		},
		{
			{-0.11943033337593078613, -0.02092911303043365479, -0.07368033379316329956, 	},
			{-0.09855867922306060791, 0.02854668721556663513, -0.00184688204899430275, 	},
			{0.00365522853098809719, 0.11064384132623672485, -0.04224024713039398193, 	},
		},
		{
			{0.07744301855564117432, -0.01606757007539272308, 0.02376781404018402100, 	},
			{0.06705949455499649048, -0.00690473197028040886, 0.15648718178272247314, 	},
			{0.01636191830039024353, 0.06727846711874008179, 0.11710585653781890869, 	},
		},
		{
			{0.06398408114910125732, 0.10652135312557220459, -0.05433226376771926880, 	},
			{0.10759109258651733398, 0.09677559137344360352, -0.00618209037929773331, 	},
			{0.17672285437583923340, -0.04826102405786514282, -0.20027288794517517090, 	},
		},
		{
			{0.03539843857288360596, -0.11363063007593154907, 0.02731925621628761292, 	},
			{-0.10639841854572296143, 0.02133961766958236694, -0.10551615059375762939, 	},
			{0.00469253491610288620, 0.01343803945928812027, 0.00808351300656795502, 	},
		},
		{
			{-0.07731420546770095825, 0.07537432760000228882, 0.08494850248098373413, 	},
			{-0.04934418201446533203, -0.02481469884514808655, -0.13696895539760589600, 	},
			{-0.10095611214637756348, -0.11048734933137893677, -0.14537349343299865723, 	},
		},
		{
			{-0.05852370336651802063, -0.09033652395009994507, -0.05029042437672615051, 	},
			{0.01245887018740177155, 0.04039264097809791565, 0.12170060724020004272, 	},
			{0.01585676893591880798, -0.00183001707773655653, -0.02824604697525501251, 	},
		},
		{
			{0.09088126569986343384, 0.04928361997008323669, -0.03004610538482666016, 	},
			{-0.07283142209053039551, 0.01963666640222072601, -0.05696956440806388855, 	},
			{-0.11300674080848693848, -0.04042748734354972839, 0.00463856942951679230, 	},
		},
		{
			{0.01956932246685028076, 0.07179068028926849365, -0.07593436539173126221, 	},
			{0.06814365833997726440, 0.08663251996040344238, 0.05559210479259490967, 	},
			{0.10665816068649291992, -0.07472022622823715210, 0.08325308561325073242, 	},
		},
		{
			{-0.06280182301998138428, 0.05856935307383537292, 0.13294391334056854248, 	},
			{0.09124325960874557495, -0.01561302971094846725, 0.12432387471199035645, 	},
			{0.05666448548436164856, 0.04799382016062736511, 0.07775189727544784546, 	},
		},
		{
			{-0.09743101894855499268, -0.10775633156299591064, 0.13767792284488677979, 	},
			{-0.11798895895481109619, -0.00143090321216732264, 0.09030299633741378784, 	},
			{0.02222210541367530823, 0.17051970958709716797, -0.05167861655354499817, 	},
		},
		{
			{0.03662334010004997253, 0.03823035955429077148, -0.05669556185603141785, 	},
			{-0.10955597460269927979, -0.10438223183155059814, 0.08305196464061737061, 	},
			{0.07412715256214141846, -0.07020856440067291260, 0.10355553776025772095, 	},
		},
		{
			{-0.11351148039102554321, 0.08125258237123489380, 0.10786072164773941040, 	},
			{0.03439830243587493896, 0.08766012638807296753, 0.05277075245976448059, 	},
			{0.08133698254823684692, -0.06656090915203094482, 0.05228359252214431763, 	},
		},
		{
			{0.08243033289909362793, 0.06932570040225982666, -0.00053190498147159815, 	},
			{0.09540642052888870239, 0.02680671215057373047, 0.10753913968801498413, 	},
			{0.05310114473104476929, 0.07852187752723693848, -0.07749952375888824463, 	},
		},
			},

	{
		{
			{-0.02887736633419990540, -0.02090523205697536469, 0.07069060206413269043, 	},
			{0.05528492853045463562, 0.24434547126293182373, 0.19235415756702423096, 	},
			{0.08728361874818801880, -0.00573584390804171562, 0.02058426849544048309, 	},
		},
		{
			{-0.07783545553684234619, -0.04410394653677940369, -0.05061629414558410645, 	},
			{0.03096265532076358795, 0.09056766331195831299, 0.01011658832430839539, 	},
			{0.09976390749216079712, -0.09737595170736312866, -0.05720583721995353699, 	},
		},
		{
			{0.03433952480554580688, -0.08767286688089370728, -0.00095256004715338349, 	},
			{0.07006960362195968628, 0.04601664841175079346, 0.04109208658337593079, 	},
			{0.04992201179265975952, -0.04365107044577598572, -0.01348576415330171585, 	},
		},
		{
			{0.09900324791669845581, 0.11071208119392395020, 0.07991685718297958374, 	},
			{0.04325386509299278259, -0.10886618494987487793, -0.02144122682511806488, 	},
			{0.06217921525239944458, -0.02088851481676101685, 0.04916645586490631104, 	},
		},
		{
			{0.10798874497413635254, 0.18926908075809478760, 0.20159181952476501465, 	},
			{0.17198009788990020752, 0.19351701438426971436, 0.09415698051452636719, 	},
			{0.09402751922607421875, 0.13763935863971710205, -0.12068503350019454956, 	},
		},
		{
			{0.20067392289638519287, 0.00140424410346895456, -0.23556421697139739990, 	},
			{-0.11094991862773895264, -0.17675964534282684326, 0.03363907709717750549, 	},
			{-0.13073125481605529785, 0.13389132916927337646, 0.10217791795730590820, 	},
		},
		{
			{0.01808887720108032227, -0.08931380510330200195, 0.04060277715325355530, 	},
			{0.04025906696915626526, 0.00337022729218006134, -0.07847041636705398560, 	},
			{0.02198121137917041779, 0.05270482227206230164, 0.00843089073896408081, 	},
		},
		{
			{0.04355949535965919495, 0.02514067851006984711, -0.07303992658853530884, 	},
			{0.07931792736053466797, -0.01477107312530279160, 0.17891201376914978027, 	},
			{0.11108471453189849854, 0.12694065272808074951, 0.15518300235271453857, 	},
		},
		{
			{0.10000325739383697510, 0.06396084278821945190, 0.14331650733947753906, 	},
			{0.07038538157939910889, 0.12665262818336486816, -0.06953943520784378052, 	},
			{-0.06869883090257644653, 0.07918334752321243286, -0.07273004204034805298, 	},
		},
		{
			{-0.10908581316471099854, 0.02876405604183673859, 0.16215182840824127197, 	},
			{-0.05079445242881774902, 0.02739226445555686951, 0.10646093636751174927, 	},
			{0.14722691476345062256, 0.06426239758729934692, 0.06523507088422775269, 	},
		},
		{
			{0.09035164862871170044, -0.10265970230102539062, 0.10606736689805984497, 	},
			{0.05673073604702949524, 0.09776122123003005981, -0.05068121105432510376, 	},
			{-0.04732337594032287598, 0.00616527721285820007, 0.01656606793403625488, 	},
		},
		{
			{-0.04149438813328742981, 0.04602023214101791382, -0.01246863137930631638, 	},
			{0.01930958591401576996, -0.02850069850683212280, 0.03763067349791526794, 	},
			{0.05268570408225059509, -0.04689146205782890320, -0.02889557927846908569, 	},
		},
		{
			{0.16158598661422729492, 0.11563991010189056396, -0.02720469608902931213, 	},
			{0.01364212203770875931, -0.01992000825703144073, 0.03130024299025535583, 	},
			{-0.08488897234201431274, -0.02190161496400833130, 0.05911133065819740295, 	},
		},
		{
			{0.12008337676525115967, 0.11885543912649154663, 0.01298365835100412369, 	},
			{0.15695245563983917236, 0.14430479705333709717, 0.06201392784714698792, 	},
			{-0.08338574320077896118, 0.08308943361043930054, -0.09463375806808471680, 	},
		},
		{
			{-0.02741863019764423370, -0.08532043546438217163, 0.00541583169251680374, 	},
			{0.10608407109975814819, 0.07067844271659851074, -0.06319091469049453735, 	},
			{-0.03582471981644630432, -0.04832750558853149414, 0.06151979044079780579, 	},
		},
		{
			{0.06619588285684585571, -0.08952350169420242310, 0.15922692418098449707, 	},
			{0.07634918391704559326, 0.16618333756923675537, -0.04328364878892898560, 	},
			{0.13095706701278686523, 0.06591939926147460938, -0.08341802656650543213, 	},
		},
			},

	{
		{
			{0.12745255231857299805, 0.10893032699823379517, 0.04042099416255950928, 	},
			{0.02633438818156719208, -0.13552761077880859375, 0.00845932494848966599, 	},
			{-0.01539540197700262070, -0.11929558217525482178, 0.03804066032171249390, 	},
		},
		{
			{-0.10958097875118255615, 0.06951701641082763672, -0.00906205177307128906, 	},
			{-0.04499141126871109009, -0.09150645136833190918, -0.07043414562940597534, 	},
			{0.07796940207481384277, -0.10484726727008819580, -0.11888094246387481689, 	},
		},
		{
			{-0.10370126366615295410, 0.07619875669479370117, 0.04378730803728103638, 	},
			{-0.02263176813721656799, 0.08008293062448501587, 0.08402504771947860718, 	},
			{-0.11949997395277023315, 0.08967252075672149658, -0.03735597804188728333, 	},
		},
		{
			{0.06245524436235427856, -0.07181698828935623169, -0.09829777479171752930, 	},
			{0.07477011531591415405, -0.07492864876985549927, 0.05055846646428108215, 	},
			{-0.09619211405515670776, 0.01620870828628540039, 0.09808526933193206787, 	},
		},
		{
			{-0.02065990492701530457, -0.08411760628223419189, -0.04356392845511436462, 	},
			{0.09450103342533111572, -0.07288423180580139160, -0.07936651259660720825, 	},
			{0.10277012735605239868, -0.04369740933179855347, 0.04859602078795433044, 	},
		},
		{
			{0.03541390970349311829, 0.18984942138195037842, 0.12237643450498580933, 	},
			{-0.03138576820492744446, 0.01002629008144140244, 0.03990319371223449707, 	},
			{-0.13234263658523559570, 0.10253341495990753174, 0.19608388841152191162, 	},
		},
		{
			{0.08466850966215133667, -0.00073587521910667419, -0.03592779859900474548, 	},
			{0.02522266283631324768, 0.04473793134093284607, -0.06312693655490875244, 	},
			{0.00594300497323274612, -0.07786135375499725342, -0.01709201373159885406, 	},
		},
		{
			{0.12417780607938766479, 0.01025798637419939041, 0.11713437736034393311, 	},
			{-0.02767978422343730927, 0.05766718089580535889, 0.09392666816711425781, 	},
			{-0.08906210958957672119, -0.09016485512256622314, 0.05087279900908470154, 	},
		},
		{
			{0.02155587077140808105, 0.02430417202413082123, 0.07385171204805374146, 	},
			{-0.07002967596054077148, -0.10185267776250839233, -0.12425204366445541382, 	},
			{0.02901007421314716339, 0.05328448489308357239, -0.00805923994630575180, 	},
		},
		{
			{-0.06397597491741180420, 0.05879880487918853760, -0.00045514805242419243, 	},
			{-0.09375207126140594482, -0.05352729931473731995, 0.05921793729066848755, 	},
			{-0.00357240741141140461, 0.00115360040217638016, -0.08953624963760375977, 	},
		},
		{
			{-0.01980581507086753845, -0.01010427251458168030, -0.02330297604203224182, 	},
			{0.03818823024630546570, -0.07003343850374221802, -0.04798891395330429077, 	},
			{0.10063088685274124146, 0.09618873149156570435, 0.09500683099031448364, 	},
		},
		{
			{-0.03875405341386795044, -0.02921065315604209900, -0.01199686247855424881, 	},
			{-0.08061382174491882324, -0.06870085000991821289, -0.02096732519567012787, 	},
			{-0.06375993043184280396, 0.07941498607397079468, -0.03729743137955665588, 	},
		},
		{
			{0.01146787218749523163, -0.04703014716506004333, 0.06956344842910766602, 	},
			{-0.13069485127925872803, -0.09170670807361602783, 0.02845312096178531647, 	},
			{-0.08328497409820556641, -0.09027985483407974243, 0.07840105891227722168, 	},
		},
		{
			{-0.10071639716625213623, -0.03024189919233322144, 0.08154873549938201904, 	},
			{0.01580023765563964844, -0.05703673511743545532, 0.08252063393592834473, 	},
			{-0.10664119571447372437, 0.04702762886881828308, -0.08349621295928955078, 	},
		},
		{
			{-0.02888916060328483582, 0.01727064326405525208, 0.01122064888477325439, 	},
			{0.09314467757940292358, 0.11017394810914993286, -0.10062783956527709961, 	},
			{0.03660130873322486877, 0.09929782152175903320, 0.05521355196833610535, 	},
		},
		{
			{-0.10127921402454376221, -0.09180312603712081909, 0.09124103188514709473, 	},
			{-0.10600788891315460205, 0.04864740371704101562, -0.01383745856583118439, 	},
			{-0.03694413602352142334, -0.03876340389251708984, 0.04267019778490066528, 	},
		},
			},

	{
		{
			{0.01218983717262744904, 0.08594150841236114502, 0.14659178256988525391, 	},
			{0.17978623509407043457, 0.10076999664306640625, -0.06293612718582153320, 	},
			{0.04428870603442192078, -0.00992509536445140839, -0.06187602877616882324, 	},
		},
		{
			{0.00567377218976616859, 0.02901410870254039764, -0.06529724597930908203, 	},
			{-0.06670253723859786987, -0.02335806377232074738, -0.06816006451845169067, 	},
			{-0.07259616255760192871, -0.06780432164669036865, 0.02453858777880668640, 	},
		},
		{
			{-0.07302131503820419312, 0.08985443413257598877, -0.07267721742391586304, 	},
			{0.02362558245658874512, -0.04082995653152465820, 0.07633138447999954224, 	},
			{0.04552071541547775269, -0.06983326375484466553, 0.10782970488071441650, 	},
		},
		{
			{0.03167959675192832947, -0.07331603020429611206, -0.08906386047601699829, 	},
			{-0.05888204276561737061, 0.04716119542717933655, 0.09402528405189514160, 	},
			{-0.03005080483853816986, -0.03589580208063125610, -0.10833936929702758789, 	},
		},
		{
			{-0.02806666679680347443, 0.05565958470106124878, 0.07498455047607421875, 	},
			{0.16097000241279602051, -0.01799000427126884460, -0.08696644753217697144, 	},
			{0.14550037682056427002, 0.00141885608900338411, -0.11101018637418746948, 	},
		},
		{
			{-0.12654851377010345459, -0.15481986105442047119, 0.17695836722850799561, 	},
			{-0.19175545871257781982, 0.08779716491699218750, -0.02132246829569339752, 	},
			{-0.01983177103102207184, 0.17491754889488220215, -0.00114614341873675585, 	},
		},
		{
			{-0.08163058757781982422, 0.08579134941101074219, 0.11743234843015670776, 	},
			{-0.09593740850687026978, 0.07267329841852188110, -0.03944462537765502930, 	},
			{-0.08703895658254623413, 0.00249177031219005585, 0.06035466492176055908, 	},
		},
		{
			{-0.13535574078559875488, 0.07903612405061721802, 0.10350164771080017090, 	},
			{0.03025797009468078613, 0.10082331299781799316, -0.03003694117069244385, 	},
			{0.12450170516967773438, 0.00834169890731573105, 0.03610992804169654846, 	},
		},
		{
			{0.08075625449419021606, -0.04369536787271499634, 0.01306103914976119995, 	},
			{-0.09954634308815002441, 0.12268824130296707153, -0.04181057587265968323, 	},
			{0.07202141731977462769, 0.07369884103536605835, 0.09317977726459503174, 	},
		},
		{
			{0.08854438364505767822, 0.01402860134840011597, 0.03317108005285263062, 	},
			{0.09161061793565750122, 0.01201177295297384262, -0.01233997382223606110, 	},
			{0.01901023648679256439, 0.04736956954002380371, -0.08885668963193893433, 	},
		},
		{
			{0.04076741635799407959, -0.04651113227009773254, 0.05742107704281806946, 	},
			{0.00091231660917401314, -0.05280629917979240417, 0.03069733083248138428, 	},
			{-0.03109012544155120850, 0.00691333599388599396, 0.11904596537351608276, 	},
		},
		{
			{0.05164936184883117676, -0.10194072872400283813, -0.09566217660903930664, 	},
			{-0.10880500078201293945, -0.03516006469726562500, -0.07580757141113281250, 	},
			{0.09897655248641967773, -0.09765402227640151978, -0.10184581577777862549, 	},
		},
		{
			{0.15490300953388214111, 0.09010408818721771240, 0.11145072430372238159, 	},
			{-0.04013205692172050476, 0.00194348918739706278, -0.05448034033179283142, 	},
			{-0.07661144435405731201, -0.11680559813976287842, 0.07710353285074234009, 	},
		},
		{
			{0.01507227402180433273, 0.09536379575729370117, 0.08722502738237380981, 	},
			{0.10104025900363922119, -0.01698171906173229218, 0.01489938329905271530, 	},
			{0.03405956178903579712, -0.00729047507047653198, -0.00473947077989578247, 	},
		},
		{
			{0.04773015156388282776, 0.11859153211116790771, 0.13019761443138122559, 	},
			{-0.10581415146589279175, -0.06095808371901512146, 0.02334308065474033356, 	},
			{-0.02366344258189201355, -0.03039326518774032593, 0.00508595816791057587, 	},
		},
		{
			{0.08398804813623428345, 0.05995371937751770020, -0.00846851989626884460, 	},
			{0.12571027874946594238, 0.00847414601594209671, -0.02689020335674285889, 	},
			{0.13339601457118988037, -0.06072380766272544861, 0.01772846654057502747, 	},
		},
			},

	{
		{
			{0.02893315441906452179, 0.10773851722478866577, 0.06381368637084960938, 	},
			{0.09786519408226013184, 0.10776888579130172729, 0.12354042381048202515, 	},
			{0.12625902891159057617, 0.04405770078301429749, -0.10518067330121994019, 	},
		},
		{
			{0.03546393290162086487, -0.05791815742850303650, 0.01317438203841447830, 	},
			{0.09592404961585998535, -0.02704623155295848846, 0.10232357680797576904, 	},
			{0.02091518417000770569, 0.09947361052036285400, -0.02204558439552783966, 	},
		},
		{
			{0.08926448225975036621, -0.01235106494277715683, 0.10658089071512222290, 	},
			{0.07567109167575836182, 0.11572036147117614746, 0.08455368876457214355, 	},
			{-0.02846690081059932709, -0.03722557052969932556, -0.00445847632363438606, 	},
		},
		{
			{0.01358027104288339615, 0.13168790936470031738, 0.11674271523952484131, 	},
			{-0.03048025816679000854, -0.08739780634641647339, -0.01209452562034130096, 	},
			{-0.00160225480794906616, -0.00511675188317894936, 0.05036670342087745667, 	},
		},
		{
			{0.08142348378896713257, -0.02706921286880970001, 0.13028843700885772705, 	},
			{0.12306991219520568848, 0.01509625744074583054, -0.00194127857685089111, 	},
			{-0.00631183711811900139, 0.07695520669221878052, 0.11216539144515991211, 	},
		},
		{
			{-0.07414127141237258911, -0.00464889314025640488, -0.03727060183882713318, 	},
			{-0.04393626376986503601, -0.04036341980099678040, 0.01796928048133850098, 	},
			{0.09152507781982421875, 0.03839563578367233276, 0.05261109396815299988, 	},
		},
		{
			{-0.04650944098830223083, 0.08985370397567749023, 0.04345440864562988281, 	},
			{-0.00111302791628986597, 0.02685144543647766113, 0.01814248971641063690, 	},
			{0.08173971623182296753, 0.02456350252032279968, -0.04441728442907333374, 	},
		},
		{
			{0.06912930309772491455, 0.06864713877439498901, -0.08202639222145080566, 	},
			{-0.08845210075378417969, 0.05713918432593345642, -0.08589083701372146606, 	},
			{0.00273193442262709141, -0.07812613993883132935, -0.02284736372530460358, 	},
		},
		{
			{0.03516862168908119202, 0.07881596684455871582, 0.11000584065914154053, 	},
			{0.09184875339269638062, 0.02218941785395145416, -0.09675166755914688110, 	},
			{0.07357397675514221191, 0.06352982670068740845, 0.09665772318840026855, 	},
		},
		{
			{0.01450343243777751923, -0.00672321813181042671, 0.05600887164473533630, 	},
			{0.08511059731245040894, -0.05745514482259750366, 0.02926112525165081024, 	},
			{-0.06749284267425537109, -0.11136334389448165894, -0.07704207301139831543, 	},
		},
		{
			{-0.03685405850410461426, -0.03812805563211441040, 0.11109478771686553955, 	},
			{0.11712207645177841187, 0.09604749828577041626, 0.10732758790254592896, 	},
			{0.06904798746109008789, -0.05472985282540321350, -0.04672748222947120667, 	},
		},
		{
			{0.06100953742861747742, -0.06485281884670257568, 0.05889829620718955994, 	},
			{0.01493979152292013168, 0.09966961294412612915, -0.07200764119625091553, 	},
			{-0.10187646746635437012, -0.01813098043203353882, 0.05401036515831947327, 	},
		},
		{
			{-0.05477352440357208252, 0.03754479810595512390, -0.03887533396482467651, 	},
			{-0.09282672405242919922, -0.03205289319157600403, 0.06184885650873184204, 	},
			{0.06976165622472763062, -0.10390052944421768188, 0.13469836115837097168, 	},
		},
		{
			{-0.06091939285397529602, 0.11700284481048583984, -0.11403393745422363281, 	},
			{-0.04214860498905181885, 0.08735918253660202026, -0.02046125568449497223, 	},
			{-0.06825696676969528198, 0.01798572577536106110, -0.10665372759103775024, 	},
		},
		{
			{0.03398098796606063843, 0.12025504559278488159, -0.07293210178613662720, 	},
			{-0.04219328612089157104, 0.05197250843048095703, 0.06135284155607223511, 	},
			{-0.06415676325559616089, 0.09513302147388458252, -0.07155931740999221802, 	},
		},
		{
			{0.12672248482704162598, 0.11704434454441070557, -0.02213400416076183319, 	},
			{-0.08538531512022018433, -0.00456177955493330956, 0.05686870217323303223, 	},
			{0.03199987113475799561, -0.05351648479700088501, 0.06752168387174606323, 	},
		},
			},

	{
		{
			{0.09019654244184494019, 0.00317086046561598778, 0.09647446125745773315, 	},
			{0.11116459965705871582, 0.07465799897909164429, -0.08530087023973464966, 	},
			{0.06442479789257049561, -0.01164448447525501251, -0.04621995612978935242, 	},
		},
		{
			{0.05721617490053176880, 0.09030848741531372070, 0.09239041060209274292, 	},
			{0.01532312948256731033, -0.02866795100271701813, 0.08260387182235717773, 	},
			{0.03591959923505783081, 0.03984961286187171936, 0.07902445644140243530, 	},
		},
		{
			{-0.09154964238405227661, -0.11015232652425765991, 0.06958857923746109009, 	},
			{-0.07120968401432037354, 0.08058746904134750366, 0.10378927737474441528, 	},
			{0.10117545723915100098, -0.04512115195393562317, 0.05492643266916275024, 	},
		},
		{
			{-0.11355993151664733887, -0.09287778288125991821, 0.08119786530733108521, 	},
			{0.05519185587763786316, -0.03836400061845779419, -0.05808103457093238831, 	},
			{0.09323341399431228638, 0.09272429347038269043, -0.04684944078326225281, 	},
		},
		{
			{-0.08799689263105392456, -0.01695959270000457764, 0.06798011064529418945, 	},
			{-0.03865861147642135620, 0.05030993372201919556, 0.00605610664933919907, 	},
			{0.06389051675796508789, -0.03261483460664749146, 0.05909823253750801086, 	},
		},
		{
			{-0.08179331570863723755, 0.06432118266820907593, 0.07132758200168609619, 	},
			{-0.09457147866487503052, -0.05411139503121376038, -0.00038846861571073532, 	},
			{-0.10438635945320129395, 0.06562706828117370605, 0.03254057466983795166, 	},
		},
		{
			{0.07201352715492248535, 0.07836909592151641846, 0.11093472689390182495, 	},
			{0.09712173789739608765, 0.02131414599716663361, 0.06588505953550338745, 	},
			{0.09453155845403671265, -0.11560797691345214844, 0.06069707125425338745, 	},
		},
		{
			{-0.01908583194017410278, 0.12282706797122955322, 0.06092933565378189087, 	},
			{-0.07047094404697418213, 0.09466127306222915649, -0.06945206969976425171, 	},
			{0.06653142720460891724, 0.03878705576062202454, 0.06684715300798416138, 	},
		},
		{
			{0.01318549178540706635, 0.03865551203489303589, 0.03546835109591484070, 	},
			{-0.04244934394955635071, 0.12116176635026931763, -0.08808739483356475830, 	},
			{0.10688816756010055542, -0.07637464255094528198, 0.04829417541623115540, 	},
		},
		{
			{-0.11202879995107650757, 0.01288629509508609772, 0.07266011834144592285, 	},
			{0.03557932749390602112, -0.11138762533664703369, 0.01533257309347391129, 	},
			{0.04979100450873374939, 0.11447951942682266235, 0.06987618654966354370, 	},
		},
		{
			{0.07571773976087570190, -0.01141557656228542328, -0.10938149690628051758, 	},
			{-0.03261929750442504883, 0.06775977462530136108, 0.06602843850851058960, 	},
			{0.08634287863969802856, -0.00569639727473258972, -0.02090045250952243805, 	},
		},
		{
			{-0.09228500723838806152, -0.05994920805096626282, 0.08126100152730941772, 	},
			{-0.04656471312046051025, -0.06330946832895278931, -0.06563759595155715942, 	},
			{0.02998100407421588898, -0.06697990000247955322, -0.07192166149616241455, 	},
		},
		{
			{-0.06983531266450881958, -0.01793720200657844543, -0.05325727537274360657, 	},
			{-0.02795579843223094940, 0.06555451452732086182, 0.00628413958474993706, 	},
			{-0.04013493284583091736, 0.05635419487953186035, -0.02068458870053291321, 	},
		},
		{
			{0.00749617302790284157, -0.00662779016420245171, -0.10703743249177932739, 	},
			{-0.00982728134840726852, 0.01987287774682044983, 0.05692410841584205627, 	},
			{-0.09682701528072357178, -0.02275311574339866638, 0.07403896003961563110, 	},
		},
		{
			{0.07637970149517059326, -0.01534705981612205505, -0.10229761153459548950, 	},
			{-0.09312908351421356201, 0.08213990926742553711, 0.10980575531721115112, 	},
			{0.06685460358858108521, -0.02790249511599540710, -0.11155284941196441650, 	},
		},
		{
			{0.10469584912061691284, -0.01803627423942089081, 0.04413999617099761963, 	},
			{0.03194136917591094971, 0.07876712083816528320, -0.10936301946640014648, 	},
			{-0.07722321897745132446, 0.01120096351951360703, 0.04500025883316993713, 	},
		},
			},

	{
		{
			{0.03268928080797195435, -0.06449214369058609009, -0.09725286811590194702, 	},
			{-0.07998700439929962158, 0.14406996965408325195, -0.06773230433464050293, 	},
			{0.13522937893867492676, 0.21296907961368560791, -0.04639388248324394226, 	},
		},
		{
			{-0.08190451562404632568, -0.11232353001832962036, -0.00136248813942074776, 	},
			{-0.02209135331213474274, -0.07335513830184936523, -0.08118653297424316406, 	},
			{-0.06230855360627174377, -0.03978188335895538330, -0.01690316572785377502, 	},
		},
		{
			{-0.08323872834444046021, -0.05240862816572189331, 0.07913631945848464966, 	},
			{-0.04818814992904663086, -0.01886826008558273315, 0.07408630102872848511, 	},
			{-0.08563684672117233276, 0.12441366910934448242, 0.03271014243364334106, 	},
		},
		{
			{-0.01876432634890079498, 0.16174843907356262207, 0.11574748158454895020, 	},
			{-0.07488358765840530396, 0.14338353276252746582, 0.12126556783914566040, 	},
			{-0.06392042338848114014, 0.02061054669320583344, -0.02166663482785224915, 	},
		},
		{
			{0.17102620005607604980, 0.05572536215186119080, 0.02375063672661781311, 	},
			{0.09028726071119308472, -0.03438167273998260498, 0.04370711743831634521, 	},
			{0.21048256754875183105, 0.06268569082021713257, 0.04634197056293487549, 	},
		},
		{
			{-0.07438193261623382568, -0.02447120845317840576, 0.14050470292568206787, 	},
			{-0.20439954102039337158, -0.15773726999759674072, 0.13312913477420806885, 	},
			{0.07342724502086639404, -0.06278118491172790527, 0.01207710523158311844, 	},
		},
		{
			{-0.03545180335640907288, 0.03404511511325836182, 0.09296943247318267822, 	},
			{0.04037382453680038452, 0.00159470713697373867, 0.01293056923896074295, 	},
			{0.09530705213546752930, 0.04090588167309761047, 0.06519188731908798218, 	},
		},
		{
			{-0.09325803071260452271, 0.09731873869895935059, -0.03418664634227752686, 	},
			{0.07180463522672653198, 0.07868351042270660400, 0.15642327070236206055, 	},
			{-0.10546927899122238159, 0.11753283441066741943, 0.11692982912063598633, 	},
		},
		{
			{0.09279204905033111572, 0.07358700037002563477, 0.00019789175712503493, 	},
			{0.00393544463440775871, -0.05561175197362899780, 0.01117545180022716522, 	},
			{-0.06963425129652023315, 0.01109915878623723984, 0.06582321971654891968, 	},
		},
		{
			{-0.00801858957856893539, -0.07958518713712692261, -0.10468044131994247437, 	},
			{0.12078537791967391968, -0.02562199719250202179, 0.11337669938802719116, 	},
			{0.11475180089473724365, 0.11610307544469833374, -0.03967471420764923096, 	},
		},
		{
			{0.12722353637218475342, 0.05291947722434997559, -0.09387907385826110840, 	},
			{0.06286852061748504639, 0.00649370998144149780, -0.06054546311497688293, 	},
			{-0.09512153267860412598, 0.00803907029330730438, -0.03703484311699867249, 	},
		},
		{
			{0.00223868805915117264, 0.04743667691946029663, -0.00494548724964261055, 	},
			{0.08531118929386138916, 0.01796218194067478180, 0.10150476545095443726, 	},
			{-0.00177864416036754847, -0.07051968574523925781, 0.01480474974960088730, 	},
		},
		{
			{-0.01367381401360034943, 0.02136984653770923615, 0.07799223065376281738, 	},
			{0.13020198047161102295, 0.03339092805981636047, 0.07929534465074539185, 	},
			{0.07471072673797607422, 0.08950087428092956543, -0.12686745822429656982, 	},
		},
		{
			{0.13478457927703857422, -0.07930783927440643311, -0.01291831582784652710, 	},
			{-0.02464874833822250366, 0.03829421103000640869, -0.03322439640760421753, 	},
			{-0.02338426932692527771, -0.09738403558731079102, 0.10094447433948516846, 	},
		},
		{
			{-0.06460762023925781250, -0.00200044247321784496, 0.15017905831336975098, 	},
			{0.02935685217380523682, 0.02678528986871242523, 0.11945191770792007446, 	},
			{-0.03493843227624893188, 0.05392285808920860291, 0.03758484870195388794, 	},
		},
		{
			{0.02412714622914791107, 0.00631135143339633942, -0.05110333487391471863, 	},
			{-0.06790927797555923462, 0.02899371087551116943, -0.06798861920833587646, 	},
			{0.03440011665225028992, -0.01711602695286273956, -0.03847633674740791321, 	},
		},
			},

	{
		{
			{-0.11854171752929687500, 0.07545676082372665405, -0.10263032466173171997, 	},
			{0.07265002280473709106, -0.10888824611902236938, 0.03656641021370887756, 	},
			{0.10969495028257369995, 0.01846094615757465363, 0.02657731436192989349, 	},
		},
		{
			{-0.00853326078504323959, 0.01411174889653921127, -0.06914024800062179565, 	},
			{-0.02585349231958389282, -0.04736637324094772339, -0.04169122874736785889, 	},
			{0.10041981935501098633, 0.03859142214059829712, 0.11228778213262557983, 	},
		},
		{
			{-0.04164325073361396790, 0.02409539557993412018, -0.03140536695718765259, 	},
			{-0.05793019384145736694, 0.03213033825159072876, -0.00500461179763078690, 	},
			{0.08043632656335830688, -0.06052887439727783203, 0.08935427665710449219, 	},
		},
		{
			{0.10141884535551071167, 0.08557461202144622803, -0.02099888585507869720, 	},
			{-0.08195266127586364746, 0.00758842471987009048, 0.08498288691043853760, 	},
			{-0.01873395964503288269, -0.07954368740320205688, -0.03075451031327247620, 	},
		},
		{
			{0.05680819228291511536, 0.05212181061506271362, 0.10799867659807205200, 	},
			{0.00804942753165960312, 0.06350871175527572632, -0.00781739316880702972, 	},
			{0.02014297060668468475, -0.06484871357679367065, -0.02115225791931152344, 	},
		},
		{
			{-0.07476884126663208008, 0.06797172129154205322, -0.00227030296809971333, 	},
			{-0.07383505254983901978, -0.10491471737623214722, 0.09524467587471008301, 	},
			{-0.04902237281203269958, -0.06472279876470565796, 0.01593876630067825317, 	},
		},
		{
			{-0.09336546808481216431, -0.04039386659860610962, -0.08849979937076568604, 	},
			{0.01732080429792404175, 0.07656683772802352905, 0.03559041023254394531, 	},
			{-0.02123647369444370270, -0.04165241122245788574, 0.09657976031303405762, 	},
		},
		{
			{-0.03586268424987792969, -0.06781430542469024658, -0.00152696855366230011, 	},
			{-0.03502542898058891296, 0.03464010357856750488, 0.00749904057011008263, 	},
			{0.01549429167062044144, 0.10151603817939758301, -0.10024206340312957764, 	},
		},
		{
			{-0.05163922160863876343, -0.04697722569108009338, -0.09984450042247772217, 	},
			{0.09682146459817886353, -0.09292794018983840942, -0.10190310329198837280, 	},
			{-0.09753910452127456665, 0.00201371475122869015, 0.08424598723649978638, 	},
		},
		{
			{0.04199153184890747070, -0.09650358557701110840, 0.11899635940790176392, 	},
			{0.11193675547838211060, 0.06533914059400558472, 0.09625691175460815430, 	},
			{-0.11587309837341308594, 0.10859136283397674561, -0.06608459353446960449, 	},
		},
		{
			{0.11296378821134567261, 0.03251833096146583557, -0.08290543407201766968, 	},
			{0.08637516200542449951, 0.01104244124144315720, -0.11611645668745040894, 	},
			{-0.05928660184144973755, -0.07506129145622253418, 0.07414501905441284180, 	},
		},
		{
			{-0.04634372517466545105, -0.01690388098359107971, 0.08819469064474105835, 	},
			{0.07646643370389938354, -0.06424795091152191162, -0.10830138623714447021, 	},
			{-0.07271272689104080200, 0.11340972036123275757, -0.03184738010168075562, 	},
		},
		{
			{0.03012841567397117615, 0.03220530226826667786, -0.07871454954147338867, 	},
			{-0.10119911283254623413, 0.10958300530910491943, -0.11848147958517074585, 	},
			{0.02894655987620353699, 0.08975290507078170776, -0.11475056409835815430, 	},
		},
		{
			{-0.02603716216981410980, -0.05994716659188270569, -0.02855418995022773743, 	},
			{-0.07099533081054687500, 0.05451579019427299500, -0.11581319570541381836, 	},
			{-0.04847603291273117065, 0.01601041480898857117, -0.07003477960824966431, 	},
		},
		{
			{0.04224507510662078857, 0.07124217599630355835, 0.09512122720479965210, 	},
			{-0.08662356436252593994, 0.07503287494182586670, -0.09218353778123855591, 	},
			{-0.01356931496411561966, -0.00415001390501856804, -0.11771956086158752441, 	},
		},
		{
			{-0.06321708112955093384, 0.09973789751529693604, -0.00038962357211858034, 	},
			{0.02462730742990970612, 0.00458664307370781898, 0.10496037453413009644, 	},
			{-0.09627270698547363281, -0.07641336321830749512, 0.01739265769720077515, 	},
		},
			},

	{
		{
			{-0.10294551402330398560, 0.06844837218523025513, 0.05071781948208808899, 	},
			{0.15627785027027130127, -0.01761073991656303406, -0.03249146044254302979, 	},
			{-0.06657555699348449707, -0.04430488497018814087, 0.02895619906485080719, 	},
		},
		{
			{-0.00609673978760838509, 0.05132821574807167053, -0.01908409036695957184, 	},
			{0.12091529369354248047, -0.10078651458024978638, 0.04804602265357971191, 	},
			{0.07747606933116912842, -0.10013705492019653320, -0.06939753890037536621, 	},
		},
		{
			{0.07429312914609909058, 0.07563256472349166870, 0.09059625118970870972, 	},
			{0.02273969724774360657, 0.07179448008537292480, 0.07074175775051116943, 	},
			{0.08783736079931259155, 0.05688925087451934814, -0.02463597804307937622, 	},
		},
		{
			{0.10560393333435058594, -0.02296561375260353088, -0.08597950637340545654, 	},
			{0.00726839154958724976, 0.00789843033999204636, 0.09856677055358886719, 	},
			{0.02646941877901554108, 0.11783643066883087158, 0.08127380907535552979, 	},
		},
		{
			{-0.03557796776294708252, -0.07574886083602905273, -0.03935619443655014038, 	},
			{0.05020270496606826782, 0.01393151842057704926, -0.09666383266448974609, 	},
			{-0.02049371413886547089, 0.03981124982237815857, 0.07810829579830169678, 	},
		},
		{
			{-0.02578938193619251251, 0.09250730276107788086, 0.14165191352367401123, 	},
			{0.01548899989575147629, -0.00435552885755896568, 0.15105891227722167969, 	},
			{0.23996835947036743164, 0.13755573332309722900, -0.03420132398605346680, 	},
		},
		{
			{-0.04297692701220512390, -0.08903015404939651489, 0.02909011207520961761, 	},
			{-0.11060047894716262817, 0.10146894305944442749, 0.02853589691221714020, 	},
			{-0.08349424600601196289, -0.10609290748834609985, 0.03575358539819717407, 	},
		},
		{
			{0.10787503421306610107, 0.12770423293113708496, 0.09552593529224395752, 	},
			{-0.11166204512119293213, 0.03346657007932662964, 0.04940913617610931396, 	},
			{-0.00127892231103032827, -0.08794874697923660278, 0.12639094889163970947, 	},
		},
		{
			{0.03968781232833862305, -0.11695359647274017334, 0.01503817085176706314, 	},
			{-0.05859373137354850769, 0.11688660830259323120, 0.01132242102175951004, 	},
			{-0.10797827690839767456, 0.09644752740859985352, -0.01905105449259281158, 	},
		},
		{
			{-0.08750108629465103149, 0.05166903883218765259, 0.03774261474609375000, 	},
			{0.08601403236389160156, 0.12265793234109878540, -0.11729743331670761108, 	},
			{0.02779021114110946655, 0.08715318888425827026, -0.02660365775227546692, 	},
		},
		{
			{0.00094352435553446412, 0.10987009108066558838, -0.00369185535237193108, 	},
			{-0.01282828301191329956, 0.04965113848447799683, -0.11920852214097976685, 	},
			{0.01511602848768234253, 0.01422009430825710297, 0.03419947996735572815, 	},
		},
		{
			{0.11498581618070602417, -0.05812221392989158630, 0.13093119859695434570, 	},
			{-0.05306704714894294739, 0.10529089719057083130, 0.14439111948013305664, 	},
			{-0.07116214185953140259, 0.11322641372680664062, 0.00303688924759626389, 	},
		},
		{
			{-0.01210639718919992447, -0.04239436239004135132, 0.02629711106419563293, 	},
			{-0.01390879694372415543, 0.07355447858572006226, -0.04825361818075180054, 	},
			{0.01018968038260936737, 0.01859127171337604523, 0.02115072309970855713, 	},
		},
		{
			{-0.01621275767683982849, -0.07763690501451492310, -0.04448966681957244873, 	},
			{0.02078805491328239441, 0.07703200727701187134, 0.10659361630678176880, 	},
			{-0.03261545673012733459, 0.10470059514045715332, 0.04456762596964836121, 	},
		},
		{
			{0.10883892327547073364, -0.00210249377414584160, 0.09770497679710388184, 	},
			{0.12752705812454223633, 0.13034769892692565918, -0.04438984766602516174, 	},
			{0.00181724003050476313, -0.09853465855121612549, -0.02569729276001453400, 	},
		},
		{
			{0.04277026280760765076, -0.01727822981774806976, 0.00682594440877437592, 	},
			{-0.06616745889186859131, -0.05920691788196563721, 0.02478333376348018646, 	},
			{0.08296798914670944214, -0.01145355124026536942, -0.05569712072610855103, 	},
		},
			},

	{
		{
			{0.11286004632711410522, 0.01635343208909034729, 0.02056934311985969543, 	},
			{0.13655956089496612549, 0.13408531248569488525, -0.09273611009120941162, 	},
			{0.06326940655708312988, 0.05019151791930198669, -0.04360166192054748535, 	},
		},
		{
			{-0.08307454735040664673, -0.01870189048349857330, -0.09248949587345123291, 	},
			{0.10926885157823562622, 0.02153166383504867554, -0.09481102228164672852, 	},
			{-0.06897823512554168701, 0.04376250877976417542, -0.03423651307821273804, 	},
		},
		{
			{-0.01266249362379312515, 0.03653046488761901855, -0.05834440141916275024, 	},
			{-0.04345395416021347046, -0.00491100409999489784, -0.05983490869402885437, 	},
			{0.05047560483217239380, 0.05480400472879409790, 0.03333365544676780701, 	},
		},
		{
			{0.09797181934118270874, -0.01504651363939046860, 0.04587310925126075745, 	},
			{0.08111965656280517578, 0.09278441965579986572, -0.07885294407606124878, 	},
			{-0.10296677052974700928, 0.02595132775604724884, -0.05144388228654861450, 	},
		},
		{
			{0.12568745017051696777, 0.12331644445657730103, -0.04038904607295989990, 	},
			{0.13214758038520812988, 0.16307105123996734619, -0.05623784288763999939, 	},
			{0.10052569210529327393, 0.00373463472351431847, 0.04748614132404327393, 	},
		},
		{
			{0.01577554270625114441, -0.21676944196224212646, 0.00830377638339996338, 	},
			{-0.03127741068601608276, -0.09663996845483779907, 0.16747535765171051025, 	},
			{0.09804984927177429199, -0.05727341398596763611, 0.00395831046625971794, 	},
		},
		{
			{0.01046884711831808090, -0.00698848767206072807, 0.08184359967708587646, 	},
			{0.08054050058126449585, 0.01218658126890659332, -0.03259144350886344910, 	},
			{-0.06322100758552551270, -0.05918809399008750916, 0.11223673075437545776, 	},
		},
		{
			{-0.09630028903484344482, 0.10482336580753326416, 0.10960781574249267578, 	},
			{-0.07339493930339813232, 0.10366318374872207642, -0.04490125179290771484, 	},
			{0.05742034688591957092, 0.05188961327075958252, 0.13332815468311309814, 	},
		},
		{
			{0.00627490039914846420, 0.11414811015129089355, 0.07916089892387390137, 	},
			{-0.06479300558567047119, -0.06613168120384216309, 0.07203287631273269653, 	},
			{0.04196949303150177002, -0.02672665566205978394, 0.01857913285493850708, 	},
		},
		{
			{0.03533967956900596619, -0.03908492252230644226, 0.01844147406518459320, 	},
			{0.06615135073661804199, -0.01481997407972812653, 0.06809017062187194824, 	},
			{-0.00164694106206297874, 0.09157268702983856201, -0.08871949464082717896, 	},
		},
		{
			{0.01672139950096607208, -0.00144767807796597481, 0.01502418052405118942, 	},
			{0.09478182345628738403, -0.07587829232215881348, -0.11944795399904251099, 	},
			{-0.08750911056995391846, -0.03731416538357734680, -0.06028478592634201050, 	},
		},
		{
			{0.01526914630085229874, -0.10093403607606887817, -0.07484010607004165649, 	},
			{0.06175458058714866638, -0.05713960900902748108, -0.03263506293296813965, 	},
			{-0.05674221739172935486, 0.03518363833427429199, 0.03772797808051109314, 	},
		},
		{
			{0.01019245199859142303, -0.01226453203707933426, -0.06119910255074501038, 	},
			{-0.05517624318599700928, -0.07170309871435165405, -0.09039694070816040039, 	},
			{0.06334455311298370361, 0.07875035703182220459, -0.02717575617134571075, 	},
		},
		{
			{0.03799376264214515686, 0.07684966921806335449, 0.08199735730886459351, 	},
			{0.04667026177048683167, -0.00126656005159020424, -0.03615951538085937500, 	},
			{-0.09551839530467987061, -0.03725455328822135925, 0.00592332473024725914, 	},
		},
		{
			{-0.06758455187082290649, 0.10885716229677200317, -0.03135246038436889648, 	},
			{0.04418674856424331665, 0.08433686196804046631, 0.07647798210382461548, 	},
			{-0.06700160354375839233, -0.05356794595718383789, 0.10888432711362838745, 	},
		},
		{
			{0.04325084760785102844, 0.14458163082599639893, -0.01451002247631549835, 	},
			{0.07472305744886398315, -0.01121669821441173553, 0.10524477809667587280, 	},
			{0.08121420443058013916, 0.13410069048404693604, -0.02041785232722759247, 	},
		},
			},

	{
		{
			{0.18682917952537536621, 0.12090825289487838745, 0.15206472575664520264, 	},
			{0.09099729359149932861, 0.09080881625413894653, 0.13094192743301391602, 	},
			{-0.06452447921037673950, 0.09433062374591827393, -0.07567600905895233154, 	},
		},
		{
			{0.12915943562984466553, -0.04667171463370323181, 0.05754828825592994690, 	},
			{0.02393634803593158722, 0.11231735348701477051, 0.00887376815080642700, 	},
			{-0.00852074287831783295, 0.03834116086363792419, -0.00031078251777216792, 	},
		},
		{
			{0.10367136448621749878, -0.05977513268589973450, -0.07111057639122009277, 	},
			{-0.09634478390216827393, 0.00206476193852722645, -0.04772973805665969849, 	},
			{0.10457213968038558960, 0.09828919172286987305, -0.06849709898233413696, 	},
		},
		{
			{-0.11828326433897018433, -0.10151138156652450562, -0.03025517985224723816, 	},
			{-0.08261713385581970215, 0.02561138756573200226, -0.05828906595706939697, 	},
			{-0.00180385494604706764, -0.02375634200870990753, 0.08397550880908966064, 	},
		},
		{
			{-0.00955494679510593414, 0.08735430985689163208, 0.07741355150938034058, 	},
			{0.07878452539443969727, 0.05951965227723121643, -0.00925988238304853439, 	},
			{-0.08148225396871566772, -0.01940579898655414581, 0.02044563181698322296, 	},
		},
		{
			{-0.15685023367404937744, -0.22892850637435913086, -0.12261184304952621460, 	},
			{0.14406810700893402100, 0.05176147446036338806, 0.01617277599871158600, 	},
			{0.11853067576885223389, 0.17780944705009460449, 0.06805225461721420288, 	},
		},
		{
			{-0.10299560427665710449, -0.00309591088443994522, 0.05758201330900192261, 	},
			{0.07236213237047195435, 0.03606949374079704285, -0.04693669453263282776, 	},
			{0.04721633717417716980, 0.08862868696451187134, -0.06818006187677383423, 	},
		},
		{
			{-0.10194795578718185425, 0.05563670769333839417, -0.00654446799308061600, 	},
			{0.13096728920936584473, -0.05026357620954513550, -0.08254409581422805786, 	},
			{0.03068858943879604340, -0.02186058089137077332, 0.08758331090211868286, 	},
		},
		{
			{-0.03598589450120925903, 0.12464437633752822876, 0.10343562066555023193, 	},
			{-0.10737960040569305420, 0.06456316262483596802, 0.13151144981384277344, 	},
			{0.00632764399051666260, -0.07675439119338989258, -0.08934631943702697754, 	},
		},
		{
			{0.15700970590114593506, -0.05744400992989540100, -0.04697323590517044067, 	},
			{0.09678602218627929688, 0.14646989107131958008, 0.04793786257505416870, 	},
			{-0.01143569964915513992, -0.07494015246629714966, 0.11144576221704483032, 	},
		},
		{
			{-0.03564985841512680054, -0.08816264569759368896, 0.06700451672077178955, 	},
			{0.08455683290958404541, 0.10747754573822021484, 0.04522852599620819092, 	},
			{-0.01102226413786411285, 0.11506624519824981689, 0.01387217082083225250, 	},
		},
		{
			{-0.03857743367552757263, 0.06114334613084793091, -0.03171648830175399780, 	},
			{0.05378003790974617004, -0.06629978865385055542, -0.10847387462854385376, 	},
			{0.09936132282018661499, -0.11464533954858779907, 0.04492696374654769897, 	},
		},
		{
			{-0.04851479828357696533, -0.05952018499374389648, -0.07515055686235427856, 	},
			{-0.11178638041019439697, -0.01390724908560514450, -0.05715013667941093445, 	},
			{-0.08742054551839828491, -0.06103188917040824890, 0.04787740111351013184, 	},
		},
		{
			{-0.06942278146743774414, -0.07907506823539733887, -0.05680650845170021057, 	},
			{-0.00693720206618309021, 0.03440139815211296082, -0.04119433090090751648, 	},
			{-0.11149352043867111206, 0.08477661758661270142, 0.10155493766069412231, 	},
		},
		{
			{-0.11336755752563476562, 0.01686499454081058502, -0.01123783830553293228, 	},
			{-0.04426410049200057983, -0.00884342752397060394, -0.07830361276865005493, 	},
			{-0.05565434321761131287, -0.01844174787402153015, -0.02066183835268020630, 	},
		},
		{
			{-0.07738062739372253418, 0.00196920079179108143, -0.02292943187057971954, 	},
			{0.11453579366207122803, 0.10579857975244522095, -0.07181901484727859497, 	},
			{-0.11171088367700576782, -0.07157643139362335205, -0.08321227133274078369, 	},
		},
			},

	{
		{
			{-0.04887442290782928467, 0.05301147699356079102, 0.01560638006776571274, 	},
			{0.06757220625877380371, -0.08689359575510025024, -0.10252624005079269409, 	},
			{-0.11439112573862075806, -0.09303639829158782959, 0.00496430462226271629, 	},
		},
		{
			{-0.10326499491930007935, -0.09527056664228439331, -0.05975610017776489258, 	},
			{0.00304565229453146458, -0.10402113199234008789, 0.05770364403724670410, 	},
			{-0.09935875982046127319, 0.07007832080125808716, -0.07105378806591033936, 	},
		},
		{
			{0.00638803513720631599, 0.00570828281342983246, 0.08153986930847167969, 	},
			{-0.05211196467280387878, 0.11099240183830261230, 0.01338754221796989441, 	},
			{0.05567622557282447815, -0.03696129471063613892, 0.04266878217458724976, 	},
		},
		{
			{-0.02182214520871639252, -0.04144588857889175415, 0.03268785402178764343, 	},
			{-0.09747944772243499756, -0.05712176114320755005, 0.06665652990341186523, 	},
			{0.02531184256076812744, -0.01677913032472133636, 0.02550344541668891907, 	},
		},
		{
			{-0.01376216579228639603, -0.06842700392007827759, -0.00526079209521412849, 	},
			{0.01848034746944904327, 0.09105466306209564209, -0.02087333053350448608, 	},
			{-0.01833344250917434692, 0.05688632652163505554, 0.08440713584423065186, 	},
		},
		{
			{-0.01940741576254367828, -0.11929407715797424316, 0.00511956168338656425, 	},
			{0.04539464786648750305, -0.07006590068340301514, 0.13062919676303863525, 	},
			{0.04525579139590263367, -0.07710808515548706055, 0.07390427589416503906, 	},
		},
		{
			{0.03781263157725334167, -0.05073379725217819214, 0.08238491415977478027, 	},
			{-0.02281992882490158081, -0.08449204266071319580, 0.06199643015861511230, 	},
			{-0.11655501276254653931, 0.05387796089053153992, -0.07802911102771759033, 	},
		},
		{
			{-0.08149984478950500488, 0.05078149959444999695, 0.04343057796359062195, 	},
			{0.01227637566626071930, -0.08125123381614685059, 0.07210075110197067261, 	},
			{-0.05722499266266822815, -0.02686815522611141205, 0.01701205223798751831, 	},
		},
		{
			{-0.10208074748516082764, 0.11208244413137435913, 0.10659978538751602173, 	},
			{0.11199460923671722412, -0.01064707990735769272, -0.10110659152269363403, 	},
			{0.10930933058261871338, 0.07620946317911148071, 0.05325717851519584656, 	},
		},
		{
			{0.06341226398944854736, -0.10426808148622512817, -0.08557762950658798218, 	},
			{0.10076280683279037476, -0.00008416826312895864, -0.04173371940851211548, 	},
			{0.01972052827477455139, -0.10649924725294113159, -0.10651762038469314575, 	},
		},
		{
			{0.01995941065251827240, 0.00544178765267133713, -0.11301602423191070557, 	},
			{0.04623017832636833191, 0.00825264491140842438, 0.05769503116607666016, 	},
			{0.02617496624588966370, -0.06110531836748123169, -0.00227563548833131790, 	},
		},
		{
			{-0.03090045787394046783, 0.05859870463609695435, -0.00993026141077280045, 	},
			{0.03820927441120147705, 0.10812538862228393555, -0.04741674661636352539, 	},
			{-0.02877664938569068909, -0.09782398492097854614, -0.00458221975713968277, 	},
		},
		{
			{0.07120698690414428711, 0.00617643725126981735, 0.05139051377773284912, 	},
			{-0.01183603983372449875, 0.09867333620786666870, -0.10767559707164764404, 	},
			{0.11401946097612380981, 0.07746137678623199463, -0.00583904189988970757, 	},
		},
		{
			{0.05954724550247192383, -0.06753738969564437866, -0.04301147907972335815, 	},
			{0.04801903665065765381, -0.08615155518054962158, -0.11809516698122024536, 	},
			{-0.06837080419063568115, -0.00648119347169995308, -0.01240161806344985962, 	},
		},
		{
			{-0.07194649428129196167, -0.06171624734997749329, -0.06255070865154266357, 	},
			{-0.10323475301265716553, -0.04424068704247474670, -0.04143296927213668823, 	},
			{-0.06395808607339859009, -0.06604707986116409302, 0.07701088488101959229, 	},
		},
		{
			{0.01191178802400827408, 0.03531379252672195435, -0.06545017659664154053, 	},
			{-0.11228744685649871826, -0.01434314902871847153, -0.05731411650776863098, 	},
			{0.02870172820985317230, -0.06552737951278686523, -0.04949530586600303650, 	},
		},
			},

	{
		{
			{0.16225372254848480225, 0.16912816464900970459, 0.07436138391494750977, 	},
			{0.13120417296886444092, 0.08647708594799041748, 0.04127950593829154968, 	},
			{0.04943181946873664856, -0.06840216368436813354, 0.05655128136277198792, 	},
		},
		{
			{-0.04126274213194847107, 0.00945569202303886414, -0.01532120630145072937, 	},
			{0.10286740213632583618, -0.05780871585011482239, -0.00938215944916009903, 	},
			{0.06562132388353347778, -0.06924616545438766479, -0.01318868435919284821, 	},
		},
		{
			{-0.03871802985668182373, -0.03331281244754791260, -0.08617787063121795654, 	},
			{-0.05233170464634895325, 0.05989118665456771851, 0.08895356953144073486, 	},
			{-0.03885778412222862244, -0.09251812845468521118, -0.04525765404105186462, 	},
		},
		{
			{-0.00184143066871911287, -0.00318157067522406578, -0.05690315738320350647, 	},
			{-0.01339037809520959854, 0.04684542119503021240, 0.00571290636435151100, 	},
			{0.09288854897022247314, -0.01829946786165237427, -0.11009798943996429443, 	},
		},
		{
			{0.15168510377407073975, 0.08835856616497039795, 0.10926534235477447510, 	},
			{-0.02124315127730369568, -0.09569580852985382080, 0.00163512793369591236, 	},
			{-0.07796598225831985474, -0.12526120245456695557, -0.11305594444274902344, 	},
		},
		{
			{-0.11845377087593078613, 0.04370928555727005005, -0.10008320957422256470, 	},
			{0.11198910325765609741, 0.03276913240551948547, 0.16513836383819580078, 	},
			{0.21110902726650238037, 0.19092901051044464111, 0.07920590043067932129, 	},
		},
		{
			{0.11798980087041854858, 0.07364385575056076050, 0.02922616153955459595, 	},
			{-0.05088714882731437683, 0.04374914616346359253, -0.01262968126684427261, 	},
			{0.05815987661480903625, 0.03975465148687362671, 0.11525347828865051270, 	},
		},
		{
			{-0.04045303538441658020, -0.01072694361209869385, -0.00024211143318098038, 	},
			{-0.00571595178917050362, -0.06789095699787139893, 0.09688946604728698730, 	},
			{0.10846138000488281250, 0.08384514600038528442, 0.14337873458862304688, 	},
		},
		{
			{0.02336335182189941406, 0.09209188073873519897, 0.03378031402826309204, 	},
			{-0.06989300251007080078, -0.00559601280838251114, -0.03851263225078582764, 	},
			{0.07057239860296249390, -0.00883161835372447968, -0.02176029607653617859, 	},
		},
		{
			{-0.08427850902080535889, 0.16395017504692077637, 0.09724468737840652466, 	},
			{-0.03377318009734153748, -0.02344135567545890808, -0.01873827539384365082, 	},
			{0.01110304705798625946, 0.05476103350520133972, -0.11006353795528411865, 	},
		},
		{
			{0.08587412536144256592, -0.00483632460236549377, 0.11710856109857559204, 	},
			{0.10830990970134735107, 0.04921893030405044556, 0.04878661409020423889, 	},
			{0.05662960559129714966, 0.03630288317799568176, -0.05651313439011573792, 	},
		},
		{
			{-0.01852469332516193390, -0.07697154581546783447, -0.09033669531345367432, 	},
			{-0.11617526412010192871, -0.05144068598747253418, -0.08675569295883178711, 	},
			{-0.07337921857833862305, 0.01268505677580833435, 0.05274585261940956116, 	},
		},
		{
			{-0.10968071967363357544, -0.01710250787436962128, -0.04178225994110107422, 	},
			{-0.13071514666080474854, -0.10982843488454818726, -0.10364099591970443726, 	},
			{-0.06979535520076751709, 0.01526721473783254623, -0.09923313558101654053, 	},
		},
		{
			{0.11783296614885330200, -0.10659045726060867310, -0.01880453154444694519, 	},
			{0.03673457354307174683, 0.00051792379235848784, -0.08862712234258651733, 	},
			{0.00874820817261934280, 0.00681966962292790413, 0.08736722171306610107, 	},
		},
		{
			{0.09747150540351867676, 0.08343411982059478760, -0.06279451400041580200, 	},
			{0.04027143865823745728, -0.05134899169206619263, -0.05190453678369522095, 	},
			{-0.04497418552637100220, -0.04093416780233383179, 0.09259510040283203125, 	},
		},
		{
			{0.12057106196880340576, -0.07760453224182128906, 0.08133427053689956665, 	},
			{-0.00628554075956344604, 0.09427714347839355469, -0.05966410413384437561, 	},
			{0.10403737425804138184, -0.03019921667873859406, -0.07078395783901214600, 	},
		},
			},

	{
		{
			{0.11816179007291793823, 0.09582537412643432617, 0.03028925321996212006, 	},
			{-0.04401627182960510254, 0.11168518662452697754, 0.05893737822771072388, 	},
			{0.00331435003317892551, -0.12258259952068328857, -0.00640376890078186989, 	},
		},
		{
			{-0.09636935591697692871, -0.02367963641881942749, -0.11016030609607696533, 	},
			{-0.10577651858329772949, 0.01096943486481904984, 0.01426267996430397034, 	},
			{-0.09755200147628784180, -0.00475221173837780952, 0.00742474943399429321, 	},
		},
		{
			{0.07225006073713302612, 0.10717231780290603638, 0.02246714942157268524, 	},
			{0.12006438523530960083, 0.07350855320692062378, -0.05311998724937438965, 	},
			{-0.07308517396450042725, -0.00775404926389455795, 0.00175160774961113930, 	},
		},
		{
			{-0.07917398214340209961, 0.11512751877307891846, 0.00069178506964817643, 	},
			{0.08315760642290115356, -0.09380078315734863281, -0.08272053301334381104, 	},
			{0.09944170713424682617, 0.09751472622156143188, 0.04208756238222122192, 	},
		},
		{
			{-0.01523375138640403748, 0.11107823997735977173, 0.03315634652972221375, 	},
			{0.06246919557452201843, 0.01058179046958684921, 0.09399180114269256592, 	},
			{0.00334402173757553101, -0.01343626901507377625, 0.04052510485053062439, 	},
		},
		{
			{-0.16729755699634552002, 0.11764466762542724609, -0.02539650909602642059, 	},
			{-0.15599672496318817139, 0.10521716624498367310, 0.08559718728065490723, 	},
			{-0.06164072453975677490, -0.05104474723339080811, 0.10708013176918029785, 	},
		},
		{
			{0.07207409292459487915, 0.04595114290714263916, -0.03654218092560768127, 	},
			{-0.02891078032553195953, -0.06177529320120811462, -0.07480198889970779419, 	},
			{-0.00686020217835903168, -0.01976657845079898834, -0.01270713657140731812, 	},
		},
		{
			{-0.07730875909328460693, 0.10740485787391662598, 0.09340874105691909790, 	},
			{-0.02180575765669345856, 0.14496994018554687500, -0.10374219715595245361, 	},
			{-0.09039865434169769287, 0.11868403106927871704, -0.09793109446763992310, 	},
		},
		{
			{-0.06427045911550521851, 0.10001596808433532715, -0.01915037073194980621, 	},
			{0.13455237448215484619, 0.08985368162393569946, 0.04043905809521675110, 	},
			{-0.07598562538623809814, 0.07976344972848892212, 0.09357111155986785889, 	},
		},
		{
			{0.11966743320226669312, 0.00633725430816411972, 0.08748799562454223633, 	},
			{-0.02813532575964927673, -0.00203454797156155109, 0.08869856595993041992, 	},
			{0.07052239775657653809, -0.12226464599370956421, -0.08565817028284072876, 	},
		},
		{
			{-0.06781474500894546509, -0.05810156837105751038, -0.09691619127988815308, 	},
			{-0.00643376028165221214, -0.01091967709362506866, 0.07170933485031127930, 	},
			{-0.05930246785283088684, 0.02501900866627693176, -0.00337167223915457726, 	},
		},
		{
			{0.07028315216302871704, 0.07271073013544082642, 0.01406659279018640518, 	},
			{-0.07833294570446014404, 0.02264618687331676483, -0.00157868163660168648, 	},
			{0.04871595650911331177, -0.09101175516843795776, -0.05557314306497573853, 	},
		},
		{
			{-0.09571294486522674561, 0.01764349639415740967, -0.04347187280654907227, 	},
			{0.07240573316812515259, 0.04580070078372955322, 0.04218922182917594910, 	},
			{-0.02559061162173748016, 0.02140738256275653839, -0.00233103195205330849, 	},
		},
		{
			{-0.02591179311275482178, -0.08620952814817428589, 0.01988181844353675842, 	},
			{-0.07046970725059509277, 0.05412996187806129456, 0.03887894004583358765, 	},
			{-0.06765685230493545532, 0.08248774707317352295, 0.06591891497373580933, 	},
		},
		{
			{0.04934967309236526489, 0.09938182681798934937, -0.00372135965153574944, 	},
			{-0.04204976931214332581, 0.05208897218108177185, -0.07928020507097244263, 	},
			{0.09060459583997726440, -0.06861459463834762573, 0.07124664634466171265, 	},
		},
		{
			{-0.06893061101436614990, -0.04623237997293472290, -0.00092285213759168983, 	},
			{-0.02438756823539733887, 0.07302321493625640869, -0.11777959018945693970, 	},
			{-0.05596074089407920837, 0.00393000151962041855, -0.06886872649192810059, 	},
		},
			},

	{
		{
			{0.08613511174917221069, -0.05372303351759910583, 0.09447680413722991943, 	},
			{0.01342700049281120300, -0.04374158382415771484, 0.11220517009496688843, 	},
			{0.03690149262547492981, 0.04035098105669021606, 0.05217887088656425476, 	},
		},
		{
			{-0.02775271423161029816, 0.00181022530887275934, 0.09793125092983245850, 	},
			{-0.10210969299077987671, -0.07758957892656326294, 0.00985187944024801254, 	},
			{0.10369746387004852295, -0.03010069765150547028, 0.00165360281243920326, 	},
		},
		{
			{0.04624025523662567139, -0.05636766180396080017, -0.08773661404848098755, 	},
			{0.06961747258901596069, -0.01414227206259965897, -0.06815746426582336426, 	},
			{0.11160051077604293823, 0.08599404990673065186, -0.11116601526737213135, 	},
		},
		{
			{0.06271260976791381836, -0.01246565300971269608, -0.05481376126408576965, 	},
			{0.00085961574222892523, -0.11065614223480224609, 0.03305836021900177002, 	},
			{-0.10437191277742385864, -0.03978614881634712219, -0.02870169840753078461, 	},
		},
		{
			{0.04175357893109321594, 0.12288409471511840820, 0.01311898604035377502, 	},
			{0.11285254359245300293, 0.06917818635702133179, -0.03664367645978927612, 	},
			{0.00749510060995817184, -0.09124239534139633179, 0.12308015674352645874, 	},
		},
		{
			{-0.07928038388490676880, -0.10448182374238967896, -0.03232470527291297913, 	},
			{-0.01101272273808717728, 0.08345130831003189087, 0.09532506018877029419, 	},
			{0.16776721179485321045, 0.12938751280307769775, -0.06343457847833633423, 	},
		},
		{
			{-0.02966653369367122650, -0.10065891593694686890, 0.00632332358509302139, 	},
			{-0.00960171129554510117, 0.00654962053522467613, 0.09778939187526702881, 	},
			{-0.06050798669457435608, -0.10677403211593627930, -0.11381518095731735229, 	},
		},
		{
			{-0.12188744544982910156, -0.09990254789590835571, 0.03836296498775482178, 	},
			{-0.08261024951934814453, -0.10158888995647430420, 0.03216321766376495361, 	},
			{0.03858040273189544678, 0.12937574088573455811, -0.01801881380379199982, 	},
		},
		{
			{0.01139475312083959579, 0.04811222851276397705, -0.01998735405504703522, 	},
			{-0.05923319607973098755, -0.01116500236093997955, -0.04449929669499397278, 	},
			{-0.00591603619977831841, -0.10196819901466369629, -0.00019417350995354354, 	},
		},
		{
