#ifndef _CONV1_WEIGHTS_BIAS_H_
#define _CONV1_WEIGHTS_BIAS_H_

#include "process_element.h"

data_t L1_Kernel[L1_Kernel_number][L1_Kernel_channel][L1_Kernel_size][L1_Kernel_size] = {
	{
		{
			{-0.04551676288247108459, -0.01535977981984615326, -0.10924296826124191284, 	},
			{0.00054554390953853726, -0.13080751895904541016, 0.16638597846031188965, 	},
			{-0.17527452111244201660, 0.06863439828157424927, 0.02424151636660099030, 	},
		},
			},

	{
		{
			{-0.00781747139990329742, -0.17583350837230682373, -0.00082727638073265553, 	},
			{-0.02751071006059646606, -0.00952333398163318634, 0.16713875532150268555, 	},
			{0.04743570461869239807, -0.08387575298547744751, -0.17156167328357696533, 	},
		},
			},

	{
		{
			{0.00000034872971355071, -0.12600271403789520264, -0.05749947577714920044, 	},
			{-0.07403290271759033203, -0.03169745579361915588, 0.11584856361150741577, 	},
			{-0.12572056055068969727, -0.15359708666801452637, 0.01700905896723270416, 	},
		},
			},

	{
		{
			{-0.01413410995155572891, -0.19029320776462554932, -0.02269304729998111725, 	},
			{-0.03335212916135787964, -0.00342669314704835415, -0.17562173306941986084, 	},
			{0.17365805804729461670, -0.10866798460483551025, 0.14226673543453216553, 	},
		},
			},

	{
		{
			{0.09593962132930755615, 0.13928592205047607422, 0.18477413058280944824, 	},
			{0.01657875999808311462, -0.02062023431062698364, -0.14233796298503875732, 	},
			{-0.16963891685009002686, -0.12487042695283889771, 0.05931397899985313416, 	},
		},
			},

	{
		{
			{-0.11442033946514129639, -0.03172974288463592529, 0.10508216917514801025, 	},
			{0.16764752566814422607, 0.12314172089099884033, 0.10020048916339874268, 	},
			{-0.10852558165788650513, -0.13473974168300628662, 0.05144448578357696533, 	},
		},
			},

	{
		{
			{0.03114605508744716644, 0.05578527227044105530, 0.14635425806045532227, 	},
			{0.11668043583631515503, 0.10396771878004074097, -0.00288560241460800171, 	},
			{-0.03733045607805252075, 0.09915535151958465576, 0.04125852882862091064, 	},
		},
			},

	{
		{
			{-0.01168922893702983856, -0.16768732666969299316, 0.10803236067295074463, 	},
			{-0.09625698626041412354, -0.00566197838634252548, -0.14933288097381591797, 	},
			{-0.19567975401878356934, -0.11329232901334762573, -0.08976387977600097656, 	},
		},
			},

	{
		{
			{-0.10492824763059616089, -0.00000112674865704321, -0.18329426646232604980, 	},
			{0.10603046417236328125, 0.07689539343118667603, 0.01331467088311910629, 	},
			{0.00292506651021540165, 0.05897072330117225647, -0.16519126296043395996, 	},
		},
			},

	{
		{
			{-0.10665467381477355957, -0.07438313215970993042, 0.09219878911972045898, 	},
			{-0.17099468410015106201, 0.09884546697139739990, 0.12756219506263732910, 	},
			{-0.04342244938015937805, -0.10669591277837753296, 0.03121677972376346588, 	},
		},
			},

	{
		{
			{-0.08304955065250396729, -0.09489019960165023804, 0.11313752084970474243, 	},
			{-0.17602257430553436279, -0.05838500335812568665, -0.12611882388591766357, 	},
			{0.06135432794690132141, -0.11236975342035293579, -0.00462234532460570335, 	},
		},
			},

	{
		{
			{-0.16690707206726074219, -0.06996100395917892456, -0.00618288386613130569, 	},
			{-0.07178428769111633301, 0.16309265792369842529, -0.06206222623586654663, 	},
			{-0.15069906413555145264, 0.02533628791570663452, 0.09687764942646026611, 	},
		},
			},

	{
		{
			{-0.00495553249493241310, -0.03615518659353256226, -0.13177847862243652344, 	},
			{-0.06104499101638793945, 0.13669691979885101318, 0.00814912933856248856, 	},
			{0.05813668295741081238, -0.13812333345413208008, -0.12110828608274459839, 	},
		},
			},

	{
		{
			{0.02674029022455215454, 0.08656091243028640747, -0.09441313892602920532, 	},
			{0.00662077497690916061, 0.10183311253786087036, 0.05360643565654754639, 	},
			{0.10427971929311752319, 0.11358008533716201782, -0.17121364176273345947, 	},
		},
			},

	{
		{
			{-0.00374581990763545036, 0.14398348331451416016, 0.06904654949903488159, 	},
			{-0.09937357157468795776, 0.14926302433013916016, -0.08823800832033157349, 	},
			{-0.03130781278014183044, -0.05777730420231819153, 0.19424784183502197266, 	},
		},
			},

	{
		{
			{0.01535059977322816849, -0.00303595280274748802, -0.00718062650412321091, 	},
			{-0.03404365107417106628, 0.11117729544639587402, 0.15791018307209014893, 	},
			{-0.16670781373977661133, -0.17148423194885253906, -0.01581410877406597137, 	},
		},
			},




};
data_t L1_bias[L1_bias_number] = { -0.00006779102113796398, -0.00001606893965799827, -0.00009532510011922568, -0.00010790706437546760, -0.00005577431875281036, -0.00006963196938158944, 0.00004607979644788429, -0.00011119024566141888, 0.00009575010335538536, 0.00006554847641382366, 0.00004119978984817863, -0.00012700881052296609, -0.00016496444004587829, -0.00002932075403805356, 0.00011067719606216997, -0.00005551058711716905, };


#endif
