#ifndef _CONV1_WEIGHTS_BIAS_H_
#define _CONV1_WEIGHTS_BIAS_H_

#include "process_element.h"

data_t L1_Kernel[L1_Kernel_number][L1_Kernel_channel][L1_Kernel_size][L1_Kernel_size] = {
	{
		{
			{-0.24081037938594818115, -0.28053629398345947266, -0.36155217885971069336, 	},
			{-0.12594720721244812012, -0.20120015740394592285, -0.01244259718805551529, 	},
			{0.21212133765220642090, 0.36589536070823669434, 0.32577651739120483398, 	},
		},
			},

	{
		{
			{-0.11571466922760009766, -0.14995838701725006104, 0.05951554700732231140, 	},
			{0.08720442652702331543, -0.04059008881449699402, -0.17948488891124725342, 	},
			{0.02910966612398624420, 0.15488940477371215820, -0.12935504317283630371, 	},
		},
			},

	{
		{
			{-0.17348670959472656250, 0.00999221485108137131, 0.01725913956761360168, 	},
			{0.13926768302917480469, 0.18332438170909881592, 0.06116299703717231750, 	},
			{-0.06701315939426422119, 0.07217158377170562744, 0.01929508522152900696, 	},
		},
			},

	{
		{
			{0.05115660652518272400, 0.14863766729831695557, -0.02062994614243507385, 	},
			{-0.14897361397743225098, 0.06467635184526443481, 0.24258501827716827393, 	},
			{-0.21493797004222869873, -0.07572924345731735229, -0.09332473576068878174, 	},
		},
			},

	{
		{
			{0.10113237798213958740, -0.25688892602920532227, -0.37801584601402282715, 	},
			{-0.08656714111566543579, -0.37802296876907348633, 0.16376543045043945312, 	},
			{0.21175217628479003906, 0.03249623253941535950, 0.14247235655784606934, 	},
		},
			},

	{
		{
			{0.55195462703704833984, 0.48651811480522155762, 0.47492220997810363770, 	},
			{0.62025088071823120117, 0.41796728968620300293, 0.24917109310626983643, 	},
			{0.59090465307235717773, 0.48516079783439636230, 0.36080959439277648926, 	},
		},
			},

	{
		{
			{-0.19185663759708404541, 0.01281126216053962708, -0.15757778286933898926, 	},
			{-0.18587452173233032227, 0.19614484906196594238, -0.02087520435452461243, 	},
			{-0.12379135936498641968, -0.19214659929275512695, -0.16724438965320587158, 	},
		},
			},

	{
		{
			{-0.23608598113059997559, -0.02264871634542942047, 0.24778153002262115479, 	},
			{0.08396964520215988159, 0.32936462759971618652, 0.32928949594497680664, 	},
			{-0.03713430091738700867, 0.15275880694389343262, 0.20143458247184753418, 	},
		},
			},

	{
		{
			{-0.04629166051745414734, -0.15071721374988555908, 0.25452670454978942871, 	},
			{-0.20818385481834411621, -0.07114309072494506836, -0.07527858763933181763, 	},
			{0.12345622479915618896, 0.09669017791748046875, -0.06777466833591461182, 	},
		},
			},

	{
		{
			{-0.18897524476051330566, -0.18463741242885589600, 0.02547482401132583618, 	},
			{-0.21719649434089660645, -0.08135972917079925537, -0.10698174685239791870, 	},
			{0.33331495523452758789, 0.23749241232872009277, 0.06494940072298049927, 	},
		},
			},

	{
		{
			{-0.11677848547697067261, -0.11682765185832977295, -0.01769235543906688690, 	},
			{0.18091882765293121338, -0.15080702304840087891, -0.01577512919902801514, 	},
			{0.06612484902143478394, -0.05030313879251480103, -0.19292828440666198730, 	},
		},
			},

	{
		{
			{0.12902903556823730469, 0.14312885701656341553, 0.02796860784292221069, 	},
			{0.10899359732866287231, 0.13011102378368377686, 0.08932290226221084595, 	},
			{-0.13912215828895568848, 0.03059340827167034149, -0.30693027377128601074, 	},
		},
			},

	{
		{
			{0.10630448907613754272, 0.26347890496253967285, -0.12033643573522567749, 	},
			{0.13881243765354156494, 0.03359974175691604614, -0.21134901046752929688, 	},
			{0.16428723931312561035, -0.13767306506633758545, -0.28388172388076782227, 	},
		},
			},

	{
		{
			{-0.01771543361246585846, 0.22921098768711090088, -0.09856320172548294067, 	},
			{0.22609958052635192871, -0.17063973844051361084, -0.10590420663356781006, 	},
			{-0.01043148711323738098, -0.23158749938011169434, 0.12358342111110687256, 	},
		},
			},

	{
		{
			{0.03500704467296600342, 0.11807411164045333862, 0.15230119228363037109, 	},
			{-0.24287849664688110352, -0.10129721462726593018, 0.01650895737111568451, 	},
			{-0.00533290300518274307, 0.04158412665128707886, 0.09923143684864044189, 	},
		},
			},

	{
		{
			{-0.16536246240139007568, -0.16955822706222534180, -0.07111057639122009277, 	},
			{-0.05355358123779296875, 0.01752504333853721619, 0.04416836425662040710, 	},
			{-0.00000111088604626275, 0.01387513242661952972, 0.29029193520545959473, 	},
		},
			},




};
data_t L1_bias[L1_bias_number] = { 0.31878426671028137207, -0.00031358678825199604, 0.00574183464050292969, 0.06949413567781448364, 0.44796580076217651367, 0.01073060836642980576, 0.03057473152875900269, 0.06846651434898376465, 0.14471693336963653564, 0.11794545501470565796, 0.08843113481998443604, 0.03123208135366439819, 0.04690639674663543701, 0.05604640021920204163, 0.08543890714645385742, 0.09376095980405807495, };


#endif
