#ifndef _DENSE6_WEIGHTS_BIAS_H_
#define _DENSE6_WEIGHTS_BIAS_H_

#include "process_element.h"

data_t L6_neure_weights[L6_neure_number][L6_input_fmap_size] = {
	{-0.08929620683193206787, 0.07100467383861541748, 0.20782074332237243652, 0.06566983461380004883, -0.01713032834231853485, -0.24760642647743225098, 0.16509866714477539062, 0.02408479526638984680, 0.06585121154785156250, -0.17348338663578033447, -0.06876224279403686523, 0.25475126504898071289, -0.03225544095039367676, 0.04564438015222549438, 0.13604281842708587646, 0.17882390320301055908, 0.09157497435808181763, 0.02201496064662933350, 0.19047689437866210938, -0.11776345968246459961, -0.26105529069900512695, -0.10302628576755523682, -0.15851120650768280029, 0.04261570051312446594, -0.05529107525944709778, 0.02849080413579940796, 0.05286325886845588684, -0.02817315049469470978, 0.06501756608486175537, 0.25205624103546142578, 0.09499213099479675293, 0.08206084370613098145, 0.26975253224372863770, 0.19179855287075042725, 0.04867628961801528931, 0.19641418755054473877, -0.06627517938613891602, 0.27040535211563110352, -0.05156187713146209717, -0.19068874418735504150, -0.10688379406929016113, -0.04933522641658782959, -0.25663167238235473633, 0.16988438367843627930, -0.22300586104393005371, 0.18530310690402984619, -0.05055493116378784180, 0.12615361809730529785, 0.00761300325393676758, -0.20732063055038452148, -0.20040659606456756592, 0.00833698734641075134, -0.02392437867820262909, 0.26434323191642761230, -0.21083664894104003906, 0.19415694475173950195, -0.23224431276321411133, -0.22710420191287994385, 0.05741430073976516724, -0.04410176724195480347, -0.23845629394054412842, 0.27466255426406860352, 0.25220683217048645020, 0.22473609447479248047, 			},
	{0.17472670972347259521, 0.24296838045120239258, -0.10941110551357269287, -0.15472774207592010498, 0.01470177620649337769, 0.19898733496665954590, 0.05122449621558189392, -0.21570354700088500977, 0.26026138663291931152, 0.02507856488227844238, 0.13461749255657196045, -0.20986609160900115967, 0.06447580456733703613, -0.05170502513647079468, 0.07501995563507080078, -0.03835098817944526672, -0.08256240189075469971, -0.13911220431327819824, 0.05651512742042541504, -0.09452807158231735229, -0.08003202825784683228, -0.18381664156913757324, 0.09905096888542175293, -0.03185630962252616882, -0.21774131059646606445, 0.02364671416580677032, 0.22700594365596771240, 0.03825308755040168762, 0.02651681378483772278, 0.03328696638345718384, 0.04871813952922821045, -0.24017800390720367432, -0.01045083254575729370, -0.17348220944404602051, -0.05874691531062126160, -0.11464281380176544189, 0.01868588477373123169, 0.21670147776603698730, 0.16161781549453735352, -0.09677173942327499390, -0.16276726126670837402, 0.01943506114184856415, -0.26305368542671203613, -0.12468405067920684814, -0.26111960411071777344, 0.25285667181015014648, -0.16378234326839447021, -0.28130844235420227051, 0.15505644679069519043, 0.23017071187496185303, 0.03735124319791793823, 0.02192683890461921692, 0.00968476757407188416, -0.12835590541362762451, 0.15371660888195037842, -0.19568382203578948975, 0.03752431645989418030, -0.16287516057491302490, -0.06866764277219772339, -0.23229514062404632568, 0.16427895426750183105, -0.16639456152915954590, -0.21316733956336975098, -0.15827834606170654297, 			},
	{-0.10598774254322052002, -0.17446362972259521484, -0.03110814280807971954, 0.03360006213188171387, 0.28104153275489807129, 0.17446662485599517822, -0.10965034365653991699, -0.16000957787036895752, 0.21067549288272857666, -0.21544608473777770996, 0.17693464457988739014, 0.08664221316576004028, -0.02742384746670722961, -0.14637714624404907227, 0.03442836552858352661, -0.12671509385108947754, -0.19678902626037597656, 0.10769136250019073486, 0.09114298224449157715, -0.21856252849102020264, -0.16410177946090698242, -0.29108139872550964355, -0.25078168511390686035, 0.10696911066770553589, -0.14410385489463806152, -0.01744821853935718536, -0.20837855339050292969, 0.06247785687446594238, -0.01996721327304840088, 0.22090134024620056152, 0.24247939884662628174, -0.19232119619846343994, -0.03926349803805351257, 0.12584704160690307617, -0.22472408413887023926, 0.18185585737228393555, 0.15048241615295410156, 0.05265048891305923462, -0.15839870274066925049, 0.03974067792296409607, -0.03343303501605987549, -0.22357340157032012939, 0.26166999340057373047, 0.15149867534637451172, 0.11940722167491912842, -0.00168176600709557533, -0.03921297192573547363, 0.07346251606941223145, -0.01622197031974792480, 0.09432962536811828613, -0.15458834171295166016, 0.23162005841732025146, 0.28060585260391235352, -0.06161126866936683655, -0.05454926565289497375, 0.08018637448549270630, 0.21449616551399230957, 0.19515724480152130127, 0.15351478755474090576, 0.02764919772744178772, -0.27307048439979553223, -0.12597721815109252930, -0.26839119195938110352, 0.01778109557926654816, 			},
	{-0.12748442590236663818, -0.26503685116767883301, 0.04656983539462089539, 0.15511158108711242676, 0.09182117134332656860, 0.15740844607353210449, 0.07261177897453308105, 0.26643976569175720215, 0.19961172342300415039, -0.28341907262802124023, 0.19019545614719390869, -0.24317520856857299805, 0.04768653213977813721, -0.05826290324330329895, 0.20436222851276397705, -0.23997288942337036133, -0.06337205320596694946, -0.19474199414253234863, -0.04475410282611846924, 0.17695626616477966309, -0.17366017401218414307, -0.22717595100402832031, 0.07439446449279785156, -0.02196389436721801758, 0.07585175335407257080, 0.02716091647744178772, 0.23196536302566528320, -0.11396566033363342285, -0.04088667780160903931, -0.06393741071224212646, 0.23968817293643951416, 0.01907818764448165894, -0.24988405406475067139, 0.21749751269817352295, -0.05463220924139022827, -0.25356397032737731934, -0.05193565040826797485, 0.07338996976613998413, 0.26628723740577697754, 0.10592268407344818115, -0.06547021120786666870, -0.17011766135692596436, -0.20690770447254180908, 0.16176506876945495605, 0.19332653284072875977, -0.03696432709693908691, 0.01168496534228324890, -0.27556020021438598633, 0.11216476559638977051, -0.07803458720445632935, 0.26426711678504943848, 0.16547380387783050537, 0.19552691280841827393, 0.14820137619972229004, -0.07798336446285247803, 0.17615170776844024658, 0.05371604487299919128, -0.01314259134232997894, 0.07942692190408706665, -0.08450011909008026123, 0.17479141056537628174, 0.06989040970802307129, 0.02893668413162231445, -0.05731345340609550476, 			},
	{-0.26430195569992065430, -0.03604567423462867737, 0.25307154655456542969, 0.09589493274688720703, 0.06268475949764251709, -0.14270916581153869629, -0.12016351521015167236, 0.13785538077354431152, -0.24487507343292236328, -0.03052773326635360718, -0.19679917395114898682, -0.12778851389884948730, 0.10218055546283721924, -0.07426679879426956177, -0.03215425461530685425, -0.09635538607835769653, 0.19871868193149566650, 0.18313570320606231689, 0.23609545826911926270, -0.26365160942077636719, 0.09633464366197586060, -0.22715021669864654541, -0.20219436287879943848, 0.22251766920089721680, -0.01833652332425117493, 0.06214824691414833069, -0.09221415221691131592, 0.11623580753803253174, -0.21681474149227142334, -0.05570955947041511536, -0.01798549480736255646, 0.20395478606224060059, -0.14654134213924407959, 0.17641805112361907959, 0.09442238509654998779, -0.14374333620071411133, -0.24051176011562347412, -0.21258790791034698486, 0.15397289395332336426, 0.14565072953701019287, -0.02885830961167812347, -0.03752873092889785767, -0.10285694897174835205, 0.08886393904685974121, 0.06373500078916549683, 0.12672844529151916504, -0.06659914553165435791, -0.20993232727050781250, 0.23042091727256774902, -0.03076970577239990234, -0.22234901785850524902, 0.01945439912378787994, -0.10997354984283447266, 0.26679351925849914551, -0.01097356341779232025, -0.26915553212165832520, 0.25681474804878234863, 0.24016498029232025146, 0.24846202135086059570, 0.27393427491188049316, 0.00489388406276702881, -0.06563927233219146729, 0.19491109251976013184, -0.09281595051288604736, 			},
	{-0.24427372217178344727, 0.17549234628677368164, 0.14142769575119018555, -0.16499440371990203857, 0.21358773112297058105, 0.15307728946208953857, -0.10123190283775329590, -0.12561106681823730469, -0.24600028991699218750, -0.18321296572685241699, 0.25385963916778564453, -0.26452583074569702148, -0.24704368412494659424, 0.23714637756347656250, -0.06863448023796081543, 0.01879355497658252716, -0.25019207596778869629, 0.26703003048896789551, -0.25497865676879882812, -0.17463439702987670898, -0.10102146118879318237, 0.16963805258274078369, 0.20658880472183227539, 0.02785884775221347809, 0.24985128641128540039, -0.24727751314640045166, -0.16377457976341247559, 0.09714501351118087769, 0.16582135856151580811, -0.12806513905525207520, -0.07518307119607925415, -0.25052469968795776367, 0.13191807270050048828, -0.03300041332840919495, -0.12422794103622436523, -0.04276283830404281616, 0.06747932732105255127, -0.11981042474508285522, -0.18218836188316345215, 0.26303791999816894531, 0.19660998880863189697, -0.26420566439628601074, -0.19070804119110107422, -0.09287190437316894531, 0.20753803849220275879, 0.21380792558193206787, 0.02248826622962951660, 0.14680007100105285645, -0.06981046497821807861, -0.01323276106268167496, -0.13245031237602233887, 0.21872924268245697021, -0.06790900975465774536, -0.06366030126810073853, -0.08796031773090362549, -0.02587332576513290405, 0.09980869293212890625, 0.18990045785903930664, -0.15001992881298065186, 0.14348353445529937744, -0.23422551155090332031, 0.02455337159335613251, -0.27027526497840881348, -0.26953154802322387695, 			},
	{0.26169669628143310547, 0.04247968271374702454, -0.13981990516185760498, 0.05939561128616333008, -0.17791968584060668945, 0.23117539286613464355, 0.03680449724197387695, 0.14244613051414489746, -0.01578840240836143494, -0.19676548242568969727, -0.08115473389625549316, -0.05523166805505752563, 0.04463338479399681091, 0.09503525495529174805, -0.14293402433395385742, 0.19418193399906158447, 0.14203558862209320068, -0.03597238659858703613, -0.02237102389335632324, 0.05971468240022659302, -0.23693539202213287354, 0.02820364944636821747, 0.25815448164939880371, 0.17350782454013824463, -0.24638237059116363525, 0.23053736984729766846, 0.12596303224563598633, -0.25087320804595947266, -0.26622372865676879883, 0.23360727727413177490, -0.17602159082889556885, -0.19848603010177612305, 0.12090098857879638672, 0.02186385169625282288, 0.08590168505907058716, 0.11146377772092819214, 0.03659586980938911438, 0.10786190629005432129, -0.18370836973190307617, 0.10104551911354064941, 0.10616297274827957153, 0.01541859749704599380, -0.09201748669147491455, -0.10829766094684600830, -0.27437818050384521484, 0.20689426362514495850, 0.05793569236993789673, -0.00934166368097066879, 0.16283825039863586426, 0.07351684570312500000, -0.06660183519124984741, 0.12624797224998474121, -0.11831577867269515991, -0.09092301875352859497, 0.22798021137714385986, -0.21351549029350280762, -0.17793786525726318359, -0.23547782003879547119, 0.12209689617156982422, -0.26003569364547729492, -0.09794296324253082275, 0.12352612614631652832, 0.28280916810035705566, 0.08536367863416671753, 			},
	{0.21369026601314544678, 0.15348109602928161621, 0.24852941930294036865, 0.11200514435768127441, -0.27888900041580200195, 0.10671646147966384888, 0.01464565750211477280, 0.07439179718494415283, 0.21899358928203582764, -0.16895072162151336670, -0.23942552506923675537, -0.16383127868175506592, -0.21471443772315979004, 0.00150374602526426315, 0.02211231365799903870, -0.09063011407852172852, 0.27175444364547729492, -0.25713041424751281738, 0.09130388498306274414, -0.21893711388111114502, -0.04510017856955528259, -0.13930064439773559570, -0.20404195785522460938, -0.19575740396976470947, 0.26904621720314025879, -0.10872822999954223633, 0.17941419780254364014, 0.29037228226661682129, -0.24478869140148162842, 0.16267752647399902344, -0.05300093442201614380, 0.03293809667229652405, -0.04811884462833404541, -0.23783797025680541992, -0.07250119745731353760, 0.12963250279426574707, -0.10520701855421066284, 0.13955520093441009521, -0.09995673596858978271, -0.18591266870498657227, 0.23179472982883453369, 0.03131770342588424683, -0.10917400568723678589, -0.11408744752407073975, -0.09424094110727310181, -0.18466937541961669922, -0.08722212165594100952, -0.24076260626316070557, 0.08051359653472900391, 0.02462741173803806305, 0.01222520321607589722, -0.19837085902690887451, 0.14515826106071472168, 0.06744714081287384033, 0.13186925649642944336, -0.27249243855476379395, 0.23640023171901702881, -0.03911049664020538330, 0.08755379915237426758, -0.04152349382638931274, -0.24138435721397399902, -0.24479475617408752441, 0.25846296548843383789, 0.04376902431249618530, 			},
	{0.05908363685011863708, 0.10264731943607330322, 0.12234437465667724609, 0.23233887553215026855, 0.15668949484825134277, -0.21232935786247253418, -0.25305798649787902832, 0.07197926193475723267, -0.18845401704311370850, -0.17491233348846435547, 0.11910621821880340576, -0.24355924129486083984, 0.06596204638481140137, -0.20926590263843536377, 0.10002902150154113770, -0.00518110254779458046, -0.06933052837848663330, 0.16387389600276947021, -0.22816219925880432129, 0.07318899035453796387, -0.05213307961821556091, -0.04597603529691696167, 0.23143354058265686035, -0.13915938138961791992, -0.05172220617532730103, 0.02762711793184280396, -0.24985606968402862549, 0.13869149982929229736, 0.22073419392108917236, 0.01773621328175067902, 0.01564024388790130615, -0.10208071768283843994, -0.10356865078210830688, 0.25142705440521240234, 0.02056831866502761841, 0.25695845484733581543, 0.11597999185323715210, 0.26875528693199157715, -0.17034161090850830078, -0.08904200792312622070, 0.07070306688547134399, -0.08125042915344238281, -0.16114823520183563232, 0.10060405731201171875, -0.15886381268501281738, -0.18237577378749847412, -0.05291006714105606079, -0.12163905054330825806, 0.07364097237586975098, 0.19400636851787567139, 0.15692983567714691162, -0.24052071571350097656, -0.00051001948304474354, -0.21245454251766204834, -0.00927288644015789032, 0.03843174502253532410, 0.17667783796787261963, 0.10070928186178207397, 0.10081741213798522949, 0.06200130283832550049, -0.10305129736661911011, 0.00743196718394756317, -0.12215588241815567017, 0.24844714999198913574, 			},
	{-0.04029592499136924744, 0.06515364348888397217, -0.20740556716918945312, -0.06651777029037475586, 0.25715005397796630859, 0.15086790919303894043, 0.02911394834518432617, 0.13522063195705413818, -0.27090802788734436035, 0.00113956199493259192, -0.14416074752807617188, 0.07969556003808975220, 0.07798867672681808472, 0.24282673001289367676, 0.09709456562995910645, -0.16830453276634216309, 0.21084228157997131348, 0.24323223531246185303, -0.17375671863555908203, -0.02867986448109149933, 0.14678044617176055908, -0.02280516549944877625, 0.21221348643302917480, -0.00422849087044596672, 0.00100631813984364271, 0.15018784999847412109, -0.20495264232158660889, 0.26232218742370605469, -0.21386766433715820312, 0.15517228841781616211, -0.10382153093814849854, -0.00156184181105345488, -0.16080518066883087158, -0.04076950252056121826, 0.14598973095417022705, 0.15341575443744659424, 0.08002880215644836426, 0.13080693781375885010, -0.12528119981288909912, -0.12201924622058868408, -0.17437669634819030762, 0.13928040862083435059, -0.07689408957958221436, -0.15783217549324035645, -0.00527814403176307678, 0.14085026085376739502, -0.20783740282058715820, 0.09261076152324676514, 0.17515501379966735840, 0.11150822788476943970, -0.18068236112594604492, 0.10839448869228363037, -0.23684732615947723389, -0.23261204361915588379, 0.01588990353047847748, -0.16280516982078552246, -0.04882286116480827332, -0.12901011109352111816, 0.11217425018548965454, -0.19240339100360870361, 0.20167662203311920166, -0.16477748751640319824, 0.23746016621589660645, 0.19540779292583465576, 			},

};
data_t L6_neure_bias[L6_neure_number] = { -0.00000395136885344982, 0.00014835635374765843, -0.00013268543989397585, -0.00009419029083801433, -0.00001677667751209810, 0.00004701026045950130, -0.00001385612449666951, 0.00015457245172001421, -0.00004045481546199881, -0.00004802624607691541, };


#endif
