#ifndef _DENSE5_WEIGHTS_BIAS_H_
#define _DENSE5_WEIGHTS_BIAS_H_

#include "process_element.h"

data_t L5_neure_weights[L5_neure_number][L5_input_fmap_size] = {
		{0.04095583409070968628, -0.03284773603081703186, 0.01429116819053888321, -0.01840517297387123108, -0.04383648931980133057, -0.02049054950475692749, 0.03459654375910758972, 0.04072403907775878906, 0.04869224503636360168, -0.03077005781233310699, -0.00831677578389644623, 0.04098623991012573242, -0.00195505609735846519, -0.01672200113534927368, 0.03506093472242355347, -0.06205924972891807556, -0.02437612786889076233, -0.01603707857429981232, -0.01874722167849540710, -0.02326545491814613342, -0.04695145785808563232, 0.01796139962971210480, 0.03058237954974174500, -0.00685606477782130241, -0.04062124341726303101, -0.05494876205921173096, -0.02253020927309989929, -0.04097247123718261719, -0.06609360873699188232, -0.05104225128889083862, -0.04564525559544563293, -0.02233465574681758881, 0.06518632918596267700, 0.05484246090054512024, -0.04462010413408279419, -0.02503534220159053802, -0.02383453026413917542, -0.01078290119767189026, -0.02785366959869861603, 0.03763048350811004639, -0.03377214074134826660, 0.02090473473072052002, 0.01188990380614995956, 0.02347100153565406799, 0.05362325906753540039, -0.00430571334436535835, -0.03620639070868492126, 0.04683622717857360840, 0.00444571673870086670, -0.01172852423042058945, 0.04338501766324043274, -0.00686104549095034599, -0.04210191220045089722, 0.06468366086483001709, -0.03514616936445236206, -0.04592808336019515991, 0.02800123393535614014, 0.00459591159597039223, -0.02115280739963054657, -0.05247981846332550049, -0.05151575058698654175, -0.03791216015815734863, 0.01386168971657752991, -0.00557826645672321320, 0.00561398500576615334, 0.03272020444273948669, 0.03159133717417716980, -0.04210938885807991028, 0.06177011877298355103, -0.05543722212314605713, -0.02519314736127853394, -0.04682011529803276062, 0.00045132159721106291, 0.05654231831431388855, 0.02116497233510017395, -0.01494309958070516586, -0.06361696869134902954, 0.04035511985421180725, 0.04129933565855026245, 0.04937594383955001831, -0.05824169516563415527, 0.01063540857285261154, -0.05574669688940048218, -0.00409928616136312485, -0.00100335967727005482, -0.04940777644515037537, 0.02240552753210067749, -0.01372644118964672089, -0.05242172256112098694, 0.00845376309007406235, -0.01084250491112470627, -0.01551568135619163513, -0.00636554090306162834, -0.06112796068191528320, 0.03251995518803596497, 0.03161905705928802490, 0.05539552867412567139, -0.04571859538555145264, -0.03823488205671310425, -0.03682591766119003296, 0.05814560502767562866, -0.04023760184645652771, 0.05727816745638847351, -0.06452269107103347778, -0.05505142360925674438, -0.04960262775421142578, 0.03270914033055305481, -0.06676692515611648560, 0.04289196059107780457, -0.06580080091953277588, -0.03290689736604690552, -0.00113575207069516182, -0.06239122897386550903, 0.00814724341034889221, 0.04451110959053039551, -0.02003193646669387817, 0.03702486678957939148, 0.05907855927944183350, -0.02495057694613933563, 0.00067486113402992487, -0.05397322401404380798, -0.03666841238737106323, -0.00260119419544935226, -0.04922783374786376953, 0.01934532634913921356, -0.02718412689864635468, -0.01852242462337017059, -0.00740400794893503189, -0.05579305440187454224, -0.06170389428734779358, -0.01016007643193006516, -0.03344356641173362732, -0.00555653870105743408, 0.06205144524574279785, 0.05912591889500617981, -0.04894304275512695312, 0.06629256159067153931, -0.00380337750539183617, -0.02853203006088733673, 0.00547457393258810043, 0.03088046051561832428, -0.04029694199562072754, 0.07014024257659912109, -0.03249785676598548889, -0.04776084050536155701, 0.01902473904192447662, 0.01294171810150146484, -0.05464144423604011536, -0.06285142898559570312, 0.01579437218606472015, 0.00747876521199941635, 0.03661306574940681458, -0.01615818217396736145, -0.04753758013248443604, 0.01165678445249795914, 0.04432918131351470947, 0.05723469704389572144, 0.02616161480545997620, -0.01519065070897340775, 0.02543434873223304749, 0.00311154918745160103, -0.04404692724347114563, -0.06707279384136199951, -0.06898549944162368774, -0.04279399290680885315, 0.04556939750909805298, 0.00879406090825796127, -0.03723966330289840698, -0.00376240583136677742, 0.01863080263137817383, 0.06628628075122833252, -0.02801637165248394012, 0.06469848006963729858, -0.00010714679956436157, -0.00522358063608407974, 0.01252989377826452255, -0.02269711159169673920, 0.04953060299158096313, -0.06322591006755828857, 0.05078752711415290833, -0.02411892823874950409, 0.03584435582160949707, 0.04055469110608100891, -0.06231971457600593567, 0.03081063181161880493, 0.00110361864790320396, 0.02986404858529567719, 0.04022642225027084351, 0.06336645036935806274, 0.05266128107905387878, -0.02150102332234382629, 0.06174992397427558899, -0.05022452771663665771, -0.03285705298185348511, -0.06666237860918045044, -0.01278050616383552551, -0.01628966629505157471, 0.03457656875252723694, -0.00958702247589826584, 0.03371593356132507324, -0.05873988941311836243, -0.06586318463087081909, -0.03689362481236457825, 0.06655901670455932617, -0.01389698311686515808, 0.04062706977128982544, 0.04551690071821212769, -0.04863269999623298645, -0.06740223616361618042, -0.01819787546992301941, -0.05993938073515892029, 0.01697480864822864532, -0.06889344006776809692, -0.05912958458065986633, 0.01406387239694595337, 0.03545848280191421509, 0.04352054744958877563, 0.05182681977748870850, -0.05335790291428565979, 0.01842269301414489746, 0.04050677642226219177, 0.03097337298095226288, -0.06148855760693550110, 0.01351448241621255875, -0.06627128273248672485, 0.02741514146327972412, -0.01055587362498044968, -0.05322029814124107361, 0.00760539015755057335, 0.01124525256454944611, 0.01505774911493062973, 0.06272275000810623169, -0.06099359318614006042, -0.00778914568945765495, -0.00570420268923044205, -0.01919326558709144592, -0.04166252911090850830, -0.00428074831143021584, 0.01525365561246871948, -0.05445367842912673950, -0.00459731696173548698, 0.05055396258831024170, 0.06293432414531707764, 0.06841106712818145752, 0.02364576049149036407, -0.06961593776941299438, -0.05039653554558753967, -0.03778057917952537537, 0.00228871265426278114, 0.06008208543062210083, 0.03083186224102973938, 0.00452054198831319809, 0.00168344634585082531, -0.04105138778686523438, 0.04936843365430831909, 0.03582287579774856567, -0.05337658897042274475, 0.06262435019016265869, 0.01551160775125026703, 0.06976338475942611694, 0.06615608185529708862, -0.04802615568041801453, -0.01966141723096370697, -0.05577478185296058655, -0.03763030096888542175, 0.05606305226683616638, -0.05061927065253257751, -0.03264309838414192200, -0.03031959012150764465, -0.00733167259022593498, -0.04837652668356895447, -0.01023962162435054779, -0.05394564196467399597, -0.05367296934127807617, 0.01571867614984512329, 0.01403571013361215591, 0.01907003298401832581, 0.05526968836784362793, 0.00632665678858757019, -0.02881271764636039734, 0.06778939068317413330, -0.02239112742245197296, 0.03541177511215209961, -0.00914111081510782242, -0.01648415997624397278, 0.00980619061738252640, 0.01751792058348655701, -0.00132592045702040195, 0.06622163206338882446, 0.06430194526910781860, 0.03551495447754859924, -0.03570686653256416321, 0.04023354500532150269, -0.02925453148782253265, -0.00020853504247497767, -0.04774405807256698608, -0.03539367765188217163, -0.04323267564177513123, 0.05104465037584304810, -0.03440047428011894226, 0.04964021593332290649, 0.02744033932685852051, -0.04238760471343994141, -0.00123187946155667305, -0.04456206038594245911, 0.03123939968645572662, 0.00040976723539642990, 0.05130857229232788086, 0.04369087517261505127, 0.01595534943044185638, 0.02824260853230953217, 0.02893441729247570038, 0.02217639423906803131, 0.05234313011169433594, -0.01011568587273359299, 0.04466714337468147278, -0.02651432715356349945, -0.06718581914901733398, 0.01502610836178064346, -0.03512381762266159058, 0.01725369505584239960, -0.01319748722016811371, 0.00353766186162829399, 0.02713814750313758850, -0.00964118633419275284, 0.06924354285001754761, 0.03802330419421195984, -0.02369980141520500183, 0.05196745321154594421, -0.03790452331304550171, -0.05383900180459022522, 0.03017747960984706879, -0.01641621068120002747, 0.04982366412878036499, -0.04117879644036293030, -0.04786548018455505371, 0.02785538695752620697, -0.03521782159805297852, -0.02311015315353870392, 0.04436849430203437805, 0.00173740985337644815, -0.03507304936647415161, 0.05008255690336227417, -0.05138543620705604553, 0.02108976617455482483, -0.05952377617359161377, -0.04664620757102966309, -0.03006665222346782684, 0.03923369571566581726, 0.02161376178264617920, -0.06465190649032592773, -0.03277148678898811340, -0.04829099029302597046, -0.00261844811029732227, 0.03850800916552543640, -0.05167508497834205627, 0.04077802598476409912, -0.03734625875949859619, -0.02691669948399066925, 0.03369769454002380371, -0.00381381344050168991, 0.00986966956406831741, -0.01894827932119369507, 0.04474628716707229614, -0.05876053869724273682, 0.02980882301926612854, -0.01744285784661769867, 0.02168604359030723572, 0.06978224962949752808, 0.00739885261282324791, 0.04092533886432647705, 0.05229738727211952209, -0.02570534311234951019, -0.03435261547565460205, 0.01315813232213258743, 0.04760491475462913513, 0.02898677065968513489, 0.01371435355395078659, -0.00739151844754815102, -0.03433948755264282227, -0.04870343208312988281, -0.06390981376171112061, -0.06492317467927932739, 0.02421185560524463654, 0.02734418399631977081, -0.06064408272504806519, -0.02195103280246257782, -0.05206731706857681274, -0.00009984523057937622, 0.04760416224598884583, 0.06638120859861373901, -0.01100356224924325943, -0.06160608306527137756, -0.03841347992420196533, 0.04289627447724342346, 0.00390404323115944862, -0.01789596118032932281, -0.02010541595518589020, -0.00074825418414548039, 0.00160940655041486025, 0.01833241805434226990, -0.00865327939391136169, 0.01214832812547683716, -0.03826944902539253235, -0.02420447394251823425, -0.04938873648643493652, 0.00555284181609749794, 0.06208556145429611206, -0.03768377378582954407, -0.01706874743103981018, 0.06569477170705795288, 0.03513880074024200439, 0.05430879071354866028, 0.04513813182711601257, -0.01163856871426105499, 0.03440568596124649048, 0.01909075677394866943, -0.01255669444799423218, 0.01746638864278793335, 0.01611220836639404297, 0.05337959155440330505, -0.00296985916793346405, -0.06135614961385726929, -0.05313700810074806213, 0.00171238556504249573, 0.03275116160511970520, -0.06231678277254104614, -0.03300971165299415588, -0.06833077222108840942, 0.04045957699418067932, 0.00082116067642346025, 0.04244806617498397827, -0.06221793964505195618, 0.03899442404508590698, 0.02614645101130008698, -0.06963455677032470703, -0.02533539757132530212, -0.03715786337852478027, 0.05688795819878578186, -0.01890583708882331848, 0.00183140917215496302, 0.03720600903034210205, -0.01187991257756948471, -0.00447455467656254768, 0.01558739505708217621, 0.05276200547814369202, 0.02251946553587913513, 0.01927671208977699280, 0.00381524907425045967, -0.05623701587319374084, 0.00618840102106332779, -0.00441355351358652115, -0.04095015302300453186, 0.01651010476052761078, 0.06538753211498260498, -0.00711818691343069077, 0.02138231135904788971, 0.03870234265923500061, -0.00820935703814029694, 0.04678756371140480042, -0.01095274183899164200, -0.02850418165326118469, 0.04046171158552169800, -0.06497824192047119141, -0.01121748797595500946, 0.03909516707062721252, 0.01710803993046283722, 0.03548906370997428894, -0.05412310734391212463, -0.01702667027711868286, 0.01438831444829702377, 0.03263200819492340088, -0.04940557479858398438, 0.03350545838475227356, -0.00194687303155660629, 0.05865120515227317810, -0.00718048587441444397, 0.02520608529448509216, 0.02687178179621696472, 0.05412568897008895874, -0.05332273989915847778, 0.02137557417154312134, -0.03884272649884223938, -0.05434796586632728577, -0.04374023899435997009, -0.00585955241695046425, 0.00457471283152699471, -0.05348996073007583618, 0.01998136565089225769, -0.03162010014057159424, 0.02628225646913051605, 0.03249013051390647888, 0.02110593579709529877, -0.06114093214273452759, -0.03638855740427970886, 0.01762827299535274506, 0.04022544249892234802, -0.06717795878648757935, 0.00712678488343954086, 0.06476815044879913330, 0.03366389125585556030, -0.04654720053076744080, 0.03016743808984756470, 0.02658252604305744171, 0.00428846199065446854, -0.02438634820282459259, 0.04109646379947662354, 0.02690851874649524689, 0.00945393461734056473, 0.00792024563997983932, 0.04701327160000801086, -0.06524258106946945190, 0.03538208454847335815, -0.03174787387251853943, -0.00968853849917650223, -0.06279992312192916870, -0.06851299852132797241, -0.01355799287557601929, 0.05039186775684356689, -0.00228177313692867756, -0.05523355305194854736, -0.02930338121950626373, 0.03846421465277671814, -0.01341606583446264267, 0.00151475518941879272, -0.05809498578310012817, 0.06276079267263412476, 0.00184770533815026283, 0.03631596639752388000, 0.01114385854452848434, -0.06077883020043373108, 0.01991913467645645142, 0.02278470247983932495, -0.03611237183213233948, -0.04965141415596008301, 0.06398264318704605103, -0.06117921322584152222, -0.02376491948962211609, 0.02168682962656021118, 0.05953567475080490112, 0.00832288525998592377, 0.03592067956924438477, 0.03912638872861862183, 0.02824001759290695190, 0.05465454235672950745, -0.05049785599112510681, -0.05620514601469039917, 0.02162307128310203552, -0.05091838911175727844, 0.01929402537643909454, 0.01418853644281625748, -0.04788544774055480957, 0.00062340410659089684, -0.04885964095592498779, -0.06223317980766296387, 0.03642381355166435242, -0.04732692614197731018, -0.02181480266153812408, 0.01224799640476703644, -0.00939420703798532486, -0.02267717942595481873, -0.04218911752104759216, -0.01499817892909049988, -0.01539414655417203903, 0.03933977335691452026, -0.05213902890682220459, 0.01219236850738525391, -0.05659285560250282288, 0.06702949851751327515, -0.03480077534914016724, -0.01284454297274351120, 0.05457049608230590820, -0.00074519397458061576, 0.03451779857277870178, 0.02290106751024723053, 0.02455576881766319275, -0.02662497572600841522, 0.02336506545543670654, 0.01202956866472959518, -0.05118404701352119446, -0.03952840715646743774, -0.00257907412014901638, 0.02585958689451217651, 0.01758985780179500580, 0.05085448175668716431, 0.03072805330157279968, 0.03042088262736797333, 0.05091072618961334229, 0.05414675548672676086, -0.00610527629032731056, -0.02520138397812843323, -0.05382188409566879272, -0.03182486444711685181, -0.02672136947512626648, -0.04680998250842094421, -0.04027037695050239563, -0.04466780647635459900, 0.06749219447374343872, -0.06866744905710220337, -0.04718793183565139771, -0.03537051379680633545, 0.01188509725034236908, -0.03340758010745048523, 0.05976749211549758911, -0.04010149091482162476, -0.04988420754671096802, -0.04117800295352935791, -0.03741010650992393494, -0.02412483654916286469, 0.02818912640213966370, 0.05139390006661415100, -0.02319145575165748596, 0.00401475047692656517, 0.03537244349718093872, 0.04225002229213714600, -0.02911680936813354492, -0.01009488198906183243, 0.04013615474104881287, -0.06127399206161499023, -0.00539601361379027367, -0.04419936984777450562, -0.00159875384997576475, 0.00584305357187986374, 0.02948869578540325165, -0.02695391327142715454, 0.00349011342041194439, -0.02793140336871147156, 0.05362158268690109253, 0.00274985376745462418, 0.03857775032520294189, -0.05199381709098815918, -0.04387251660227775574, -0.04823444783687591553, 0.03237269446253776550, -0.00756852328777313232, 0.05418010056018829346, 0.02814844064414501190, 0.02709432318806648254, 0.03930811211466789246, 0.04452928900718688965, -0.01963133178651332855, 0.06902702152729034424, 0.04283771291375160217, 0.06601498275995254517, 0.01301967352628707886, 0.03623287752270698547, -0.01925607770681381226, 0.02981869317591190338, 0.06152375042438507080, 0.00146924820728600025, -0.03994665667414665222, -0.05982090160250663757, 0.01527012046426534653, 0.06911229342222213745, 0.06345146894454956055, -0.03234339877963066101, 0.02154246903955936432, -0.02124924398958683014, -0.05558997392654418945, 0.01858226396143436432, 0.05327955260872840881, -0.01730518974363803864, -0.06302686780691146851, -0.02862779051065444946, -0.01914447546005249023, 0.07123559713363647461, -0.06511019915342330933, 0.04723485931754112244, -0.03410517051815986633, -0.04845666885375976562, -0.06769765168428421021, -0.06239653006196022034, -0.00114644749555736780, -0.05145059153437614441, 0.06727381795644760132, -0.05635302886366844177, -0.05886925011873245239, 0.04008639976382255554, -0.03312978148460388184, -0.07052554935216903687, 0.04653887823224067688, -0.05753568932414054871, 0.06354546546936035156, -0.03270154446363449097, 0.05569998919963836670, -0.05934663489460945129, 0.01128477044403553009, 0.04319396615028381348, 0.00230225501582026482, -0.03134359419345855713, -0.00107230991125106812, -0.05012851208448410034, -0.00598338618874549866, 0.02215111069381237030, -0.01349341683089733124, 0.00051519781118258834, 0.01862888783216476440, 0.06988751143217086792, -0.03869203478097915649, -0.05744710564613342285, 0.02495512180030345917, -0.05081338062882423401, -0.02640636637806892395, -0.06925135105848312378, -0.04191994667053222656, -0.01321717910468578339, -0.06928149610757827759, 0.00575457280501723289, 0.05389856174588203430, -0.04174419865012168884, 0.06791602820158004761, -0.06956022232770919800, 0.05873836949467658997, 0.05669850483536720276, -0.06226469203829765320, 0.02171459048986434937, -0.06470318138599395752, -0.00973336398601531982, 0.03389840945601463318, -0.05335125699639320374, 0.04293080791831016541, 0.04941307008266448975, -0.04278028011322021484, -0.00638214871287345886, 0.02434265427291393280, 0.01245056279003620148, 0.06538590043783187866, 0.02480199374258518219, 0.06733682006597518921, -0.00151855335570871830, -0.04035243391990661621, -0.04319719970226287842, -0.02895383350551128387, 0.02393685281276702881, 0.06591420620679855347, 0.00925122480839490891, 0.05594446510076522827, -0.06320516765117645264, -0.06061991676688194275, 0.05662070959806442261, -0.02302538044750690460, -0.02758795954287052155, -0.01034678798168897629, -0.04971154406666755676, -0.05593877285718917847, 0.02096138894557952881, -0.04455726593732833862, 0.04282445833086967468, 0.06414300203323364258, -0.05361999198794364929, -0.00860240310430526733, -0.06173117458820343018, -0.05165381357073783875, -0.06330446898937225342, 0.05561740696430206299, 0.04993923008441925049, 0.06660322844982147217, 0.00770554412156343460, -0.00246248161420226097, 0.06914561241865158081, 0.02882151305675506592, -0.01057318691164255142, -0.03667010739445686340, -0.00374361779540777206, -0.00157214456703513861, -0.04650623351335525513, -0.04880278557538986206, 0.02560997568070888519, -0.03516045585274696350, -0.04484861716628074646, -0.04106081649661064148, 0.03925654292106628418, -0.01265389472246170044, 0.04713548347353935242, -0.04372048005461692810, 0.02243747748434543610, 0.06665914505720138550, 0.00399065529927611351, 0.01876532658934593201, 0.00699990848079323769, 0.05000331625342369080, -0.06952831894159317017, 0.00353429908864200115, -0.06888312846422195435, -0.01915151067078113556, -0.04293457418680191040, 0.02332663536071777344, 0.02772797271609306335, 0.05297311395406723022, 0.04792319238185882568, 0.03223011270165443420, -0.05012365430593490601, 0.01736334711313247681, -0.01402431912720203400, -0.02163140475749969482, 0.02245096676051616669, 0.03453861922025680542, 0.03914480656385421753, -0.00127291074022650719, 0.02190611511468887329, 0.03927928209304809570, 0.04442228376865386963, -0.02283596247434616089, -0.02469556778669357300, 0.02258397825062274933, -0.01481545530259609222, -0.00770599115639925003, -0.03881672769784927368, 0.05577608570456504822, 0.02930760569870471954, 0.05670275539159774780, 0.00316455122083425522, -0.04852673783898353577, -0.05098342895507812500, -0.03440421447157859802, 0.00435572024434804916, -0.01978636346757411957, -0.04257009178400039673, -0.01341901998966932297, -0.03659758344292640686, 0.02709654159843921661, -0.06093107908964157104, -0.00379379652440547943, 0.02611322514712810516, 0.03704117611050605774, -0.00439296010881662369, -0.05773206800222396851, 0.02131931483745574951, -0.04046392440795898438, -0.06595864892005920410, -0.03459744527935981750, -0.03182758390903472900, -0.01002531312406063080, -0.06255351006984710693, 0.05390112847089767456, -0.04285006225109100342, 0.03262480348348617554, -0.03566137328743934631, -0.01491388212889432907, 0.04698158800601959229, -0.04657806828618049622, -0.04904162511229515076, -0.01226233877241611481, -0.05954761058092117310, 0.03197890892624855042, -0.06582546979188919067, 0.02440556697547435760, 0.05470345914363861084, -0.02225647307932376862, 0.06708134710788726807, 0.06696497648954391479, -0.05243206769227981567, -0.02545361407101154327, -0.00957188289612531662, -0.04013102501630783081, 0.01930093765258789062, -0.03827286511659622192, 0.01517331600189208984, 0.01479662954807281494, -0.05311390757560729980, -0.05030983686447143555, 0.03870201110839843750, -0.04118222743272781372, 0.04174176603555679321, -0.00464329496026039124, -0.00310851912945508957, 0.01550768408924341202, 0.00739823561161756516, 0.05392893403768539429, 0.01074144802987575531, -0.00830115191638469696, -0.00888553168624639511, -0.04437449574470520020, -0.01589974761009216309, -0.05131792277097702026, 0.05670787394046783447, -0.06478076428174972534, -0.03709247335791587830, -0.05741797760128974915, -0.01776888221502304077, 0.03190233185887336731, 0.06517992168664932251, -0.03716724365949630737, -0.01695958152413368225, 0.01445572450757026672, -0.06688875705003738403, 0.04194600880146026611, -0.03104224056005477905, -0.04537299275398254395, 0.06178990006446838379, 0.05959510058164596558, -0.04991553723812103271, -0.06490813195705413818, -0.04604431241750717163, -0.05948024988174438477, -0.03713230416178703308, -0.03436875715851783752, 0.05266726389527320862, 0.03701043874025344849, -0.05764344707131385803, 0.01235113572329282761, -0.06318400800228118896, 0.04345674812793731689, 0.01020930334925651550, 0.00558402203023433685, 0.02196850813925266266, 0.02178423292934894562, 0.03100307285785675049, 0.04865513369441032410, 0.03570614382624626160, 0.06616880744695663452, -0.05211108922958374023, 0.04823448136448860168, -0.00420426111668348312, -0.00139628967735916376, 0.01500780228525400162, 0.06631529331207275391, -0.00341424182988703251, 0.00668650539591908455, 0.04963751509785652161, 0.05515795573592185974, -0.05476947873830795288, -0.04308941960334777832, 0.06044272333383560181, 0.04673393443226814270, 0.02991032414138317108, 0.04834189265966415405, 0.00036432375782169402, 0.03747062385082244873, -0.04638994112610816956, 0.05255299434065818787, -0.00690663559362292290, -0.02885522879660129547, -0.06609985232353210449, -0.06618230044841766357, -0.06000111624598503113, -0.06055262684822082520, 0.03000084124505519867, 0.00803138874471187592, -0.05764713138341903687, 0.04956416040658950806, 0.04509540647268295288, 0.02228961326181888580, -0.04584951698780059814, 0.06361970305442810059, -0.02379698678851127625, -0.04580290988087654114, 0.06781926751136779785, -0.06670902669429779053, -0.02120222896337509155, -0.00326481973752379417, 0.04005659371614456177, -0.06075867265462875366, 0.01851615495979785919, 0.01848749630153179169, 0.02091307751834392548, 0.04630408063530921936, -0.04644221067428588867, 0.03464056178927421570, -0.01870776340365409851, 0.03972189500927925110, -0.04690402746200561523, -0.04591449722647666931, 0.04418749734759330750, 0.01581650227308273315, 0.00750018935650587082, 0.03427262976765632629, -0.03452699258923530579, -0.06380923837423324585, 0.01221796497702598572, -0.00851786788552999496, 0.06550662219524383545, 0.02366774342954158783, -0.00102571398019790649, -0.02820364013314247131, -0.03698085620999336243, -0.06356938183307647705, 0.01145644672214984894, -0.04262538626790046692, -0.00495855277404189110, -0.06695739179849624634, 0.01677291095256805420, -0.00545667624101042747, -0.01096137706190347672, -0.00972094386816024780, 0.05584971606731414795, 0.01990598440170288086, 0.00641895225271582603, -0.03896524757146835327, -0.05232216790318489075, -0.00749702518805861473, 0.02170678973197937012, -0.03855939954519271851, 0.01837167888879776001, -0.06960990279912948608, -0.06457682698965072632, 0.02663928642868995667, -0.02513255737721920013, -0.05432500690221786499, -0.02400286868214607239, -0.07093661278486251831, -0.04054046422243118286, -0.01869050785899162292, -0.02281432598829269409, 0.05759612843394279480, -0.03720070421695709229, 0.01736998744308948517, 0.00381677527911961079, 0.02376102656126022339, 0.03401617705821990967, 0.03349896892905235291, 0.06678308546543121338, 0.03946264088153839111, -0.06910108029842376709, -0.01817501150071620941, 0.03899687156081199646, -0.03728688135743141174, -0.05507285892963409424, 0.06905668228864669800, 0.00334296817891299725, 0.00124040304217487574, 0.05718604847788810730, 0.04717170447111129761, 0.04327923804521560669, 0.05644137412309646606, 0.01829761080443859100, 0.03886036202311515808, 0.03124075196683406830, 0.00076500646537169814, 0.01134792435914278030, 0.01460117846727371216, -0.02694217301905155182, -0.03728800639510154724, 0.03439550474286079407, 0.05986261740326881409, -0.04640967398881912231, -0.01266581751406192780, 0.02038345858454704285, -0.05197716131806373596, -0.03363939374685287476, 0.04447184875607490540, -0.07074267417192459106, -0.01169976219534873962, -0.07020487636327743530, 0.04824291169643402100, 0.01731305941939353943, -0.06945220381021499634, 0.03941680863499641418, 0.04275966808199882507, -0.01123678404837846756, 0.04429284483194351196, -0.02802783250808715820, -0.03710194304585456848, 0.06847939640283584595, -0.02766712568700313568, -0.00539052160456776619, -0.02453042007982730865, 0.03989835456013679504, -0.01304076705127954483, 0.00245032389648258686, 0.00017475616186857224, 0.06359320133924484253, 0.03090909123420715332, 0.06049666181206703186, -0.01175281405448913574, 0.02058832719922065735, -0.05821481347084045410, -0.01345063559710979462, -0.06176329404115676880, -0.05415712296962738037, -0.05535843223333358765, -0.06609144806861877441, 0.02392214536666870117, 0.03034272231161594391, 0.05446796119213104248, 0.02199613489210605621, 0.05561384931206703186, 0.03555938601493835449, 0.03336840867996215820, -0.04437829554080963135, -0.02746998146176338196, -0.05491524934768676758, -0.05481960996985435486, -0.00170030421577394009, -0.01642196998000144958, 0.01349207106977701187, 0.00507266586646437645, -0.01029412448406219482, -0.04139794409275054932, -0.03512024506926536560, 0.02997265383601188660, 0.01834995113313198090, -0.04366245865821838379, 0.02757087536156177521, 0.06876574456691741943, 0.01691958308219909668, -0.06172885745763778687, -0.01009149197489023209, -0.04685892164707183838, -0.04932831227779388428, 0.03260093182325363159, -0.05314087122678756714, 0.03688282147049903870, -0.06538428366184234619, 0.06888203322887420654, 0.06080141291022300720, -0.04011949524283409119, 0.05064772441983222961, 0.02199811488389968872, -0.02032809145748615265, -0.04631903395056724548, -0.01779443584382534027, -0.04953040927648544312, 0.05731213092803955078, -0.01417771633714437485, 0.05322069674730300903, -0.05289284884929656982, 0.04237803816795349121, 0.04470354318618774414, 0.06244456395506858826, 0.00565106561407446861, 0.02537855133414268494, -0.06631502509117126465, 0.06504774093627929688, 0.03916189074516296387, -0.01670905575156211853, 0.04676894843578338623, 0.04458792507648468018, -0.06692887842655181885, 0.05832190066576004028, -0.03511450439691543579, 0.06285405158996582031, 0.02366145886480808258, 0.00343745690770447254, 0.05925057455897331238, -0.02282413095235824585, 0.03609683737158775330, -0.02230089157819747925, 0.01821294426918029785, 0.03645380586385726929, -0.00826770346611738205, -0.06036886572837829590, 0.01196889206767082214, -0.05525276809930801392, 0.01360570359975099564, -0.02767200395464897156, -0.02233566157519817352, 0.01148981507867574692, 0.06783275306224822998, -0.03265798836946487427, 0.04091735556721687317, -0.06253821402788162231, 			},
	{0.05111237615346908569, -0.03776843473315238953, -0.05720884352922439575, -0.03860042989253997803, -0.06303115189075469971, 0.04304585605859756470, -0.04833764210343360901, -0.04848420619964599609, -0.04858170449733734131, 0.06748657673597335815, -0.06425213813781738281, -0.00135046208743005991, 0.06610681861639022827, 0.00340256094932556152, -0.05860121548175811768, -0.01712204888463020325, -0.06330682337284088135, 0.05776362493634223938, -0.00226023793220520020, 0.05143927410244941711, -0.02346820384263992310, 0.00485960254445672035, 0.06543105095624923706, -0.05626993998885154724, 0.00643716752529144287, 0.06092564016580581665, -0.06614589691162109375, 0.04537922888994216919, -0.06280851364135742188, 0.04431971907615661621, 0.06042461097240447998, -0.02772018127143383026, 0.03591560944914817810, -0.03382640331983566284, 0.05267007648944854736, -0.03078427538275718689, 0.01006662845611572266, -0.04735727608203887939, 0.05792441964149475098, -0.01314397715032100677, 0.01622557267546653748, -0.02742240764200687408, 0.05974117293953895569, -0.02237423695623874664, 0.04509806632995605469, 0.06428392976522445679, 0.02179332077503204346, -0.01234399899840354919, -0.05193818733096122742, 0.03819553181529045105, 0.01332236826419830322, -0.00416345382109284401, 0.03316305950284004211, 0.05379401519894599915, -0.02737586013972759247, -0.04903062433004379272, 0.01156684756278991699, -0.05968267843127250671, 0.01265343092381954193, -0.01096432656049728394, -0.05179688334465026855, -0.05192256346344947815, -0.03108485043048858643, -0.03125869110226631165, 0.06464128941297531128, 0.05746632814407348633, -0.00572347175329923630, 0.01563640870153903961, -0.04976594448089599609, 0.02421424724161624908, 0.06390715390443801880, 0.06620084494352340698, 0.04463774710893630981, -0.02192275039851665497, 0.03510541841387748718, 0.03566433861851692200, -0.01806951686739921570, -0.00821548327803611755, -0.04706242308020591736, 0.00222138315439224243, -0.02315200306475162506, 0.02705041877925395966, 0.04773724451661109924, -0.02194773405790328979, -0.06663519144058227539, 0.02823460288345813751, -0.05836469307541847229, -0.05031524971127510071, 0.00752417743206024170, 0.03222418203949928284, 0.05581547692418098450, 0.01172976940870285034, -0.05049154907464981079, 0.03854993730783462524, 0.01127454079687595367, 0.00601725978776812553, 0.06432177126407623291, 0.03924416750669479370, -0.02282692305743694305, -0.03883340209722518921, 0.03751015663146972656, 0.01595219597220420837, -0.04179335758090019226, 0.05320259928703308105, -0.02276989258825778961, -0.02379373274743556976, -0.02407734841108322144, -0.02015282586216926575, -0.01958711072802543640, -0.00800924841314554214, -0.00321066845208406448, -0.01936299353837966919, 0.00019364933541510254, -0.01861333660781383514, -0.00493928045034408569, -0.05877839401364326477, -0.01553201302886009216, 0.05416733399033546448, 0.05999415367841720581, -0.03262953832745552063, 0.01280549168586730957, -0.04291905090212821960, -0.03022272512316703796, 0.02704774588346481323, -0.02724565379321575165, 0.04413981735706329346, -0.05820817500352859497, 0.04194282740354537964, -0.00646526971831917763, -0.03233880177140235901, 0.01429782994091510773, 0.04021038115024566650, -0.05434613674879074097, -0.06545628607273101807, -0.00504999700933694839, -0.03926452249288558960, 0.02618143148720264435, 0.04257915914058685303, -0.06375233829021453857, 0.03075220994651317596, -0.04918297007679939270, -0.07008920609951019287, 0.06374032050371170044, -0.04768346250057220459, 0.04585486277937889099, -0.01339026633650064468, 0.04534741491079330444, 0.02945701032876968384, 0.06633680313825607300, 0.02411005832254886627, 0.02219342999160289764, -0.01634911634027957916, -0.06251988559961318970, -0.02099175006151199341, 0.01924234256148338318, 0.06428728252649307251, 0.00949071627110242844, -0.02180324867367744446, -0.01482008490711450577, -0.01634738594293594360, -0.06190781295299530029, 0.01768655329942703247, 0.05453932285308837891, -0.04467084258794784546, 0.00662577897310256958, 0.00867693871259689331, 0.01510049868375062943, 0.02957830950617790222, 0.06176465377211570740, 0.01531741395592689514, -0.03642250597476959229, -0.03884399682283401489, 0.01685985177755355835, 0.04694119840860366821, 0.03018938750028610229, 0.01008868217468261719, -0.06756492704153060913, -0.03932521119713783264, -0.01509759947657585144, -0.05311889201402664185, -0.06643853336572647095, -0.05298887938261032104, -0.00080857792636379600, 0.02227610349655151367, -0.06118544936180114746, 0.03809258714318275452, 0.00152548227924853563, 0.04711778461933135986, -0.03168287873268127441, 0.06356362253427505493, 0.05120484530925750732, -0.02537026815116405487, -0.04103892296552658081, -0.03410394489765167236, -0.02638775482773780823, -0.05282523483037948608, -0.04244725406169891357, -0.01613882184028625488, -0.01523213367909193039, -0.05699929594993591309, -0.06975787132978439331, -0.04647403955459594727, 0.05782859399914741516, -0.00103709450922906399, 0.04952092096209526062, 0.01366058737039566040, -0.06798295676708221436, -0.00607717037200927734, -0.00353113585151731968, 0.05952919647097587585, 0.03941839188337326050, -0.03692252561450004578, 0.01269242633134126663, 0.04327309131622314453, -0.01516249869018793106, -0.05871924385428428650, 0.03037471324205398560, -0.02973026782274246216, 0.04152387380599975586, 0.03914736956357955933, -0.05106006190180778503, 0.05925277248024940491, 0.02551289834082126617, 0.05806623026728630066, -0.04642624780535697937, 0.04208212345838546753, 0.03698241710662841797, -0.03167725354433059692, 0.04301246255636215210, 0.03983550891280174255, -0.02368558198213577271, -0.01794641278684139252, 0.03643767163157463074, -0.02753506973385810852, 0.06048074737191200256, 0.02987909875810146332, -0.01002193428575992584, -0.01363735832273960114, 0.06132649257779121399, 0.03321443498134613037, -0.01870123483240604401, -0.06868071109056472778, 0.03721286356449127197, 0.02702709659934043884, -0.06695286929607391357, -0.06892642378807067871, -0.06668873876333236694, 0.02138634212315082550, -0.03478065133094787598, -0.05202678591012954712, -0.03685151413083076477, 0.01126688160002231598, 0.06690088659524917603, -0.02643589302897453308, -0.03872806206345558167, -0.02221758849918842316, 0.00690334616228938103, -0.03964066877961158752, 0.04913742095232009888, 0.00865474902093410492, -0.01888910308480262756, 0.00785964727401733398, -0.06175079569220542908, -0.06952616572380065918, -0.04676749929785728455, -0.03381913155317306519, -0.01925581507384777069, -0.01313441433012485504, -0.04387394338846206665, -0.06101006269454956055, -0.01771593466401100159, 0.03353340923786163330, 0.06599443405866622925, 0.05096187815070152283, 0.00333516160026192665, -0.03447496145963668823, -0.00665880041196942329, 0.04111147671937942505, -0.05291835218667984009, 0.06134460493922233582, 0.05464562773704528809, 0.02504931204020977020, -0.00079209770774468780, -0.04802232235670089722, -0.02752821147441864014, 0.01422796398401260376, -0.03647479042410850525, -0.06159126013517379761, -0.04168886318802833557, 0.00921068433672189713, -0.02880338579416275024, 0.05730212479829788208, -0.06232855468988418579, -0.05442671477794647217, -0.04505284503102302551, 0.01121322717517614365, 0.03029559738934040070, -0.06257254630327224731, 0.05568489804863929749, 0.03866077959537506104, 0.06770300865173339844, -0.03112289682030677795, 0.06334915012121200562, -0.05518991872668266296, -0.02984648011624813080, -0.00565001415088772774, 0.00462530320510268211, -0.01327936071902513504, -0.06649188697338104248, -0.03380530700087547302, 0.04430916905403137207, -0.02428656071424484253, -0.06221454963088035583, 0.00065279041882604361, 0.02631735801696777344, 0.01626652106642723083, -0.05929360911250114441, -0.03518983721733093262, -0.02905441634356975555, -0.05233391746878623962, 0.00592580530792474747, -0.01378233451396226883, 0.02274838276207447052, -0.05636215955018997192, -0.00150438910350203514, -0.01362233236432075500, 0.05173529684543609619, -0.00318984151817858219, 0.03603328019380569458, -0.00978186912834644318, 0.05976415425539016724, -0.01078473310917615891, 0.05223672464489936829, 0.06640862673521041870, 0.06330540031194686890, -0.05420900508761405945, -0.01840708218514919281, -0.04908092692494392395, -0.02237655594944953918, -0.06747410446405410767, -0.02032352983951568604, 0.00743816141039133072, 0.03150938451290130615, 0.00374323828145861626, -0.02817890420556068420, 0.05468276515603065491, -0.06699554622173309326, 0.02529169060289859772, -0.05565974116325378418, -0.04561913013458251953, -0.06018354371190071106, 0.02986607141792774200, -0.04133474081754684448, 0.02965328842401504517, 0.03972328081727027893, 0.05536713823676109314, 0.00653660809621214867, -0.02828970737755298615, -0.01239984016865491867, -0.04707993939518928528, -0.01755293458700180054, -0.05900299176573753357, 0.04750246927142143250, -0.02748473733663558960, 0.03335235640406608582, -0.04374580085277557373, -0.00996079947799444199, 0.05378776043653488159, 0.00793085806071758270, -0.02923681959509849548, -0.00414189696311950684, -0.04620800912380218506, -0.03009827621281147003, -0.03940282016992568970, -0.06160059943795204163, -0.06263793259859085083, 0.06881674379110336304, -0.02965355291962623596, 0.05965293571352958679, -0.06360370665788650513, -0.01280769519507884979, 0.04144711792469024658, 0.05233604460954666138, -0.06196057423949241638, 0.02021510340273380280, 0.05895522981882095337, -0.06781333684921264648, -0.05041172355413436890, -0.03472715988755226135, -0.02979185432195663452, -0.06796115636825561523, 0.05347285419702529907, 0.00553537206724286079, 0.05722334235906600952, -0.04507886618375778198, -0.05033739656209945679, 0.05203497037291526794, 0.04865520447492599487, -0.03761256486177444458, -0.00807560607790946960, 0.03028946556150913239, 0.06958742439746856689, 0.06061830371618270874, -0.01316392328590154648, 0.01743877679109573364, 0.06377146393060684204, 0.02239865437150001526, 0.04877388477325439453, -0.01113126426935195923, 0.02846512943506240845, 0.03571979328989982605, 0.00486803054809570312, 0.05152547731995582581, -0.01484189927577972412, 0.04791501536965370178, -0.01026958413422107697, -0.05550370737910270691, 0.00269679841585457325, 0.03089481219649314880, 0.02469121851027011871, 0.05066626518964767456, 0.01431952510029077530, 0.00951865687966346741, 0.04077205061912536621, -0.00244860164821147919, 0.02452901564538478851, 0.02200252562761306763, 0.01698403805494308472, -0.02812558412551879883, -0.04957056418061256409, 0.00474569154903292656, -0.02830627746880054474, -0.04533408954739570618, 0.02974472194910049438, -0.06097002327442169189, -0.04141272231936454773, 0.01747989095747470856, -0.02208632230758666992, -0.06522886455059051514, 0.04327873513102531433, -0.03240201622247695923, -0.05829171091318130493, 0.03029241971671581268, 0.04085706546902656555, 0.01293107215315103531, 0.02620493806898593903, -0.01032095588743686676, -0.07020228356122970581, -0.04694543033838272095, 0.03351349756121635437, -0.03454265370965003967, 0.02444252371788024902, 0.05089304596185684204, 0.05114844441413879395, -0.02239320799708366394, -0.02410999312996864319, 0.04853469878435134888, -0.05862092599272727966, -0.03006672672927379608, -0.02301188558340072632, -0.01984493993222713470, 0.07038968056440353394, -0.06088399514555931091, 0.05611196532845497131, -0.05529516562819480896, 0.03137399628758430481, 0.03264367207884788513, -0.01485573593527078629, -0.03905487805604934692, 0.06792844831943511963, -0.04083444550633430481, -0.03350337594747543335, 0.06276901811361312866, -0.01151250954717397690, 0.06044938042759895325, -0.05013946071267127991, -0.05657834559679031372, -0.00169581070076674223, -0.04585167393088340759, -0.05280403420329093933, -0.00910190213471651077, -0.01651852764189243317, -0.03567828983068466187, 0.02084554545581340790, -0.04943180084228515625, -0.03643441200256347656, -0.01776481792330741882, 0.06030448898673057556, 0.03509499877691268921, -0.05147508904337882996, 0.04653870686888694763, 0.05005871132016181946, 0.05172107741236686707, -0.01506514474749565125, 0.02960627153515815735, -0.03838839381933212280, -0.01251016929745674133, 0.02409688383340835571, 0.06677711755037307739, -0.06220915541052818298, 0.03926913440227508545, -0.04084067046642303467, -0.01034289039671421051, 0.06099640950560569763, 0.02809838391840457916, 0.04154009744524955750, 0.04179360345005989075, 0.06677199155092239380, -0.01319477241486310959, 0.01234074123203754425, 0.01874291524291038513, 0.00323808752000331879, 0.06416817009449005127, 0.03161982074379920959, 0.05010710284113883972, 0.05703579634428024292, 0.05985385179519653320, -0.04293765872716903687, -0.06097231805324554443, -0.06280620396137237549, -0.00056805729400366545, 0.01187343429774045944, -0.04746104776859283447, -0.03125556930899620056, 0.06844187527894973755, -0.02020923979580402374, 0.04090874642133712769, 0.05948545783758163452, 0.06209628656506538391, 0.03319313377141952515, 0.03037335351109504700, -0.01850488409399986267, 0.04739397391676902771, 0.00007519172504544258, 0.03972664475440979004, -0.05227544531226158142, -0.02030454389750957489, 0.00525742024183273315, 0.03654615581035614014, -0.04979889839887619019, 0.01290810480713844299, -0.01295581459999084473, -0.01169581897556781769, -0.02359770610928535461, -0.05462891608476638794, -0.00240073516033589840, -0.03168367594480514526, 0.02954731509089469910, -0.06223077699542045593, 0.03561083972454071045, 0.04865563660860061646, -0.05351746827363967896, -0.00286850216798484325, 0.03307088837027549744, -0.01918804086744785309, 0.06006034463644027710, 0.03708548098802566528, 0.05260897427797317505, -0.03210117667913436890, 0.01612145453691482544, 0.03478756919503211975, 0.01125721074640750885, 0.06700307875871658325, -0.00861716270446777344, -0.02107025310397148132, 0.05611164495348930359, 0.00131573656108230352, -0.05279949679970741272, 0.06107868999242782593, -0.02003331854939460754, 0.05205864831805229187, -0.03766218200325965881, -0.06314285844564437866, -0.01055256556719541550, 0.05995608493685722351, 0.04982312768697738647, 0.06323742866516113281, 0.01010122708976268768, -0.05058488249778747559, 0.00369941443204879761, 0.00724583864212036133, 0.01534155756235122681, -0.04402607679367065430, 0.03364657610654830933, 0.00262296758592128754, -0.02626679278910160065, -0.02296344190835952759, -0.00137565983459353447, 0.04606031998991966248, -0.06164590269327163696, 0.01982004940509796143, 0.04932007938623428345, 0.03300315886735916138, 0.06716831773519515991, -0.03047432750463485718, -0.00982159003615379333, -0.01494472846388816833, 0.01384431496262550354, -0.04451244324445724487, 0.05911072343587875366, 0.04980690777301788330, 0.02635842189192771912, -0.06273106485605239868, -0.04507409036159515381, -0.04119312390685081482, -0.01834887079894542694, -0.05865028128027915955, 0.01235544867813587189, -0.04289966076612472534, -0.06011359393596649170, 0.03715639561414718628, 0.05091211944818496704, 0.05725126713514328003, 0.01472087670117616653, -0.06005005538463592529, 0.05356400832533836365, -0.04685617238283157349, 0.01427972875535488129, 0.00594840338453650475, -0.00675200624391436577, 0.03499351814389228821, -0.00042129165376536548, -0.06916439533233642578, -0.01374513097107410431, 0.00022566910774912685, -0.03489712625741958618, -0.01698779873549938202, -0.05925034359097480774, -0.02468978613615036011, 0.03250985592603683472, 0.06042128056287765503, 0.05937252566218376160, 0.06030298024415969849, 0.03275611251592636108, 0.05244667455554008484, 0.03703419864177703857, 0.03945733606815338135, -0.04271771758794784546, 0.01309026777744293213, -0.01042020879685878754, -0.06126366928219795227, 0.06448084861040115356, 0.01043926551938056946, -0.02728619612753391266, -0.05107676237821578979, -0.00141668366268277168, -0.04550780728459358215, 0.04178309440612792969, -0.03258121758699417114, -0.06698143482208251953, -0.06796073913574218750, 0.04566106200218200684, 0.02045672014355659485, -0.00687215570360422134, -0.06593281775712966919, -0.03003967180848121643, 0.03696139156818389893, 0.04452190548181533813, 0.02048575319349765778, -0.06255835294723510742, -0.04353157058358192444, -0.04017568007111549377, 0.00271693966351449490, 0.06416173279285430908, 0.06156270578503608704, 0.03440821170806884766, 0.02744201943278312683, 0.04356463998556137085, 0.03261423483490943909, -0.06415850669145584106, 0.00858555082231760025, 0.02852274663746356964, 0.03527691215276718140, -0.04314856231212615967, 0.00320795131847262383, 0.00169286318123340607, -0.03046492114663124084, -0.05565674230456352234, -0.03575145453214645386, -0.01200820598751306534, -0.05541625618934631348, 0.05288020521402359009, 0.02888106554746627808, 0.05309240147471427917, 0.00679250760003924370, -0.00072766735684126616, -0.03251118957996368408, 0.04083826765418052673, 0.03540267050266265869, 0.01314755529165267944, -0.03224197030067443848, 0.06925314664840698242, -0.00649323314428329468, -0.06827113032341003418, -0.01840591803193092346, -0.06275951117277145386, 0.02493841014802455902, 0.05429390072822570801, 0.02165955118834972382, -0.04568749293684959412, -0.02549365907907485962, 0.02507011778652667999, 0.00306252203881740570, -0.05346707627177238464, -0.03051436506211757660, -0.00360405165702104568, -0.02558592706918716431, 0.02409102208912372589, 0.05799076706171035767, -0.04475305229425430298, -0.01489015668630599976, 0.06394849717617034912, -0.05716436356306076050, -0.00347098079510033131, -0.04682385176420211792, -0.06617044657468795776, -0.06730180233716964722, -0.06967815756797790527, -0.00553880911320447922, 0.04405856505036354065, -0.00238106888718903065, -0.03296405076980590820, 0.06836163252592086792, 0.02666659280657768250, 0.04140991717576980591, 0.01660965196788311005, -0.06167683750391006470, -0.04100705310702323914, -0.06192743405699729919, 0.00082034518709406257, -0.05034286528825759888, 0.05196519568562507629, 0.06932816654443740845, -0.00779500184580683708, 0.05430588126182556152, 0.03752778470516204834, -0.05341664329171180725, 0.01211110781878232956, -0.05186076462268829346, -0.05171582847833633423, 0.01244924589991569519, 0.01968477666378021240, 0.02496118098497390747, -0.06212110817432403564, -0.03628435358405113220, -0.06598158925771713257, -0.04787107184529304504, -0.05380838736891746521, 0.01094529870897531509, -0.02458031103014945984, -0.02714494988322257996, -0.01307738665491342545, 0.03885320201516151428, -0.02305685356259346008, 0.00163605809211730957, 0.02340109087526798248, -0.01152524352073669434, -0.04367869719862937927, 0.06169873103499412537, -0.04866573214530944824, -0.03634856641292572021, -0.06666363775730133057, -0.00563459610566496849, -0.05669386312365531921, -0.00655169878154993057, -0.05621021613478660583, 0.03582354262471199036, 0.06830763816833496094, -0.01149289589375257492, 0.01672708429396152496, 0.05919903889298439026, 0.03703957051038742065, -0.00595133006572723389, -0.01281924173235893250, -0.00899435207247734070, 0.01739730313420295715, -0.04206987470388412476, -0.02434187196195125580, -0.02761832438409328461, 0.02354143373668193817, 0.00326371751725673676, -0.02034555003046989441, 0.03683221340179443359, -0.04260035976767539978, -0.03598600253462791443, 0.06453015655279159546, 0.00191467255353927612, -0.04745034128427505493, 0.06918154656887054443, 0.01157896034419536591, -0.00947143416851758957, -0.00112210412044078112, 0.06865305453538894653, -0.05143465846776962280, 0.07003810256719589233, 0.00906013697385787964, -0.02815295569598674774, 0.00795888155698776245, -0.05994480475783348083, -0.06749276816844940186, 0.04755695164203643799, -0.06513080000877380371, 0.00729049742221832275, 0.05302720516920089722, 0.02700161188840866089, 0.06910882890224456787, -0.05374124646186828613, 0.05963036045432090759, 0.04060113802552223206, -0.05193910375237464905, 0.01098242774605751038, -0.04485961049795150757, 0.00734072690829634666, 0.04824500158429145813, 0.04724511504173278809, 0.04505369067192077637, 0.03854637593030929565, 0.00996457785367965698, 0.03782062232494354248, -0.05078357085585594177, -0.06655485928058624268, 0.01998074539005756378, -0.00988093949854373932, 0.01257811300456523895, -0.00214722752571105957, 0.02968462929129600525, -0.06714970618486404419, 0.05001071095466613770, -0.04312529414892196655, -0.00447728484869003296, -0.00818093307316303253, 0.02782482095062732697, -0.05380159616470336914, 0.00227140029892325401, -0.03914304450154304504, -0.03521651774644851685, -0.05868493020534515381, -0.00490210345014929771, 0.00050325418123975396, -0.05915726348757743835, 0.02510643191635608673, -0.06478292495012283325, -0.05685908347368240356, -0.05624784156680107117, 0.02538229711353778839, -0.02060395292937755585, -0.02238951437175273895, 0.05477863550186157227, 0.04726292565464973450, 0.00336941983550786972, -0.00125219475012272596, 0.01044903136789798737, 0.00443256134167313576, 0.05662113800644874573, 0.02235172502696514130, 0.00090102863032370806, 0.06604331731796264648, -0.00861351843923330307, 0.06399857997894287109, 0.04893739894032478333, 0.02464149147272109985, -0.06106840446591377258, 0.00641818484291434288, -0.00309278862550854683, 0.04035571590065956116, -0.02972454577684402466, 0.06841721385717391968, -0.02146508358418941498, 0.02937141619622707367, 0.04304837435483932495, 0.05126198008656501770, 0.00127208197955042124, -0.04572096467018127441, 0.02434017695486545563, -0.02092490904033184052, 0.04236529022455215454, 0.03955853730440139771, -0.04502961784601211548, 0.06852787733078002930, 0.04224568977952003479, 0.07037817686796188354, 0.04428384453058242798, 0.02372575551271438599, 0.01234819926321506500, 0.04925905540585517883, -0.05977839976549148560, 0.04681327566504478455, 0.04832484573125839233, -0.03009468689560890198, -0.05169644206762313843, 0.01154565345495939255, 0.03349224478006362915, -0.04675285145640373230, -0.04184969514608383179, -0.02724487148225307465, 0.05340265482664108276, -0.00430358201265335083, 0.06299636512994766235, -0.06370476633310317993, 0.06747969239950180054, 0.00290021556429564953, 0.00901918392628431320, -0.06457644701004028320, -0.05764545872807502747, 0.05210248380899429321, -0.01531118247658014297, -0.02803660556674003601, -0.03385620936751365662, -0.05186120048165321350, 0.03000181540846824646, -0.00559580326080322266, 0.00504154851660132408, -0.05391590297222137451, 0.02744167484343051910, 0.02848940528929233551, 0.00469060707837343216, -0.03677792474627494812, -0.01943149976432323456, -0.01912139356136322021, -0.02371376194059848785, 0.01903750188648700714, 0.06868467479944229126, 0.02726851217448711395, 0.02975811436772346497, -0.06986617296934127808, -0.03967476263642311096, 0.02335765212774276733, -0.01552680507302284241, 0.06761225312948226929, 0.02960569225251674652, 0.05201885849237442017, 0.00385390315204858780, -0.02952285669744014740, -0.00364135205745697021, 0.05216779932379722595, 0.02992245554924011230, 0.00284047145396471024, 0.02424784190952777863, -0.03921266272664070129, 0.05035801976919174194, 0.00856760237365961075, 0.02514368295669555664, -0.06167825683951377869, -0.02759867906570434570, -0.01166516169905662537, -0.00229012244381010532, -0.03401722013950347900, -0.01345423050224781036, 0.00682689808309078217, -0.03777728602290153503, 0.01005935948342084885, 0.05599913373589515686, -0.03290954232215881348, 0.06938520073890686035, 0.05031797289848327637, -0.05948534607887268066, -0.01893540658056735992, 0.00366191565990447998, 0.05252955853939056396, -0.06502206623554229736, 0.06064149364829063416, 0.04628812149167060852, -0.05503455922007560730, -0.00063965469598770142, -0.04670313745737075806, -0.04965298250317573547, 0.02379599027335643768, -0.04736328870058059692, -0.04931472986936569214, -0.03420324251055717468, -0.00899328012019395828, 0.06797420233488082886, 0.00315687223337590694, 0.02901505678892135620, 0.06421545892953872681, 0.05746854096651077271, -0.06869039684534072876, 0.03077288717031478882, 0.05489820986986160278, -0.05785422772169113159, -0.05703131482005119324, -0.02345214039087295532, 0.06587418168783187866, -0.05402139574289321899, 0.04277836531400680542, -0.01851869001984596252, -0.06282450258731842041, -0.03078616783022880554, 0.03930818289518356323, 0.01324115972965955734, -0.03463101387023925781, 0.00188854569569230080, 0.04804904386401176453, 0.05944653972983360291, 0.03043447248637676239, -0.03658996894955635071, -0.00485584139823913574, 0.04294985532760620117, -0.04391449317336082458, -0.03476152569055557251, 0.02066541649401187897, -0.02677338197827339172, 0.05765477567911148071, 0.02357006445527076721, -0.01881859265267848969, 0.02760077640414237976, -0.03478036075830459595, -0.03595146909356117249, 0.06105649098753929138, -0.02870310470461845398, -0.05076264962553977966, 0.03609434515237808228, 0.03626151755452156067, -0.01946761272847652435, 0.03200636059045791626, 0.03240454941987991333, 0.05030770599842071533, 0.00404212065041065216, 0.02523202821612358093, -0.03992098569869995117, -0.02039792947471141815, -0.05567987635731697083, -0.00899057183414697647, -0.02216785587370395660, -0.00696176616474986076, -0.04382014647126197815, -0.01692633330821990967, 0.04351750761270523071, -0.00738993287086486816, 0.06392227858304977417, 0.01322436425834894180, 0.02726631611585617065, -0.05787215009331703186, -0.01359422318637371063, -0.01843766681849956512, -0.00897250976413488388, -0.02558045275509357452, -0.04837463796138763428, -0.00727802934125065804, -0.03136457875370979309, 0.06213743612170219421, -0.05663946270942687988, -0.06015507504343986511, -0.01593975722789764404, -0.05456437170505523682, 0.00592146581038832664, 0.01434110105037689209, -0.06384197622537612915, -0.03657648712396621704, 0.02714104205369949341, -0.04227379709482192993, -0.03596989437937736511, 0.05850474536418914795, 0.02158070728182792664, 0.03068192675709724426, -0.06244777515530586243, -0.03819023445248603821, 0.02238978073000907898, 0.04997804015874862671, -0.05832609906792640686, 0.06780362874269485474, -0.03034339100122451782, 0.03794570639729499817, -0.02732843160629272461, -0.03727576509118080139, 0.05270786210894584656, 0.01830943115055561066, -0.06158614531159400940, 0.05160409584641456604, -0.01223393902182579041, -0.06936621665954589844, 0.02154008857905864716, 0.02492096647620201111, 0.00116932019591331482, 0.06208414584398269653, 0.06811563670635223389, 0.00033881430863402784, -0.03636118024587631226, 0.04565667733550071716, -0.06205562129616737366, -0.02376425080001354218, -0.05840635672211647034, 0.04841288551688194275, -0.01658232510089874268, -0.03999948501586914062, 0.02252934873104095459, 0.06095035001635551453, 0.02211750112473964691, 0.01493882015347480774, -0.05779044330120086670, 0.04771748930215835571, -0.06582144647836685181, -0.02421584725379943848, 0.04078858345746994019, -0.01535025797784328461, 0.06771714985370635986, -0.05369750037789344788, -0.02762570232152938843, 0.02147223241627216339, 0.06413435190916061401, -0.01335765514522790909, 0.04260643571615219116, -0.04478314146399497986, 0.02531718648970127106, -0.06580858677625656128, 0.06064693629741668701, 0.06342227011919021606, -0.05482323467731475830, 0.00090288452338427305, -0.01949444599449634552, -0.04474379867315292358, -0.05199380591511726379, -0.06556754559278488159, 0.02878154069185256958, -0.06990888714790344238, -0.01744220964610576630, 0.04619231447577476501, 0.01810993067920207977, 0.05476759001612663269, 0.06838651001453399658, 0.05153241381049156189, 0.00556449359282851219, -0.05965648218989372253, 0.04624713212251663208, -0.00686445087194442749, -0.03766012564301490784, 0.06973049044609069824, 0.04768443107604980469, -0.06899597495794296265, 0.02968175709247589111, -0.02402546070516109467, -0.00441876472905278206, 0.02217193134129047394, -0.04036616533994674683, 0.00538995349779725075, -0.06511242687702178955, -0.05933290347456932068, 0.05913263931870460510, -0.01307900995016098022, 0.02006654627621173859, 0.03115504421293735504, 0.03511996567249298096, -0.02012942545115947723, 0.01001148577779531479, -0.04200557246804237366, -0.05512244254350662231, -0.01851964555680751801, -0.02958260849118232727, -0.06847888976335525513, -0.02690310031175613403, -0.06276763975620269775, 0.02188635617494583130, 			},
	{0.03781217709183692932, -0.00611444935202598572, -0.00275692320428788662, 0.03194159269332885742, 0.00759244710206985474, 0.01525051891803741455, 0.06990376859903335571, -0.02211437933146953583, 0.03762062638998031616, 0.02725757658481597900, 0.05127820745110511780, 0.01219122018665075302, -0.05262157693505287170, -0.04651008546352386475, -0.03046580404043197632, -0.00806730240583419800, 0.02635825425386428833, 0.01519879139959812164, 0.00304389744997024536, 0.06471236050128936768, -0.04408624395728111267, 0.01428075879812240601, -0.02760319039225578308, 0.04341326281428337097, 0.01405095309019088745, -0.04404848068952560425, -0.05572405084967613220, -0.02974636852741241455, 0.00791724957525730133, -0.06553205102682113647, -0.06914021074771881104, -0.02629983611404895782, -0.00859021767973899841, -0.07019082456827163696, -0.04441405832767486572, -0.04013863205909729004, -0.03005465492606163025, -0.00014072656631469727, 0.01919560134410858154, 0.01742810755968093872, 0.06348180770874023438, -0.06748868525028228760, 0.04493740200996398926, -0.00694646732881665230, -0.02465414069592952728, 0.00545737892389297485, 0.03518257290124893188, 0.00769187510013580322, 0.06715216487646102905, 0.06708328425884246826, -0.04376886412501335144, 0.02511556074023246765, -0.00105092744342982769, 0.02414696291089057922, 0.03473036736249923706, -0.03331534937024116516, -0.05137369781732559204, 0.03930737078189849854, -0.04546401277184486389, 0.06834363192319869995, -0.01122087333351373672, 0.05616503208875656128, 0.00092609412968158722, 0.04608220979571342468, -0.02757036872208118439, -0.06595842540264129639, -0.02624869346618652344, -0.04789365828037261963, 0.06075068563222885132, 0.05610574036836624146, -0.04070879518985748291, 0.02563943527638912201, 0.01461611874401569366, -0.00319151650182902813, 0.02524409070611000061, -0.04175258800387382507, 0.05476019158959388733, -0.04505173489451408386, 0.04793193936347961426, -0.03904709964990615845, -0.01166731584817171097, 0.00313857197761535645, -0.01991006359457969666, 0.04814853146672248840, 0.00809293985366821289, 0.02099401131272315979, 0.01193783432245254517, 0.06547461450099945068, 0.05334588140249252319, 0.02397175878286361694, -0.02531283907592296600, -0.01482205465435981750, -0.03351974114775657654, 0.06104094535112380981, -0.04062798991799354553, -0.03549684956669807434, 0.06690119951963424683, 0.03541918098926544189, 0.03612778335809707642, -0.01227273605763912201, -0.05381901562213897705, 0.05248927325010299683, -0.05432874336838722229, -0.06342994421720504761, -0.03313742950558662415, 0.05224340781569480896, -0.02977295406162738800, -0.00324269453994929790, -0.02671474032104015350, 0.03372320532798767090, -0.00185820308979600668, 0.03287526220083236694, 0.01164414267987012863, -0.00963934231549501419, 0.02055179327726364136, 0.05155314877629280090, -0.04260948300361633301, 0.02729236148297786713, -0.06468159705400466919, -0.00406979396939277649, 0.02893052995204925537, -0.04975565522909164429, -0.04872997477650642395, -0.01976906880736351013, -0.05147666484117507935, 0.04408410191535949707, -0.05948610231280326843, -0.04955271258950233459, 0.03217612206935882568, 0.05060452222824096680, -0.01139762345701456070, -0.05271685495972633362, -0.05273709446191787720, -0.04637270793318748474, 0.04593567550182342529, 0.01569049432873725891, 0.03903536126017570496, -0.00826666504144668579, -0.05287173390388488770, -0.02671574428677558899, -0.03607812151312828064, 0.06637277454137802124, 0.00336295692250132561, 0.00216258317232131958, -0.00595009746029973030, -0.01644865982234477997, -0.01471517235040664673, 0.02710067853331565857, 0.04404332116246223450, 0.04462321102619171143, 0.05786574259400367737, -0.00220431108027696609, 0.04784908145666122437, -0.02153312973678112030, 0.04106695577502250671, 0.00714816898107528687, -0.03202259540557861328, 0.00132787227630615234, 0.02919485792517662048, 0.04379047825932502747, -0.00900913402438163757, -0.03577790409326553345, -0.00708976248279213905, 0.02401452325284481049, -0.02374496683478355408, -0.00788307934999465942, -0.05412299558520317078, 0.02348952181637287140, -0.02364067733287811279, 0.00141875597182661295, -0.00938454829156398773, -0.05348660051822662354, 0.06624307483434677124, 0.05114995688199996948, 0.00388770969584584236, 0.03739747405052185059, -0.01365842111408710480, 0.03289652988314628601, -0.05070653185248374939, 0.05321474000811576843, -0.05201680958271026611, -0.06702625006437301636, 0.04488708823919296265, -0.06529089808464050293, 0.03773800283670425415, 0.03055414929986000061, 0.06802462786436080933, -0.03808639943599700928, -0.06548251956701278687, 0.01696537435054779053, -0.05700172483921051025, -0.01022739056497812271, -0.05577186495065689087, -0.06454950571060180664, 0.03890414535999298096, 0.03433779627084732056, -0.02792141214013099670, 0.01907049864530563354, -0.00089177023619413376, -0.04461018741130828857, 0.05660064518451690674, -0.03986541554331779480, -0.06349120289087295532, 0.05573331192135810852, 0.04130346700549125671, 0.05376680940389633179, -0.06492824107408523560, 0.00509722530841827393, -0.04610414803028106689, 0.05476713180541992188, -0.00238783657550811768, 0.01796452328562736511, 0.01146921422332525253, 0.04013041779398918152, -0.01681462116539478302, -0.03850940242409706116, -0.05901867896318435669, -0.06108159944415092468, 0.06431517750024795532, 0.02120327204465866089, 0.05838902294635772705, -0.04554098099470138550, -0.05164423584938049316, -0.06220240518450737000, -0.02960735745728015900, -0.05003572627902030945, 0.02896720916032791138, -0.04273205995559692383, -0.04739554226398468018, -0.00405014911666512489, 0.06937724351882934570, 0.00184716214425861835, 0.00427021784707903862, -0.02436691522598266602, -0.05436942353844642639, 0.05638882890343666077, -0.06738889962434768677, 0.02157987654209136963, -0.05491002649068832397, 0.03471168875694274902, -0.00433653173968195915, -0.00645621679723262787, 0.00519046280533075333, -0.01961735263466835022, -0.03976729884743690491, -0.02417468838393688202, -0.00074692862108349800, 0.01917213574051856995, -0.02211992442607879639, -0.03209492936730384827, -0.04983836784958839417, -0.06825266033411026001, -0.03941256552934646606, -0.01658252626657485962, -0.01212723273783922195, -0.06034347414970397949, 0.02502926997840404510, 0.05885541811585426331, -0.06005955860018730164, -0.02987517602741718292, -0.02346003055572509766, -0.03575604036450386047, -0.06824137270450592041, 0.05103480443358421326, -0.06868493556976318359, -0.05796496197581291199, -0.04060306400060653687, -0.00825039763003587723, 0.04611462727189064026, 0.02658373489975929260, -0.02402791567146778107, -0.03205715864896774292, -0.01739077642560005188, 0.02991959825158119202, 0.01438201218843460083, -0.04909905418753623962, -0.04310253635048866272, -0.05668920651078224182, 0.01115074008703231812, -0.03328071162104606628, -0.03684727102518081665, -0.01335287466645240784, -0.03953622654080390930, 0.00767857488244771957, 0.04063366726040840149, 0.02756242267787456512, -0.06882177293300628662, 0.01968740858137607574, 0.02624987252056598663, -0.01060277782380580902, -0.06594773381948471069, 0.06352646648883819580, -0.01048625819385051727, -0.03714842721819877625, 0.00470163626596331596, 0.00371027737855911255, -0.06137896329164505005, 0.05804432183504104614, -0.01975741796195507050, -0.04522559791803359985, 0.04042714834213256836, 0.06579121202230453491, -0.01804520189762115479, 0.00381376151926815510, -0.05024805665016174316, 0.00537438597530126572, -0.03636320680379867554, -0.04684611782431602478, -0.04921875149011611938, 0.01528988871723413467, 0.01344476640224456787, -0.00994748715311288834, -0.04689741507172584534, 0.03212673962116241455, 0.02773034945130348206, -0.05227765068411827087, -0.04333490505814552307, -0.01463381666690111160, 0.04055286198854446411, -0.03202063590288162231, 0.05829642713069915771, -0.05076950788497924805, 0.05915466696023941040, -0.03113351948559284210, -0.04784382507205009460, 0.06544643640518188477, -0.05021597445011138916, 0.00555838504806160927, -0.01663471385836601257, 0.00993806868791580200, -0.04859386384487152100, 0.00228022038936614990, -0.03871254995465278625, -0.03315201401710510254, -0.03715394809842109680, -0.03690695390105247498, -0.01011032983660697937, -0.03727000951766967773, 0.06003642082214355469, 0.03024823591113090515, 0.00394676718860864639, -0.01507424470037221909, 0.01746924035251140594, 0.04834051057696342468, -0.03833945468068122864, 0.03050917014479637146, 0.05522428825497627258, -0.02204463630914688110, 0.04361633956432342529, -0.01887641847133636475, -0.01593239791691303253, -0.01445488445460796356, -0.05974696204066276550, -0.06355151534080505371, 0.03132202103734016418, -0.01545275934040546417, 0.02313426695764064789, -0.03083562105894088745, -0.05844593793153762817, -0.05741621553897857666, 0.01839731633663177490, 0.04791999608278274536, 0.03284167125821113586, 0.05883832275867462158, 0.01120298914611339569, -0.02768840640783309937, 0.03994943201541900635, 0.04425298050045967102, -0.03400232642889022827, -0.00344163621775805950, -0.06368859112262725830, -0.04240256175398826599, 0.02638782560825347900, -0.01037818286567926407, -0.04693995788693428040, -0.05569679662585258484, -0.05845169723033905029, 0.02449015341699123383, 0.03388144448399543762, 0.06391196697950363159, 0.00558970728889107704, 0.04992624372243881226, 0.05484325811266899109, 0.02729603648185729980, -0.01745512709021568298, -0.03345438465476036072, -0.06046827137470245361, 0.05149595439434051514, -0.04120462387800216675, -0.03980536386370658875, 0.03365125134587287903, -0.01712511293590068817, -0.06836640834808349609, -0.03364027291536331177, 0.02191419526934623718, -0.03524158895015716553, -0.05007411539554595947, -0.04603970423340797424, -0.05220609158277511597, 0.00584479421377182007, -0.05798161029815673828, 0.03214770928025245667, -0.05688824132084846497, 0.00836946442723274231, 0.04708382487297058105, -0.03571153804659843445, 0.01307270489633083344, 0.04141839966177940369, 0.03486090898513793945, -0.01339356228709220886, -0.04701853916049003601, 0.01045192033052444458, 0.01990470290184020996, -0.01343045569956302643, 0.06364540755748748779, -0.01650012284517288208, -0.05435465648770332336, -0.06278914213180541992, -0.00333172758109867573, -0.02662073634564876556, -0.03560035303235054016, -0.06808292120695114136, -0.03929437324404716492, -0.05947823822498321533, -0.00229827594012022018, 0.06857270747423171997, -0.06574161350727081299, -0.03352445736527442932, 0.01487938407808542252, 0.06154522672295570374, -0.02292333543300628662, -0.05043749511241912842, 0.03195547685027122498, 0.03408236429095268250, 0.01974182762205600739, 0.06652892380952835083, 0.00769472122192382812, -0.06070991605520248413, 0.06991026550531387329, 0.04203087463974952698, -0.06027695164084434509, 0.05119493976235389709, -0.01574682444334030151, -0.06061109900474548340, -0.01433338131755590439, -0.04251016303896903992, 0.05512176081538200378, -0.03391968458890914917, 0.01254132483154535294, -0.03351598232984542847, 0.01848988980054855347, 0.03417967632412910461, 0.03649330511689186096, -0.04219217598438262939, -0.03415539488196372986, -0.06831365823745727539, -0.03477529063820838928, -0.02609757333993911743, 0.06497120857238769531, -0.01059283129870891571, -0.04143314436078071594, 0.03706498816609382629, 0.03788978233933448792, 0.00076276628533378243, -0.00046650599688291550, -0.04679153114557266235, -0.01101203821599483490, 0.01228543464094400406, 0.02835626713931560516, -0.05344665795564651489, 0.00328140892088413239, -0.01024804823100566864, -0.03300089016556739807, -0.02645149640738964081, -0.06873271614313125610, 0.00988664478063583374, -0.05827137455344200134, -0.05697744712233543396, 0.01172283664345741272, 0.06430362910032272339, 0.04677605256438255310, 0.02601555921137332916, -0.02081132121384143829, -0.06389087438583374023, -0.03435593098402023315, -0.02985340356826782227, -0.06285466998815536499, -0.03193440660834312439, -0.00127455301117151976, 0.02292376197874546051, 0.01094499975442886353, -0.05624656751751899719, -0.04942207410931587219, -0.04761136695742607117, -0.03253803029656410217, 0.05355924367904663086, -0.00433410983532667160, 0.05778870731592178345, 0.02570734731853008270, 0.06676004081964492798, 0.03866189718246459961, -0.01562841609120368958, 0.01777280122041702271, -0.02784696221351623535, 0.04204910621047019958, -0.06093136221170425415, -0.06941239535808563232, -0.06676220148801803589, -0.01940063200891017914, 0.07023771852254867554, 0.03766326233744621277, 0.00349316187202930450, 0.00407111644744873047, 0.04993964731693267822, -0.06748501956462860107, 0.02221419289708137512, 0.02964272163808345795, -0.05126806721091270447, 0.06726043671369552612, 0.02853471226990222931, 0.00788961630314588547, 0.00502206990495324135, 0.02820312790572643280, -0.01164217013865709305, 0.05936090648174285889, 0.05360063910484313965, -0.04876301065087318420, -0.00684993155300617218, 0.04666166007518768311, 0.06634964048862457275, -0.05184263363480567932, 0.05979825556278228760, -0.05684787780046463013, -0.01684359274804592133, 0.05462459474802017212, 0.02399721369147300720, 0.03503771126270294189, 0.02992067672312259674, 0.05558110401034355164, -0.05767771601676940918, -0.05445424839854240417, 0.02032549865543842316, -0.04294609278440475464, -0.06682404130697250366, 0.05954734981060028076, -0.05136514827609062195, 0.04439062997698783875, -0.02449999563395977020, -0.04229927435517311096, 0.02077252231538295746, 0.00509898178279399872, -0.05103899911046028137, 0.03095658682286739349, 0.06841034442186355591, 0.03931994736194610596, 0.04180780425667762756, 0.00104347872547805309, 0.02728575840592384338, -0.02561994083225727081, 0.03296161815524101257, 0.00929762423038482666, -0.01231599319726228714, 0.03177322447299957275, -0.01406479533761739731, 0.03468929231166839600, -0.06523100286722183228, -0.05827211961150169373, 0.01666396483778953552, -0.03151791170239448547, 0.01867939159274101257, 0.02047478780150413513, -0.03895472362637519836, -0.04152315855026245117, 0.03693261370062828064, -0.03272119164466857910, -0.06962814182043075562, 0.00705557875335216522, 0.06313999742269515991, -0.06528349965810775757, -0.03264803066849708557, -0.00525116920471191406, -0.00561409583315253258, 0.02774106338620185852, -0.06621054559946060181, -0.01257946714758872986, 0.00020295253489166498, -0.02425519004464149475, 0.06846667826175689697, -0.02182420156896114349, 0.05777902901172637939, 0.06254824250936508179, 0.06082891672849655151, 0.05303177610039710999, 0.04844062402844429016, 0.03726113960146903992, 0.04345798864960670471, -0.00253289402462542057, -0.03000911325216293335, 0.06340955942869186401, -0.03093109466135501862, -0.00368239730596542358, 0.02132149040699005127, 0.06165052950382232666, -0.04378763586282730103, 0.00664907973259687424, -0.05755007639527320862, 0.01957881450653076172, -0.06664395332336425781, 0.04006147012114524841, 0.00428318744525313377, -0.06388130038976669312, -0.04206233844161033630, 0.05127980187535285950, 0.02655778266489505768, -0.05179777368903160095, -0.02407447248697280884, 0.05089081451296806335, 0.03779388591647148132, -0.05264492705464363098, -0.00541760679334402084, 0.05347004532814025879, -0.05322244763374328613, -0.02584983594715595245, 0.00005481409971253015, -0.05953678488731384277, 0.01120489835739135742, 0.02153161168098449707, -0.04816193878650665283, -0.01393051538616418839, 0.03722976520657539368, -0.03175358101725578308, -0.06681869179010391235, 0.02181267738342285156, 0.01558446511626243591, -0.01536826696246862411, -0.02395162917673587799, 0.06865680217742919922, -0.05324288830161094666, -0.01094982214272022247, 0.01771123893558979034, 0.05263911187648773193, 0.05727456137537956238, 0.00536806322634220123, -0.05942789092659950256, -0.04973901808261871338, 0.01948205009102821350, -0.03799211233854293823, -0.03109310381114482880, 0.06795765459537506104, 0.03641876205801963806, -0.00388004072010517120, 0.04681127890944480896, -0.00682085612788796425, 0.02404539659619331360, -0.00393921555951237679, 0.04616397619247436523, 0.01584848389029502869, -0.01355551276355981827, -0.06611808389425277710, 0.03405008837580680847, -0.05121125280857086182, -0.04504785686731338501, -0.06767319142818450928, -0.01784674823284149170, 0.01993511989712715149, 0.03495394065976142883, 0.05478624999523162842, -0.06087041646242141724, 0.06912942975759506226, -0.03289745375514030457, 0.05837602168321609497, 0.03985426574945449829, -0.06776895374059677124, -0.06856933981180191040, -0.02192989364266395569, 0.05920752137899398804, 0.01725442521274089813, 0.01932003162801265717, -0.00364343076944351196, -0.05791569128632545471, -0.05744800344109535217, 0.04133395478129386902, -0.02826121263206005096, 0.06590749323368072510, 0.05209872126579284668, 0.03033930435776710510, 0.05527710542082786560, 0.00273058959282934666, -0.06167719140648841858, -0.02873973548412322998, 0.04501752555370330811, -0.06096079200506210327, -0.05451221019029617310, -0.02336864173412322998, 0.03081982024013996124, -0.01644877903163433075, -0.06600136309862136841, -0.04185776412487030029, 0.06630228459835052490, -0.04030402749776840210, -0.05920350179076194763, 0.02192529477179050446, -0.03043807856738567352, 0.01976208947598934174, -0.00871242675930261612, -0.00607265299186110497, 0.02067471109330654144, -0.00295241945423185825, -0.01429326646029949188, 0.06108706817030906677, -0.05402516201138496399, 0.02282170578837394714, -0.05278794467449188232, -0.04897686839103698730, 0.00339064816944301128, 0.01839148998260498047, 0.00052335968939587474, -0.01810291782021522522, -0.03402913361787796021, -0.05295307189226150513, 0.05423853173851966858, -0.03646664321422576904, -0.01828085817396640778, -0.02298131026327610016, 0.04898225143551826477, -0.06218130141496658325, 0.04574333131313323975, -0.04170987382531166077, -0.02866058051586151123, 0.06485449522733688354, -0.02461228147149085999, -0.01447443012148141861, 0.00067112658871337771, -0.01618247665464878082, 0.04995606839656829834, 0.06086455658078193665, 0.01206883694976568222, -0.03763043507933616638, 0.00863566063344478607, -0.04331598058342933655, -0.04892252013087272644, 0.05534609407186508179, 0.02091788128018379211, -0.00821244437247514725, 0.00769719062373042107, 0.05274162441492080688, -0.01221568975597620010, -0.04178192839026451111, 0.01821905374526977539, 0.05127613246440887451, -0.00322454841807484627, -0.04421480372548103333, -0.03938153013586997986, -0.05881528928875923157, 0.06880187243223190308, 0.05002216622233390808, -0.00395381450653076172, 0.04021260887384414673, 0.04295707121491432190, -0.05060877278447151184, 0.06616065651178359985, 0.04374113306403160095, 0.00218482781201601028, -0.05054823681712150574, 0.03069291450083255768, -0.01056106388568878174, 0.02629535086452960968, -0.04095208272337913513, -0.05183726176619529724, -0.01106128748506307602, -0.02528782561421394348, 0.06813227385282516479, 0.00675074756145477295, -0.03556880354881286621, -0.00222325813956558704, -0.02479408681392669678, 0.00218577403575181961, 0.06344436854124069214, 0.04721469059586524963, -0.02337919361889362335, -0.01312595885246992111, -0.00470117060467600822, -0.01183966640383005142, -0.00930894631892442703, -0.03675648942589759827, 0.04489606618881225586, -0.05416771024465560913, 0.01898198947310447693, 0.01004129368811845779, -0.04248902201652526855, -0.03574484586715698242, -0.03852513059973716736, 0.03428636491298675537, -0.01752596348524093628, 0.05042671039700508118, 0.01666705310344696045, 0.04972781985998153687, -0.03578146547079086304, -0.03678041324019432068, 0.03031834959983825684, -0.02203747816383838654, 0.03664371371269226074, -0.03146677464246749878, -0.03887158632278442383, -0.05960549786686897278, 0.03265405818819999695, -0.03944256529211997986, 0.01921605318784713745, 0.00307162338867783546, -0.00263575604185461998, -0.05524327233433723450, 0.05491099506616592407, 0.02131665684282779694, -0.06852632015943527222, 0.01495092641562223434, -0.04447196424007415771, -0.04096324741840362549, -0.06912685185670852661, -0.00673061609268188477, -0.02703983895480632782, -0.03091992065310478210, -0.00250723911449313164, 0.05562650039792060852, -0.04125822708010673523, 0.01105783227831125259, -0.01795009709894657135, -0.00674856593832373619, 0.03816361725330352783, 0.03220462054014205933, 0.02209581807255744934, -0.03487128764390945435, 0.01513146143406629562, 0.02682913653552532196, 0.02302724495530128479, -0.01005502417683601379, 0.01652220822870731354, -0.06889058649539947510, 0.04119267314672470093, 0.01489879097789525986, 0.02637578174471855164, 0.02555738575756549835, -0.02254008874297142029, 0.00095546292141079903, 0.03647937625646591187, 0.02345122396945953369, -0.05887243151664733887, 0.02668746933341026306, -0.00258749141357839108, -0.01450418308377265930, -0.06537136435508728027, 0.04905284568667411804, 0.02555428072810173035, -0.02344080246984958649, 0.03111648000776767731, -0.00721155386418104172, 0.04716055467724800110, 0.04022332653403282166, -0.02292842417955398560, -0.03181539103388786316, 0.02286276593804359436, 0.04878161102533340454, 0.05431982874870300293, 0.04216545820236206055, -0.02634790726006031036, -0.01475774124264717102, -0.05309050530195236206, 0.04735491424798965454, -0.01452422235161066055, 0.04468236863613128662, 0.03487347066402435303, -0.00067900971043854952, 0.06992832571268081665, 0.04698314517736434937, 0.01384730823338031769, -0.05675290152430534363, -0.00070765567943453789, -0.05813256651163101196, -0.05941944196820259094, 0.01107621099799871445, -0.02541880868375301361, 0.00430354150012135506, -0.00126023590564727783, -0.01535387150943279266, -0.01564063504338264465, -0.00406686915084719658, 0.06435514986515045166, -0.00727676274254918098, -0.05210238322615623474, 0.04922673851251602173, 0.02949085831642150879, 0.03535809740424156189, -0.03432366624474525452, 0.04280863702297210693, 0.02257178537547588348, 0.06586471199989318848, 0.01350853405892848969, 0.02786510065197944641, 0.05698415264487266541, -0.01212793122977018356, -0.01342880260199308395, 0.06805652379989624023, 0.04042906686663627625, -0.00176493544131517410, -0.04229723662137985229, 0.02060372009873390198, 0.03060908615589141846, -0.02759964205324649811, -0.02664966881275177002, -0.04247817769646644592, -0.04142773523926734924, 0.03986468538641929626, 0.02287420630455017090, 0.04605930298566818237, -0.01712163910269737244, 0.05217678844928741455, -0.02976698055863380432, 0.06914513558149337769, -0.01053169183433055878, -0.01781282573938369751, -0.03721679374575614929, 0.04417375475168228149, -0.06739261001348495483, 0.02525505609810352325, 0.04484943300485610962, 0.03329881280660629272, 0.06275434046983718872, 0.00165187125094234943, -0.02059589140117168427, 0.06433670967817306519, -0.06597611308097839355, 0.00973542500287294388, 0.03928792104125022888, 0.04168735444545745850, -0.03310999274253845215, -0.05468243360519409180, -0.01112161763012409210, -0.03114720247685909271, -0.02412793412804603577, -0.01948837377130985260, 0.01890658773481845856, -0.01468485873192548752, -0.00620416551828384399, 0.01908894628286361694, 0.02357833087444305420, -0.00931465532630681992, -0.02818568795919418335, -0.04433841258287429810, 0.05815463140606880188, -0.05189084261655807495, 0.05565505474805831909, -0.00507466495037078857, -0.05560745671391487122, 0.00438897591084241867, 0.06746921688318252563, -0.04799641296267509460, -0.00979101285338401794, 0.06431730836629867554, -0.06286118179559707642, -0.00728590274229645729, 0.06173672154545783997, -0.00589655106887221336, -0.03064163401722908020, 0.03475786000490188599, -0.02857066318392753601, -0.05572820454835891724, 0.04452990368008613586, -0.04950460791587829590, 0.06672713160514831543, -0.03378740325570106506, -0.00231540203094482422, 0.06356608867645263672, 0.05301412194967269897, -0.04160749539732933044, 0.01806470006704330444, 0.00113909901119768620, -0.00769522041082382202, -0.00160744041204452515, 0.02598954178392887115, -0.06488631665706634521, -0.05095062032341957092, 0.03033393993973731995, -0.04300967231392860413, 0.05872085317969322205, 0.05063576623797416687, -0.03984709456562995911, -0.06451255083084106445, 0.02503905072808265686, 0.02712659537792205811, 0.05223517492413520813, -0.06334231048822402954, 0.01077950280159711838, 0.00079243234358727932, -0.06551624834537506104, 0.01491724979132413864, -0.03423465043306350708, -0.01538525521755218506, 0.00650099664926528931, -0.06640230119228363037, 0.02154904045164585114, 0.05429551377892494202, -0.05522728711366653442, 0.03273546323180198669, -0.01281435415148735046, -0.05581384152173995972, -0.06507362425327301025, -0.02427656203508377075, 0.05185465142130851746, 0.00585679523646831512, 0.04025735333561897278, 0.03672037273645401001, 0.05617823451757431030, -0.02771218679845333099, 0.03903169184923171997, 0.02749964594841003418, 0.01453733723610639572, 0.04677856341004371643, -0.02361840568482875824, -0.01297500729560852051, -0.02641142345964908600, 0.05004194378852844238, 0.02479617670178413391, 0.01017443835735321045, 0.05282342061400413513, -0.01577491872012615204, 0.05448509380221366882, -0.04565292596817016602, -0.02038147486746311188, -0.04859652370214462280, 0.00580339366570115089, -0.06497767567634582520, 0.00200752681121230125, 0.02597699500620365143, -0.04513952881097793579, 0.03014305606484413147, -0.01118914131075143814, -0.06039783731102943420, -0.02099104411900043488, -0.03817993402481079102, 0.04769796878099441528, -0.02645712159574031830, -0.03212570399045944214, -0.00114388240035623312, -0.01704841107130050659, -0.01379563007503747940, 0.05918175354599952698, 0.01039909198880195618, -0.03461296856403350830, -0.06167210638523101807, 0.07013160735368728638, -0.00790082663297653198, 0.06785209476947784424, -0.04832344874739646912, 0.03520083054900169373, -0.06667496263980865479, 0.01702099293470382690, 0.04489944130182266235, -0.04043617099523544312, 0.02766221761703491211, -0.00287957815453410149, 0.06711354851722717285, 0.00406369240954518318, 0.03069696202874183655, 0.06139567494392395020, 0.03081415593624114990, -0.01652005687355995178, 0.02246551215648651123, -0.04431902244687080383, -0.00515362620353698730, 0.03242717683315277100, -0.02735074236989021301, 0.00823967438191175461, 0.00955734401941299438, -0.00716992933303117752, 0.06698606908321380615, -0.04215417429804801941, 0.06871658563613891602, -0.05645453929901123047, 0.03825650736689567566, 0.01990945450961589813, -0.02301714196801185608, 0.01962601765990257263, 0.01307086087763309479, 0.02572036534547805786, 0.04989021271467208862, -0.04721376299858093262, 0.04437515884637832642, 0.01153986435383558273, -0.02849039249122142792, 0.03805449232459068298, 0.04654198512434959412, 0.04191512241959571838, -0.02105427905917167664, 0.03167398273944854736, 0.05408225208520889282, -0.03329541906714439392, 0.00447917031124234200, 0.05245466902852058411, 0.05024456977844238281, 0.04956048354506492615, -0.05770459771156311035, -0.02281989157199859619, -0.06437933444976806641, -0.06689136475324630737, -0.01260484568774700165, -0.04330644756555557251, -0.04504707083106040955, 0.05946197360754013062, -0.03926037997007369995, 0.06385380029678344727, -0.05138150602579116821, 0.04740689322352409363, -0.03559831902384757996, -0.03476169705390930176, -0.01230609603226184845, -0.05309001728892326355, -0.02220984175801277161, -0.00107417278923094273, 0.03898539021611213684, 0.00514169409871101379, 0.00120589125435799360, 0.01262453291565179825, -0.02236805856227874756, -0.05275028944015502930, 0.01389779988676309586, -0.05370478332042694092, 0.05059633404016494751, -0.01219388376921415329, 0.06124288588762283325, -0.04544825479388237000, -0.01148267835378646851, 0.03078917972743511200, -0.01230391766875982285, 0.06328038126230239868, -0.06819481402635574341, 0.06452617794275283813, 0.05523364990949630737, 0.02549736388027667999, 0.04419712349772453308, 0.01616032421588897705, -0.02212416380643844604, 0.03656259924173355103, -0.00578908203169703484, -0.06866601854562759399, 0.06492289900779724121, -0.03141606599092483521, -0.00150154647417366505, -0.02838099934160709381, 0.01794674247503280640, 0.01007120870053768158, -0.01384262181818485260, -0.03997988998889923096, 0.00282879406586289406, 			},
