#ifndef _DENSE6_WEIGHTS_BIAS_H_
#define _DENSE6_WEIGHTS_BIAS_H_

#include "process_element.h"

data_t L6_neure_weights[L6_neure_number][L6_input_fmap_size] = {
	{-0.09163033217191696167, -0.09206974506378173828, -0.22397622466087341309, -0.15655918419361114502, -0.05704053491353988647, 0.13019181787967681885, -0.18220677971839904785, 0.13919998705387115479, -0.16921742260456085205, -0.17545783519744873047, 0.02167549729347229004, 0.29170688986778259277, 0.33204218745231628418, 0.14225021004676818848, -0.13394771516323089600, 0.12851910293102264404, 0.11387038230895996094, 0.04546037316322326660, 0.10816617310047149658, -0.14345921576023101807, -0.28498253226280212402, 0.25129431486129760742, 0.20395846664905548096, -0.24246464669704437256, 0.28380608558654785156, 0.28082448244094848633, 0.22259446978569030762, -0.28712931275367736816, -0.16309359669685363770, 0.13989052176475524902, 0.21890057623386383057, -0.07777874171733856201, -0.04880352690815925598, -0.06923231482505798340, -0.10542186349630355835, 0.25010636448860168457, 0.11344731599092483521, 0.25227439403533935547, -0.27649953961372375488, -0.10858955979347229004, -0.13167880475521087646, 0.20468702912330627441, 0.01420318055897951126, 0.01250513922423124313, 0.21063053607940673828, -0.30326414108276367188, 0.15565630793571472168, -0.28474941849708557129, 0.00657120393589138985, 0.25056266784667968750, 0.05471829324960708618, -0.02207861654460430145, -0.11310501396656036377, 0.04992470517754554749, 0.13441668450832366943, -0.12162890285253524780, 0.25654616951942443848, 0.11337481439113616943, 0.26593312621116638184, 0.00414529256522655487, -0.20847038924694061279, -0.25814515352249145508, 0.27468577027320861816, -0.06644499301910400391, 			},
	{0.13037621974945068359, 0.05769909173250198364, -0.15185053646564483643, 0.06530547142028808594, -0.22920040786266326904, 0.13685245811939239502, -0.25817847251892089844, -0.20412087440490722656, 0.19922070205211639404, -0.11442157626152038574, 0.13924488425254821777, -0.05291857942938804626, 0.13792468607425689697, -0.32670509815216064453, 0.06416927278041839600, -0.10871404409408569336, 0.10390641540288925171, -0.07877281308174133301, -0.14047406613826751709, -0.17344957590103149414, 0.28443467617034912109, -0.36588838696479797363, -0.22784532606601715088, 0.22411976754665374756, -0.03898222371935844421, -0.00259099830873310566, 0.22888125479221343994, -0.04481145367026329041, -0.15549564361572265625, 0.18156749010086059570, 0.17693875730037689209, -0.27529355883598327637, 0.06870988756418228149, 0.01067997515201568604, -0.10657531023025512695, 0.16807463765144348145, -0.03630099445581436157, -0.07944205403327941895, 0.00845902133733034134, -0.00527183013036847115, -0.26095041632652282715, 0.22252324223518371582, -0.02624796144664287567, 0.03473893925547599792, 0.02813402190804481506, 0.25169891119003295898, 0.04049205034971237183, 0.13679131865501403809, 0.29887428879737854004, -0.11611724644899368286, -0.10685055702924728394, -0.17434665560722351074, 0.27327921986579895020, -0.26088193058967590332, 0.09036525338888168335, -0.02704159729182720184, 0.22739303112030029297, -0.36899992823600769043, -0.09660261124372482300, -0.03148856759071350098, 0.11346750706434249878, -0.14290162920951843262, 0.29582160711288452148, 0.01201895624399185181, 			},
	{0.15232487022876739502, -0.00686923274770379066, -0.14354828000068664551, -0.12383808195590972900, -0.05565496534109115601, 0.12953121960163116455, 0.17864841222763061523, 0.02518965490162372589, 0.22381311655044555664, -0.04582353308796882629, -0.04697699844837188721, -0.21663713455200195312, -0.16396100819110870361, 0.32048293948173522949, -0.29339995980262756348, -0.13884012401103973389, 0.04588754475116729736, 0.30551648139953613281, -0.12144239246845245361, -0.07277904450893402100, 0.28565621376037597656, -0.19906908273696899414, 0.10634512454271316528, 0.25348487496376037598, 0.16398954391479492188, 0.04533597826957702637, -0.34085968136787414551, 0.17819996178150177002, -0.24010843038558959961, -0.06106363236904144287, -0.22834596037864685059, -0.07754327356815338135, 0.07256830483675003052, 0.02829244360327720642, 0.13372696936130523682, -0.22898837924003601074, -0.01352410111576318741, -0.05552726238965988159, -0.00182531855534762144, -0.21237231791019439697, 0.16537460684776306152, 0.01222624257206916809, -0.04494206607341766357, -0.09732726216316223145, 0.13501586019992828369, -0.33347967267036437988, 0.14413562417030334473, 0.01235448662191629410, -0.11658601462841033936, -0.00960501283407211304, 0.04391408339142799377, 0.28280216455459594727, 0.13773828744888305664, -0.10157448053359985352, -0.20319263637065887451, -0.14057712256908416748, -0.18807612359523773193, -0.31254747509956359863, 0.11761891096830368042, -0.02474643290042877197, -0.03333163261413574219, -0.33866319060325622559, -0.16969045996665954590, -0.06210518628358840942, 			},
	{-0.21528102457523345947, 0.06361587345600128174, -0.12884634733200073242, -0.06438809633255004883, -0.19364625215530395508, -0.22332625091075897217, 0.27071082592010498047, 0.25326171517372131348, -0.00567402783781290054, -0.05603285133838653564, -0.14729844033718109131, 0.14009310305118560791, -0.12636421620845794678, -0.04274886474013328552, 0.10475423187017440796, -0.05675959587097167969, 0.24005001783370971680, -0.19311834871768951416, -0.10010875761508941650, -0.26591166853904724121, 0.04245394840836524963, -0.22294528782367706299, 0.15468677878379821777, 0.21646276116371154785, 0.16684997081756591797, 0.21725220978260040283, -0.20342689752578735352, -0.25942620635032653809, -0.26826766133308410645, 0.07889205217361450195, -0.02668185345828533173, 0.06017551571130752563, 0.18137545883655548096, -0.08834606409072875977, 0.17601488530635833740, 0.24806594848632812500, -0.16270211338996887207, -0.30794224143028259277, 0.10369243472814559937, 0.04031171649694442749, 0.11292039602994918823, 0.13209983706474304199, -0.23757329583168029785, -0.02131633087992668152, -0.00607556989416480064, 0.12823653221130371094, 0.05094763264060020447, 0.27338668704032897949, -0.17583766579627990723, -0.09603572636842727661, 0.31288778781890869141, 0.17334848642349243164, 0.16539284586906433105, 0.14269426465034484863, -0.13038328289985656738, 0.22611106932163238525, -0.31406483054161071777, -0.23826448619365692139, 0.23887833952903747559, 0.04697951301932334900, 0.18027120828628540039, 0.04081661254167556763, -0.06352159380912780762, -0.08921661972999572754, 			},
	{-0.27763414382934570312, -0.26066687703132629395, -0.10051088780164718628, 0.02763104438781738281, -0.24441495537757873535, -0.00629963446408510208, 0.12893196940422058105, -0.13251894712448120117, 0.31616526842117309570, -0.30167007446289062500, -0.11826615035533905029, 0.09087690711021423340, 0.26857072114944458008, -0.19283300638198852539, -0.19901975989341735840, 0.08314815163612365723, 0.14306920766830444336, 0.24988467991352081299, 0.09946954995393753052, 0.19088897109031677246, -0.08872389048337936401, -0.03262334689497947693, -0.17620368301868438721, 0.22082991898059844971, 0.08553243428468704224, 0.06255909800529479980, -0.27175402641296386719, -0.15549366176128387451, 0.29013338685035705566, 0.14632749557495117188, 0.02239789254963397980, 0.01978589408099651337, -0.34000149369239807129, -0.21788942813873291016, -0.32211402058601379395, -0.15187254548072814941, 0.25588268041610717773, 0.09662530571222305298, -0.26432445645332336426, -0.03943853452801704407, -0.30752709507942199707, -0.16378013789653778076, -0.16896791756153106689, -0.04163439571857452393, -0.03997541218996047974, 0.29971140623092651367, -0.20984236896038055420, 0.33041560649871826172, -0.08451455086469650269, -0.04985072836279869080, 0.01383774355053901672, 0.18718801438808441162, -0.21312367916107177734, -0.07580767571926116943, 0.04801198467612266541, -0.07167069613933563232, -0.12995374202728271484, 0.25965774059295654297, 0.09390035271644592285, 0.33887818455696105957, -0.11291559785604476929, -0.08929769694805145264, -0.17969988286495208740, -0.22162555158138275146, 			},
	{-0.30939245223999023438, 0.19473493099212646484, -0.33237248659133911133, 0.07319262623786926270, -0.20073477923870086670, 0.07392262667417526245, -0.02822057530283927917, -0.19984847307205200195, -0.11525390297174453735, 0.00537577783688902855, -0.02061465382575988770, -0.17699493467807769775, -0.12647910416126251221, 0.18778450787067413330, 0.04649003222584724426, 0.04059108719229698181, 0.09518530219793319702, 0.20904281735420227051, -0.11804223060607910156, 0.07066619396209716797, 0.20251108705997467041, 0.23283800482749938965, -0.26347976922988891602, -0.24987992644309997559, -0.17529666423797607422, -0.11149542033672332764, 0.34342053532600402832, 0.35578256845474243164, 0.14324307441711425781, -0.02666687965393066406, -0.27678442001342773438, 0.24539087712764739990, -0.19778992235660552979, 0.27491241693496704102, 0.04471339285373687744, 0.10221771150827407837, 0.17610250413417816162, -0.12265124917030334473, -0.20156788825988769531, -0.24382169544696807861, 0.23679962754249572754, -0.12877666950225830078, 0.07865546643733978271, -0.03213012963533401489, -0.16857790946960449219, -0.18175435066223144531, 0.03546561673283576965, -0.09677822142839431763, -0.03584185242652893066, -0.00793034397065639496, -0.04882327094674110413, 0.17944288253784179688, -0.11031824350357055664, -0.12157873064279556274, -0.25183537602424621582, 0.14182832837104797363, -0.12098032236099243164, -0.13764965534210205078, -0.08930347859859466553, -0.25212681293487548828, -0.26568201184272766113, 0.11472366750240325928, -0.12038857489824295044, 0.13030031323432922363, 			},
	{-0.12879425287246704102, -0.18763874471187591553, -0.25783979892730712891, 0.12242165207862854004, 0.12011191248893737793, -0.10294868052005767822, -0.08660749346017837524, -0.23198391497135162354, -0.28488644957542419434, -0.18358355760574340820, -0.01709339022636413574, -0.04338551685214042664, 0.13105273246765136719, 0.09486001729965209961, 0.24794539809226989746, -0.28282105922698974609, -0.16376245021820068359, -0.22744561731815338135, 0.29053133726119995117, -0.10552789270877838135, -0.05022484809160232544, -0.06220285594463348389, 0.14200383424758911133, -0.11946115642786026001, 0.06086895614862442017, 0.31875807046890258789, 0.15284052491188049316, 0.14554497599601745605, -0.14916962385177612305, -0.14434832334518432617, 0.20308649539947509766, 0.21163518726825714111, -0.08361943811178207397, -0.02546721510589122772, 0.11235660314559936523, -0.11544268578290939331, -0.09934427589178085327, 0.13252253830432891846, 0.06790609657764434814, -0.20695185661315917969, -0.32530930638313293457, -0.15108963847160339355, 0.10594303905963897705, 0.30390170216560363770, 0.23060035705566406250, -0.15210092067718505859, 0.16433167457580566406, -0.29264059662818908691, -0.28777277469635009766, -0.16984312236309051514, 0.15991090238094329834, -0.33368700742721557617, -0.18507367372512817383, -0.19601106643676757812, 0.03338017687201499939, -0.27690526843070983887, -0.29582139849662780762, 0.26815757155418395996, -0.03559812530875205994, 0.33980411291122436523, -0.12411572784185409546, 0.13841629028320312500, -0.18329033255577087402, 0.15649282932281494141, 			},
	{-0.10388403385877609253, 0.17302222549915313721, 0.23932136595249176025, -0.09962747991085052490, 0.25437214970588684082, -0.15754455327987670898, -0.12689557671546936035, -0.24851781129837036133, 0.21437472105026245117, -0.04248511791229248047, 0.24151107668876647949, -0.11005443334579467773, 0.05140537023544311523, 0.25795343518257141113, -0.13221417367458343506, 0.01457360759377479553, 0.25378665328025817871, 0.07238185405731201172, 0.03547365590929985046, 0.08120100200176239014, -0.12697441875934600830, -0.19169956445693969727, 0.25509008765220642090, -0.11267297714948654175, -0.00981561280786991119, -0.34980329871177673340, 0.00475330417975783348, -0.29844254255294799805, 0.06798885762691497803, -0.16527566313743591309, -0.01125940214842557907, -0.00933572743088006973, -0.24669134616851806641, 0.05930601060390472412, -0.26673400402069091797, -0.29772123694419860840, -0.25429046154022216797, 0.05662758648395538330, 0.31913614273071289062, 0.31675943732261657715, 0.09904649853706359863, -0.15111529827117919922, -0.11170079559087753296, 0.12537574768066406250, -0.27548378705978393555, 0.01452451758086681366, 0.02329684235155582428, -0.29241189360618591309, 0.35922303795814514160, -0.10448958724737167358, -0.09239961951971054077, 0.06513573974370956421, 0.04099991917610168457, -0.14621832966804504395, 0.04883795976638793945, 0.18137791752815246582, 0.31903573870658874512, -0.33593755960464477539, -0.13611856102943420410, 0.22916281223297119141, -0.26243436336517333984, -0.07162513583898544312, 0.07339381426572799683, -0.26530480384826660156, 			},
	{0.20113287866115570068, -0.27280786633491516113, -0.29448840022087097168, 0.27889868617057800293, 0.16362001001834869385, -0.03685577958822250366, -0.11764944344758987427, 0.03818916529417037964, -0.06826767325401306152, -0.15741750597953796387, -0.02525141276419162750, 0.15148329734802246094, -0.02042643725872039795, -0.22799274325370788574, -0.06158855184912681580, 0.11319409310817718506, 0.02859228476881980896, -0.30154258012771606445, -0.27053114771842956543, 0.27814298868179321289, -0.18273453414440155029, 0.21044841408729553223, 0.24945823848247528076, 0.08969507366418838501, -0.06048807501792907715, 0.19715951383113861084, -0.01508591789752244949, -0.21164914965629577637, 0.06690467894077301025, 0.23938032984733581543, -0.08783289045095443726, -0.19361394643783569336, 0.21967817842960357666, 0.27398273348808288574, 0.09599381685256958008, -0.27241575717926025391, 0.01514835469424724579, 0.18416740000247955322, -0.13423876464366912842, 0.27072018384933471680, -0.00970213022083044052, -0.05128418281674385071, 0.22034387290477752686, 0.01798552460968494415, 0.04724585264921188354, 0.23919856548309326172, 0.13132095336914062500, -0.22343923151493072510, 0.00098335801158100367, -0.00841295998543500900, 0.08591027557849884033, -0.34561604261398315430, -0.04966071248054504395, 0.06076642870903015137, 0.15950888395309448242, -0.03577212616801261902, -0.24327898025512695312, 0.27105826139450073242, 0.29679837822914123535, -0.27409172058105468750, 0.04150155186653137207, 0.21507970988750457764, -0.10400802642107009888, 0.02352412045001983643, 			},
	{0.13515377044677734375, -0.26168012619018554688, -0.02355461381375789642, -0.15348421037197113037, -0.26148241758346557617, -0.32123622298240661621, 0.20084516704082489014, -0.29012084007263183594, -0.05430703982710838318, -0.01455769687891006470, -0.01381672080606222153, 0.11310052126646041870, -0.05388584360480308533, -0.23744171857833862305, 0.04168065637350082397, -0.19065603613853454590, -0.19785478711128234863, -0.02008631452918052673, -0.22345606982707977295, -0.23785983026027679443, 0.26330378651618957520, 0.11110161244869232178, 0.23867487907409667969, -0.23555940389633178711, 0.04568786919116973877, 0.26903456449508666992, -0.07851090282201766968, -0.20882435142993927002, -0.04384068772196769714, 0.27585914731025695801, -0.21877944469451904297, -0.02864129282534122467, 0.31763106584548950195, 0.28177616000175476074, -0.30830916762351989746, -0.05310558900237083435, 0.18678247928619384766, -0.08004593104124069214, -0.00251909904181957245, 0.15608794987201690674, 0.03704747557640075684, -0.01158380787819623947, -0.13369630277156829834, -0.26881039142608642578, -0.16601178050041198730, -0.14854659140110015869, -0.14767280220985412598, 0.20626099407672882080, -0.22951592504978179932, 0.12497762590646743774, -0.23860894143581390381, 0.05562774837017059326, -0.15341849625110626221, 0.01670673675835132599, -0.28198438882827758789, 0.16542325913906097412, -0.00950249563902616501, 0.25197017192840576172, -0.28866446018218994141, 0.27685368061065673828, 0.10761054605245590210, -0.36224204301834106445, 0.08870159834623336792, 0.16966801881790161133, 			},

};
data_t L6_neure_bias[L6_neure_number] = { -0.01946203969419002533, 0.02887899056077003479, -0.01341138780117034912, -0.00855200178921222687, -0.01068316306918859482, -0.00160375272389501333, 0.01874374784529209137, 0.02204253897070884705, -0.01850662380456924438, 0.00255335727706551552, };


#endif
